tree
version=v3
num_class=1
num_tree_per_iteration=1
label_index=0
max_feature_idx=9
objective=regression
feature_names=Column_0 Column_1 Column_2 Column_3 Column_4 Column_5 Column_6 Column_7 Column_8 Column_9
feature_infos=[-1.2519051414207174:4.0023281384293066] [-1.5852477090865578:3.5883784711544271] [-1.2712907990456552:3.5744003468383747] [-0.90362976936818185:4.523692795832952] [-1.6458292879786933:1.9763341912097978] [-2.6940354774517017:2.6717530717126308] [-1.6993295362587928:2.5685898737936972] [-3.7486101669779002:2.8434176658330772] [-2.452786034052246:4.5168738181996426] [-0.90893245173357773:4.2096824887627031]
tree_sizes=1054 1158 712 1146 712 724 714 713 728 712 730 1150 710 1145

Tree=0
num_leaves=10
num_cat=0
split_feature=6 5 2 5 9 0 5 7 6
split_gain=340.841 145.815 126.622 87.6051 79.17 68.8188 139.105 59.3663 21.904
threshold=-0.83366099987809339 -0.12274786215494697 -0.15231866311184639 0.53461284964885136 -0.10963343723123424 -0.86748820160124607 -0.69382639400385704 0.086525415590553434 0.24605775521518303
decision_type=2 2 2 2 2 2 2 2 2
left_child=2 5 -1 7 -4 -2 -7 -3 -5
right_child=1 3 4 8 -6 6 -8 -9 -10
leaf_value=9.242615428264326 8.9765265417914115 9.0911654327465943 9.186615430171674 9.0758154309346128 9.0851654300867377 9.1326154301716738 9.0034154294087347 9.179015433604901 9.0166154320790231
leaf_weight=5.0000000000000027 9.0000000000000018 8.0000000000000018 5.0000000000000009 4.9999999999999982 7.9999999999999973 4.9999999999999991 9.9999999999999982 4.9999999999999991 5
leaf_count=5 9 8 5 5 8 5 10 5 5
internal_value=9.08308 9.05473 9.15708 9.09072 9.12418 9.02025 9.04648 9.12495 9.04622
internal_weight=0 47 18 23 13 24 15 13 10
internal_count=65 47 18 23 13 24 15 13 10
is_linear=0
shrinkage=1


Tree=1
num_leaves=11
num_cat=0
split_feature=6 5 2 5 9 0 4 7 6 0
split_gain=327.344 141.624 121.608 118.521 76.0349 60.0846 50.8816 100.052 21.0366 11.0091
threshold=-0.83366099987809339 -0.034305816474424287 -0.15231866311184639 0.53461284964885136 -0.10963343723123424 -0.2400218385401279 0.96677547752981685 0.37738856679134231 0.24605775521518303 -0.7707334272617673
decision_type=2 2 2 2 2 2 2 2 2 2
left_child=2 6 -1 5 -4 -3 7 -2 -5 -8
right_child=1 3 4 8 -6 -7 9 -9 -10 -11
leaf_value=0.15634769058227529 -0.088061241209506924 0.012225294113159178 0.1014676933288574 -0.0071163043975830086 0.0020466919429600245 0.11027389860153193 -0.11443808650970456 0.0091465058591630715 -0.06513230729103088 -0.072468309402465833
leaf_weight=5.0000000000000027 8.0000000000000053 5 5.0000000000000009 4.9999999999999982 7.9999999999999973 5.0000000000000018 5 8.9999999999999982 5 4.9999999999999982
leaf_count=5 8 5 5 5 8 5 5 9 5 5
internal_value=0 -0.0277755 0.072525 0.0125626 0.0402855 0.0612496 -0.0576557 -0.0365983 -0.0361243 -0.0934532
internal_weight=0 47 18 20 13 10 27 17 10 10
internal_count=65 47 18 20 13 10 27 17 10 10
is_linear=0
shrinkage=0.02


Tree=2
num_leaves=6
num_cat=0
split_feature=9 6 9 9 3
split_gain=318.673 175.849 177.371 98.9064 68.8716
threshold=0.97138673633539341 -0.83366099987809339 -0.10963343723123424 -0.83320460777710836 -0.25098159949315041
decision_type=2 2 2 2 2
left_child=1 2 -1 -3 -5
right_child=-2 3 -4 4 -6
leaf_value=0.12920207023620603 0.12747082778385707 -0.10969698190689087 -0.018987820254904888 -0.051179307169384444 0.002134093216487339
leaf_weight=6 6.9999999999999991 5.9999999999999991 6.9999999999999982 17.999999999999996 21.000000000000004
leaf_count=6 7 6 7 18 21
internal_value=0 -0.0153844 0.0494075 -0.0341021 -0.0224721
internal_weight=0 58 13 45 39
internal_count=65 58 13 45 39
is_linear=0
shrinkage=0.02


Tree=3
num_leaves=11
num_cat=0
split_feature=6 5 2 5 5 0 2 7 6 4
split_gain=301.928 133.598 118.571 114.746 58.9632 58.2186 51.1271 114.149 19.3342 19.1171
threshold=-0.83366099987809339 -0.034305816474424287 -0.15231866311184639 0.53461284964885136 -0.016226591944551436 -0.2400218385401279 -0.45041510793680845 0.37738856679134231 0.24605775521518303 0.63249862795429912
decision_type=2 2 2 2 2 2 2 2 2 2
left_child=2 6 -1 5 -4 -3 9 -8 -5 -2
right_child=1 3 4 8 -6 -7 7 -9 -10 -11
leaf_value=0.15242189979553211 -0.058060708045959447 0.012151360511779783 -0.0081884260475635507 -0.0075928478240966813 0.077252782072339765 0.10866550064086909 -0.078633799552917494 0.036767310301462804 -0.06321176481246947 -0.10671126297542026
leaf_weight=5.0000000000000027 6.0000000000000018 5 6.0000000000000009 4.9999999999999982 6.9999999999999973 5.0000000000000018 7.9999999999999982 6 5 7
leaf_count=5 6 5 6 5 7 5 8 6 5 7
internal_value=0 -0.0266755 0.0696527 0.0125031 0.0378184 0.0604084 -0.0556967 -0.0291762 -0.0354023 -0.0842572
internal_weight=0 47 18 20 13 10 27 14 10 13
internal_count=65 47 18 20 13 10 27 14 10 13
is_linear=0
shrinkage=0.02


Tree=4
num_leaves=6
num_cat=0
split_feature=9 6 9 9 3
split_gain=299.838 161.662 171.559 91.9802 66.3771
threshold=0.97138673633539341 -0.83366099987809339 -0.10963343723123424 -0.83320460777710836 -0.25098159949315041
decision_type=2 2 2 2 2
left_child=1 2 -1 -3 -5
right_child=-2 3 -4 4 -6
leaf_value=0.12567682107289632 0.12364642126219613 -0.1057695746421814 -0.020065074094704222 -0.049836725592613228 0.0025022939840952554
leaf_weight=6 6.9999999999999991 5.9999999999999991 6.9999999999999982 17.999999999999996 21.000000000000004
leaf_count=6 7 6 7 18 21
internal_value=0 -0.0149228 0.0472004 -0.0328696 -0.0216542
internal_weight=0 58 13 45 39
internal_count=65 58 13 45 39
is_linear=0
shrinkage=0.02


Tree=5
num_leaves=6
num_cat=0
split_feature=9 1 4 3 4
split_gain=287.964 154.091 167.59 211.29 62.5009
threshold=0.97138673633539341 0.58790806444441113 1.0941499516930386 -0.25098159949315041 0.96677547752981685
decision_type=2 2 2 2 2
left_child=1 2 3 -1 -3
right_child=-2 4 -4 -5 -6
leaf_value=-0.0079702526450157168 0.1211734962463379 -0.10140548070271806 -0.091294023990631107 0.10080585765838621 -0.024575402438640596
leaf_weight=24.999999999999996 6.9999999999999991 9.0000000000000018 5.9999999999999991 10.000000000000002 7.9999999999999991
leaf_count=25 7 9 6 10 8
internal_value=0 -0.0146244 0.00636678 0.0231086 -0.0652501
internal_weight=0 58 41 35 17
internal_count=65 58 41 35 17
is_linear=0
shrinkage=0.02


Tree=6
num_leaves=6
num_cat=0
split_feature=9 6 9 9 5
split_gain=276.561 152.883 164.646 85.7491 59.3919
threshold=0.97138673633539341 -0.83366099987809339 -0.10963343723123424 -0.83320460777710836 -0.034305816474424287
decision_type=2 2 2 2 2
left_child=1 2 -1 -3 -5
right_child=-2 3 -4 4 -6
leaf_value=0.12296010057131447 0.11875002367155892 -0.10217198133468629 -0.019815156119210382 -0.042651455564932397 0.0071211323317359465
leaf_weight=6 6.9999999999999991 5.9999999999999991 6.9999999999999982 21.999999999999996 17.000000000000004
leaf_count=6 7 6 7 22 17
internal_value=0 -0.0143319 0.0460811 -0.0317845 -0.0209557
internal_weight=0 58 13 45 39
internal_count=65 58 13 45 39
is_linear=0
shrinkage=0.02


Tree=7
num_leaves=6
num_cat=0
split_feature=9 6 9 9 3
split_gain=265.609 146.829 158.126 82.3534 62.6591
threshold=0.97138673633539341 -0.83366099987809339 -0.10963343723123424 -0.83320460777710836 -0.25098159949315041
decision_type=2 2 2 2 2
left_child=1 2 -1 -3 -5
right_child=-2 3 -4 4 -6
leaf_value=0.12050089875857033 0.11637502048696791 -0.10012854099273683 -0.019418852840151109 -0.047918480402893503 0.0029335862114315938
leaf_weight=6 6.9999999999999991 5.9999999999999991 6.9999999999999982 17.999999999999996 21.000000000000004
leaf_count=6 7 6 7 18 21
internal_value=0 -0.0140453 0.0451595 -0.0311489 -0.0205366
internal_weight=0 58 13 45 39
internal_count=65 58 13 45 39
is_linear=0
shrinkage=0.02


Tree=8
num_leaves=6
num_cat=0
split_feature=9 1 4 3 4
split_gain=255.091 142.374 155.93 202.461 59.5549
threshold=0.97138673633539341 0.58790806444441113 1.0941499516930386 -0.25098159949315041 0.96677547752981685
decision_type=2 2 2 2 2
left_child=1 2 3 -1 -3
right_child=-2 4 -4 -5 -6
leaf_value=-0.0078607123494148275 0.11404752101216997 -0.097720343271891233 -0.087789233128229768 0.098618593215942352 -0.022722788602113724
leaf_weight=24.999999999999996 6.9999999999999991 9.0000000000000018 5.9999999999999991 10.000000000000002 7.9999999999999991
leaf_count=25 7 9 6 10 8
internal_value=0 -0.0137644 0.00641299 0.0225619 -0.0624274
internal_weight=0 58 41 35 17
internal_count=65 58 41 35 17
is_linear=0
shrinkage=0.02


Tree=9
num_leaves=6
num_cat=0
split_feature=9 6 9 9 3
split_gain=244.989 138.856 151.752 76.7297 59.317
threshold=0.97138673633539341 -0.83366099987809339 -0.10963343723123424 -0.83320460777710836 -0.25098159949315041
decision_type=2 2 2 2 2
left_child=1 2 -1 -3 -5
right_child=-2 3 -4 4 -6
leaf_value=0.11789316376050313 0.1117665718282972 -0.096704648335774746 -0.019177485832146238 -0.046519955164856387 0.0029573581332252136
leaf_weight=6 6.9999999999999991 5.9999999999999991 6.9999999999999982 17.999999999999996 21.000000000000004
leaf_count=6 7 6 7 18 21
internal_value=0 -0.0134891 0.0440859 -0.0301218 -0.0198783
internal_weight=0 58 13 45 39
internal_count=65 58 13 45 39
is_linear=0
shrinkage=0.02


Tree=10
num_leaves=6
num_cat=0
split_feature=9 1 4 3 4
split_gain=235.288 134.933 147.722 193.007 57.1306
threshold=0.97138673633539341 0.58790806444441113 1.0941499516930386 -0.25098159949315041 0.96677547752981685
decision_type=2 2 2 2 2
left_child=1 2 3 -1 -3
right_child=-2 4 -4 -5 -6
leaf_value=-0.0075619948625564584 0.10953124031424523 -0.095160669220818367 -0.085265614986419686 0.096401470184326141 -0.021705475598573686
leaf_weight=24.999999999999996 6.9999999999999991 9.0000000000000018 5.9999999999999991 10.000000000000002 7.9999999999999991
leaf_count=25 7 9 6 10 8
internal_value=0 -0.0132193 0.00642369 0.0221419 -0.0605935
internal_weight=0 58 41 35 17
internal_count=65 58 41 35 17
is_linear=0
shrinkage=0.02


Tree=11
num_leaves=11
num_cat=0
split_feature=6 2 5 5 9 2 7 1 4 8
split_gain=229.469 116.957 109.208 113.345 68.2288 45.6449 103.781 16.1032 15.3216 13.372
threshold=-0.83366099987809339 -0.15231866311184639 -0.034305816474424287 0.53461284964885136 -0.10963343723123424 -0.45041510793680845 0.37738856679134231 -1.0000000180025095e-35 0.63249862795429912 0.33276448370772316
decision_type=2 2 2 2 2 2 2 2 2 2
left_child=1 -1 5 7 -3 8 -7 -4 -2 -5
right_child=2 4 3 9 -6 6 -8 -9 -10 -11
leaf_value=0.14292643070220937 -0.053027626673380512 0.087061777114868136 0.085158487796783436 -0.058572687149047863 -0.0071175262273754933 -0.071593696475029001 0.038441747029622386 0.034399087905883773 -0.096581696101597378 -0.012317706823348998
leaf_weight=5.0000000000000027 6.0000000000000018 5.0000000000000009 5 4.9999999999999982 7.9999999999999973 7.9999999999999982 6 5.0000000000000018 7 5
leaf_count=5 6 5 5 5 8 8 6 5 7 5
internal_value=0 0.0607223 -0.0232553 0.0121668 0.0291053 -0.049494 -0.0244356 0.0597788 -0.0764798 -0.0354452
internal_weight=0 18 47 20 13 27 14 10 13 10
internal_count=65 18 47 20 13 27 14 10 13 10
is_linear=0
shrinkage=0.02


Tree=12
num_leaves=6
num_cat=0
split_feature=9 1 4 2 4
split_gain=225.447 125.633 137.975 185.842 55.0226
threshold=0.97138673633539341 0.58790806444441113 1.0941499516930386 -0.3542458497692404 0.96677547752981685
decision_type=2 2 2 2 2
left_child=1 2 3 -1 -3
right_child=-2 4 -4 -5 -6
leaf_value=0.10586990952491761 0.10721614191599656 -0.092575807571411095 -0.082598642110824586 -0.003881106597405893 -0.020488531887531282
leaf_weight=7.9999999999999991 6.9999999999999991 9.0000000000000018 5.9999999999999991 27 7.9999999999999991
leaf_count=8 7 9 6 27 8
internal_value=0 -0.0129399 0.00601409 0.0212048 -0.0586524
internal_weight=0 58 41 35 17
internal_count=65 58 41 35 17
is_linear=0
shrinkage=0.02


Tree=13
num_leaves=11
num_cat=0
split_feature=6 2 5 5 0 5 2 7 4 8
split_gain=214.617 111.043 102.604 109.258 50.7097 45.2005 42.9101 99.6885 14.2908 13.1686
threshold=-0.83366099987809339 -0.15231866311184639 -0.034305816474424287 0.53461284964885136 -0.2400218385401279 -0.016226591944551436 -0.45041510793680845 0.37738856679134231 0.63249862795429912 0.33276448370772316
decision_type=2 2 2 2 2 2 2 2 2 2
left_child=1 -1 6 4 -4 -3 8 -8 -2 -5
right_child=2 5 3 9 -6 -7 7 -9 -10 -11
leaf_value=0.13882312822341911 -0.051438530286153139 -0.012364163696765896 0.013552223205566405 -0.057852226257324231 0.10362751150131221 0.06244393923452924 -0.069845887720584879 0.037998097836971279 -0.093501954759870248 -0.011950480461120603
leaf_weight=5.0000000000000027 6.0000000000000018 6.0000000000000009 5 4.9999999999999982 5.0000000000000018 6.9999999999999973 7.9999999999999982 6 7 5
leaf_count=5 6 6 5 5 5 7 8 6 7 5
internal_value=0 0.0587243 -0.0224902 0.0118443 0.0585899 0.0279171 -0.0479231 -0.023627 -0.0740881 -0.0349014
internal_weight=0 18 47 20 10 13 27 14 13 10
internal_count=65 18 47 20 10 13 27 14 13 10
is_linear=0
shrinkage=0.02


end of trees

feature_importances:
Column_9=22
Column_5=14
Column_6=13
Column_4=12
Column_2=9
Column_3=7
Column_0=5
Column_1=5
Column_7=5
Column_8=2

parameters:
[boosting: gbdt]
[objective: regression]
[metric: l2]
[tree_learner: serial]
[device_type: cpu]
[data: ]
[valid: ]
[num_iterations: 500]
[learning_rate: 0.02]
[num_leaves: 16]
[num_threads: -1]
[deterministic: 0]
[force_col_wise: 0]
[force_row_wise: 0]
[histogram_pool_size: -1]
[max_depth: 4]
[min_data_in_leaf: 5]
[min_sum_hessian_in_leaf: 0.001]
[bagging_fraction: 1]
[pos_bagging_fraction: 1]
[neg_bagging_fraction: 1]
[bagging_freq: 0]
[bagging_seed: 3]
[feature_fraction: 0.9]
[feature_fraction_bynode: 1]
[feature_fraction_seed: 2]
[extra_trees: 0]
[extra_seed: 6]
[early_stopping_round: 100]
[first_metric_only: 0]
[max_delta_step: 0]
[lambda_l1: 0]
[lambda_l2: 0]
[linear_lambda: 0]
[min_gain_to_split: 0]
[drop_rate: 0.1]
[max_drop: 50]
[skip_drop: 0.5]
[xgboost_dart_mode: 0]
[uniform_drop: 0]
[drop_seed: 4]
[top_rate: 0.2]
[other_rate: 0.1]
[min_data_per_group: 100]
[max_cat_threshold: 32]
[cat_l2: 10]
[cat_smooth: 10]
[max_cat_to_onehot: 4]
[top_k: 20]
[monotone_constraints: ]
[monotone_constraints_method: basic]
[monotone_penalty: 0]
[feature_contri: ]
[forcedsplits_filename: ]
[refit_decay_rate: 0.9]
[cegb_tradeoff: 1]
[cegb_penalty_split: 0]
[cegb_penalty_feature_lazy: ]
[cegb_penalty_feature_coupled: ]
[path_smooth: 0]
[interaction_constraints: ]
[verbosity: -1]
[saved_feature_importance_type: 0]
[linear_tree: 0]
[max_bin: 255]
[max_bin_by_feature: ]
[min_data_in_bin: 3]
[bin_construct_sample_cnt: 200000]
[data_random_seed: 1]
[is_enable_sparse: 1]
[enable_bundle: 1]
[use_missing: 1]
[zero_as_missing: 0]
[feature_pre_filter: 1]
[pre_partition: 0]
[two_round: 0]
[header: 0]
[label_column: ]
[weight_column: ]
[group_column: ]
[ignore_column: ]
[categorical_feature: ]
[forcedbins_filename: ]
[precise_float_parser: 0]
[objective_seed: 5]
[num_class: 1]
[is_unbalance: 0]
[scale_pos_weight: 1]
[sigmoid: 1]
[boost_from_average: 1]
[reg_sqrt: 0]
[alpha: 0.9]
[fair_c: 1]
[poisson_max_delta_step: 0.7]
[tweedie_variance_power: 1.5]
[lambdarank_truncation_level: 30]
[lambdarank_norm: 1]
[label_gain: ]
[eval_at: ]
[multi_error_top_k: 1]
[auc_mu_weights: ]
[num_machines: 1]
[local_listen_port: 12400]
[time_out: 120]
[machine_list_filename: ]
[machines: ]
[gpu_platform_id: -1]
[gpu_device_id: -1]
[gpu_use_dp: 0]
[num_gpu: 1]

end of parameters

pandas_categorical:null
