tree
version=v3
num_class=1
num_tree_per_iteration=1
label_index=0
max_feature_idx=9
objective=regression
feature_names=Column_0 Column_1 Column_2 Column_3 Column_4 Column_5 Column_6 Column_7 Column_8 Column_9
feature_infos=[-1.335802476750632:3.368650759178351] [-1.56148555054844:3.4557723211198366] [-1.2746760715742347:3.7284803895617924] [-0.81850568816030578:4.1767746150644891] [-1.469478592401003:2.1258934328019987] [-2.988690073982629:2.7196629664012466] [-1.5508377521113987:2.562993935483139] [-3.628065276788301:2.8765103526723279] [-2.4576407841549179:4.6497901275036044] [-1.0558642065965975:4.2660211718968712]
tree_sizes=876 921 908 1002 792 824 708 909 727 909 808 710 910 985 793 985 808 986 796

Tree=0
num_leaves=8
num_cat=0
split_feature=9 5 1 0 5 2 8
split_gain=763.827 263.151 187.884 181.574 128.275 126.101 17.626
threshold=1.2368754331791114 -0.15580356621018179 -0.17381140496715575 -0.40833014029745412 1.0000000180025095e-35 -0.042744174717274645 0.40878910590797307
decision_type=2 2 2 2 2 2 2
left_child=1 2 5 -3 -5 -1 -4
right_child=-2 3 6 4 -6 -7 -8
leaf_value=9.7365436350305874 9.8727341195515219 9.7838769742420748 9.5853315196795901 9.7361626890727457 9.6313055415664408 9.6068769749005636 9.5447341142381941
leaf_weight=6 6.9999999999999991 7.0000000000000027 11.000000000000002 7.0000000000000027 13.999999999999998 6.0000000000000018 6.9999999999999991
leaf_count=6 7 7 11 7 14 6 7
internal_value=9.67538 9.65157 9.61041 9.69566 9.66626 9.67171 9.56954
internal_weight=0 58 30 28 21 12 18
internal_count=65 58 30 28 21 12 18
is_linear=0
shrinkage=1


Tree=1
num_leaves=8
num_cat=0
split_feature=9 5 0 2 5 5 5
split_gain=733.58 252.73 174.384 157.467 123.196 121.693 24.3022
threshold=1.2368754331791114 -0.15580356621018179 -0.40833014029745412 -0.4585954234954665 1.0000000180025095e-35 -0.48080126392945161 -0.40445103473021188
decision_type=2 2 2 2 2 2 2
left_child=1 3 -3 6 -4 -5 -1
right_child=-2 2 4 5 -6 -7 -8
leaf_value=-0.13230002827114529 0.19340246473039902 0.10632246085575643 0.059562461035592186 0.021911307096481324 -0.043197538086346222 -0.092020973364512121 -0.077306625604629461
leaf_weight=8.9999999999999982 6.9999999999999991 7.0000000000000027 7.0000000000000027 9.9999999999999982 13.999999999999998 5.9999999999999991 5.0000000000000027
leaf_count=9 7 7 7 10 14 6 5
internal_value=0 -0.0233417 0.0198725 -0.0636749 -0.00894421 -0.0208133 -0.11266
internal_weight=0 58 28 30 21 16 14
internal_count=65 58 28 30 21 16 14
is_linear=0
shrinkage=0.02


Tree=2
num_leaves=8
num_cat=0
split_feature=9 5 1 0 5 0 5
split_gain=704.53 242.722 175.167 167.478 118.317 111.192 15.856
threshold=1.2368754331791114 -0.15580356621018179 -0.17381140496715575 -0.40833014029745412 1.0000000180025095e-35 -1.0000000180025095e-35 -0.69838900262644033
decision_type=2 2 2 2 2 2 2
left_child=1 2 5 -3 -5 -1 -4
right_child=-2 3 6 4 -6 -7 -8
leaf_value=0.068822134494781487 0.18953441551753453 0.10419601099831713 -0.1253915391649518 0.058371214866638155 -0.042333589111055642 -0.054665674822671047 -0.086886494701558889
leaf_weight=5 6.9999999999999991 7.0000000000000027 7.0000000000000027 7.0000000000000027 13.999999999999998 7.0000000000000018 10.999999999999998
leaf_count=5 7 7 7 7 14 7 11
internal_value=0 -0.0228748 -0.0624014 0.019475 -0.00876532 -0.00321242 -0.101861
internal_weight=0 58 30 28 21 12 18
internal_count=65 58 30 28 21 12 18
is_linear=0
shrinkage=0.02


Tree=3
num_leaves=9
num_cat=0
split_feature=5 3 0 6 7 8 1 5
split_gain=539.639 396.392 149.739 138.444 116.255 255.464 71.1308 4.90829
threshold=-0.13541565312696743 -0.63789763362149732 -0.40833014029745412 0.80595129647093766 1.0000000180025095e-35 0.18468395198822643 -1.0000000180025095e-35 -0.48080126392945161
decision_type=2 2 2 2 2 2 2 2
left_child=3 -2 -3 4 -1 -6 -4 -5
right_child=1 2 6 7 5 -7 -8 -9
leaf_value=-0.09771605457578382 0.17104823960198295 0.1113120918273925 0.012248847026091352 -0.13288494491577146 0.079921932816505434 -0.07991053029894829 -0.076515489399433131 -0.10486125946044923
leaf_weight=7.0000000000000027 8.9999999999999982 5.0000000000000027 13.000000000000002 5 7.9999999999999991 7.9999999999999991 4.9999999999999991 4.9999999999999982
leaf_count=7 9 5 13 5 8 8 5 5
internal_value=0 0.0585204 0.0144877 -0.056747 -0.0297357 5.70126e-06 -0.0124079 -0.118873
internal_weight=0 32 23 33 23 16 18 10
internal_count=65 32 23 33 23 16 18 10
is_linear=0
shrinkage=0.02


Tree=4
num_leaves=7
num_cat=0
split_feature=9 9 9 4 6 7
split_gain=655.185 223.657 153.79 237.072 124.623 21.8814
threshold=1.2368754331791114 -0.84959904070652026 -0.32476824922162234 0.36830221499627541 -0.049724264344604342 0.5169062099441506
decision_type=2 2 2 2 2 2
left_child=1 5 3 -3 -4 -1
right_child=-2 2 4 -5 -6 -7
leaf_value=-0.066998644828796403 0.18277647154671806 0.10852998858690262 0.00012912780046463014 -0.037540014386177066 -0.087929364487528736 -0.12177892821175711
leaf_weight=4.9999999999999982 6.9999999999999991 9.9999999999999982 18 7.9999999999999991 10.000000000000005 7
leaf_count=5 7 10 18 8 10 7
internal_value=0 -0.0220592 -0.00199977 0.04361 -0.0313203 -0.0989538
internal_weight=0 58 46 18 28 12
internal_count=65 58 46 18 28 12
is_linear=0
shrinkage=0.02


Tree=5
num_leaves=7
num_cat=0
split_feature=9 8 9 4 3 0
split_gain=629.24 226.091 160.105 289.23 96.9527 73.5218
threshold=1.2368754331791114 0.40878910590797307 -0.32476824922162234 0.36830221499627541 -0.26031991598995324 -0.31197486911487204
decision_type=2 2 2 2 2 2
left_child=1 2 3 -1 -4 -3
right_child=-2 5 4 -5 -6 -7
leaf_value=0.11850467717647552 0.17912094524928501 -0.12578322516547311 -0.0057468573306687174 -0.033608332037925723 -0.091019650101661589 -0.030130821824073794
leaf_weight=9.9999999999999982 6.9999999999999991 8.9999999999999982 15.999999999999998 9.9999999999999982 8.0000000000000053 4.9999999999999991
leaf_count=10 7 9 16 10 8 5
internal_value=0 -0.021618 0.00065583 0.0424482 -0.0341711 -0.0916217
internal_weight=0 58 44 20 24 14
internal_count=65 58 44 20 24 14
is_linear=0
shrinkage=0.02


Tree=6
num_leaves=6
num_cat=0
split_feature=9 8 6 9 8
split_gain=604.322 217.138 162.881 189.831 70.7805
threshold=1.2368754331791114 0.40878910590797307 -1.1923690012808907 -0.32476824922162234 1.1554866475340619
decision_type=2 2 2 2 2
left_child=1 2 -1 -4 -3
right_child=-2 4 3 -5 -6
leaf_value=0.097482862472534182 0.17553852762494768 -0.1287343752384186 0.032471588949362445 -0.057055318303406224 -0.03786234607299168
leaf_weight=5.9999999999999991 6.9999999999999991 7.9999999999999982 17.999999999999996 20.000000000000004 6
leaf_count=6 7 8 18 20 6
internal_value=0 -0.0211857 0.000642714 -0.0146478 -0.0897892
internal_weight=0 58 44 38 14
internal_count=65 58 44 38 14
is_linear=0
shrinkage=0.02


Tree=7
num_leaves=8
num_cat=0
split_feature=9 5 1 0 2 5 6
split_gain=580.391 212.082 154.807 146.291 112.492 108.863 12.5958
threshold=1.2368754331791114 -0.15580356621018179 -0.17381140496715575 -0.40833014029745412 -0.042744174717274645 1.0000000180025095e-35 1.1888184103412043
decision_type=2 2 2 2 2 2 2
left_child=1 2 4 -3 -1 -5 -4
right_child=-2 3 6 5 -6 -7 -8
leaf_value=0.059168387899796164 0.17202775410243443 0.098005601337977769 -0.084429142475128158 0.056829506329127692 -0.063301606178283662 -0.039768047396625796 -0.12178184700012207
leaf_weight=6 6.9999999999999991 7.0000000000000027 13.000000000000002 7.0000000000000027 6.0000000000000018 13.999999999999998 4.9999999999999991
leaf_count=6 7 7 13 7 6 14 5
internal_value=0 -0.020762 -0.0577096 0.0188248 -0.00206661 -0.00756886 -0.0948049
internal_weight=0 58 30 28 12 21 18
internal_count=65 58 30 28 12 21 18
is_linear=0
shrinkage=0.02


Tree=8
num_leaves=6
num_cat=0
split_feature=9 8 6 9 0
split_gain=557.407 206.047 153.231 180.824 68.2347
threshold=1.2368754331791114 0.40878910590797307 -1.1923690012808907 -0.32476824922162234 -0.31197486911487204
decision_type=2 2 2 2 2
left_child=1 2 -1 -4 -3
right_child=-2 4 3 -5 -6
leaf_value=0.094844535191853846 0.16858720200402397 -0.12008560392591688 0.03207421415381962 -0.055302995778620238 -0.027936622500419617
leaf_weight=5.9999999999999991 6.9999999999999991 8.9999999999999982 17.999999999999996 20.000000000000004 4.9999999999999991
leaf_count=6 7 9 18 20 5
internal_value=0 -0.0203467 0.00091689 -0.0139138 -0.0871753
internal_weight=0 58 44 38 14
internal_count=65 58 44 38 14
is_linear=0
shrinkage=0.02


Tree=9
num_leaves=8
num_cat=0
split_feature=9 5 1 0 2 5 6
split_gain=535.334 201.339 146.905 137.801 108.278 102.862 11.7777
threshold=1.2368754331791114 -0.15580356621018179 -0.17381140496715575 -0.40833014029745412 -0.042744174717274645 1.0000000180025095e-35 1.1888184103412043
decision_type=2 2 2 2 2 2 2
left_child=1 2 4 -3 -1 -5 -4
right_child=-2 3 6 5 -6 -7 -8
leaf_value=0.05834202816088993 0.16521545716694422 0.095480062961578321 -0.082042394968179541 0.055613154683794262 -0.061812484264373753 -0.038284138036625726 -0.11816177368164063
leaf_weight=6 6.9999999999999991 7.0000000000000027 13.000000000000002 7.0000000000000027 6.0000000000000018 13.999999999999998 4.9999999999999991
leaf_count=6 7 7 13 7 6 14 5
internal_value=0 -0.0199398 -0.0559394 0.0186312 -0.00173523 -0.00698504 -0.0920756
internal_weight=0 58 30 28 12 21 18
internal_count=65 58 30 28 12 21 18
is_linear=0
shrinkage=0.02


Tree=10
num_leaves=7
num_cat=0
split_feature=9 9 9 4 0 7
split_gain=514.135 196.835 132.037 210.716 54.0604 15.2311
threshold=1.2368754331791114 -0.84959904070652026 -0.32476824922162234 0.36830221499627541 0.97147544004224196 0.5169062099441506
decision_type=2 2 2 2 2 2
left_child=1 5 3 -3 -4 -1
right_child=-2 2 4 -5 -6 -7
leaf_value=-0.065016946554183969 0.16191114527838571 0.10274349547922612 -0.014933505602504891 -0.034967862963676453 -0.087493906974792479 -0.11072074481419153
leaf_weight=4.9999999999999982 6.9999999999999991 9.9999999999999982 23.000000000000007 7.9999999999999991 4.9999999999999991 7
leaf_count=5 7 10 23 8 5 7
internal_value=0 -0.019541 -0.000722785 0.0415384 -0.0278907 -0.0916775
internal_weight=0 58 46 18 28 12
internal_count=65 58 46 18 28 12
is_linear=0
shrinkage=0.02


Tree=11
num_leaves=6
num_cat=0
split_feature=9 8 6 9 8
split_gain=493.775 191.574 143.572 170.254 63.4875
threshold=1.2368754331791114 0.40878910590797307 -1.1923690012808907 -0.32476824922162234 1.1554866475340619
decision_type=2 2 2 2 2
left_child=1 2 -1 -4 -3
right_child=-2 4 3 -5 -6
leaf_value=0.092271904150644929 0.15867292131696428 -0.12047300338745119 0.031621078869534872 -0.053163919061422336 -0.034409814476966852
leaf_weight=5.9999999999999991 6.9999999999999991 7.9999999999999982 17.999999999999996 20.000000000000004 6
leaf_count=6 7 8 18 20 6
internal_value=0 -0.0191502 0.00135301 -0.0130026 -0.0835888
internal_weight=0 58 44 38 14
internal_count=65 58 44 38 14
is_linear=0
shrinkage=0.02


Tree=12
num_leaves=8
num_cat=0
split_feature=9 5 1 0 2 5 5
split_gain=474.221 188.256 137.66 128.021 101.269 96.9346 7.6526
threshold=1.2368754331791114 -0.15580356621018179 -0.17381140496715575 -0.40833014029745412 -0.042744174717274645 1.0000000180025095e-35 -0.69838900262644033
decision_type=2 2 2 2 2 2 2
left_child=1 2 4 -3 -1 -5 -4
right_child=-2 3 6 5 -6 -7 -8
leaf_value=0.05699365946153799 0.15549946682793755 0.092601389884948676 -0.10490546567099429 0.054607045991080121 -0.059206806023915579 -0.036544934426035201 -0.078155366832559761
leaf_weight=6 6.9999999999999991 7.0000000000000027 7.0000000000000027 7.0000000000000027 6.0000000000000018 13.999999999999998 10.999999999999998
leaf_count=6 7 7 7 7 6 14 11
internal_value=0 -0.0187672 -0.0535775 0.0185296 -0.00110657 -0.00616094 -0.0885582
internal_weight=0 58 30 28 12 21 18
internal_count=65 58 30 28 12 21 18
is_linear=0
shrinkage=0.02


Tree=13
num_leaves=9
num_cat=0
split_feature=5 3 0 6 1 1 3 2
split_gain=406.432 273.394 121.636 112.799 114.131 56.2757 22.5829 4.84153
threshold=-0.13541565312696743 -0.63789763362149732 -0.40833014029745412 0.6880505529060047 -0.17381140496715575 -1.0000000180025095e-35 -0.080554788738197672 -0.6288879395994994
decision_type=2 2 2 2 2 2 2 2
left_child=3 -2 -3 4 -1 -4 -6 -5
right_child=1 2 5 7 6 -7 -8 -9
leaf_value=0.032542229096094763 0.14423937718073526 0.10148497962951654 0.011908848744172314 -0.11086668650309242 -0.094138050556182892 -0.067044367432594301 -0.03848666531699043 -0.08545926138758661
leaf_weight=9 8.9999999999999982 5.0000000000000027 13.000000000000002 6 4.9999999999999982 4.9999999999999991 7.0000000000000018 5.9999999999999982
leaf_count=9 9 5 13 6 5 5 7 6
internal_value=0 0.0507866 0.0142182 -0.0492477 -0.021296 -0.0100226 -0.0616747 -0.098163
internal_weight=0 32 23 33 21 18 12 12
internal_count=65 32 23 33 21 18 12 12
is_linear=0
shrinkage=0.02


Tree=14
num_leaves=7
num_cat=0
split_feature=9 9 9 4 6 7
split_gain=440.582 178.814 121.101 195.46 104.268 13.1907
threshold=1.2368754331791114 -0.84959904070652026 -0.32476824922162234 0.36830221499627541 -0.049724264344604342 0.5169062099441506
decision_type=2 2 2 2 2 2
left_child=1 5 3 -3 -4 -1
right_child=-2 2 4 -5 -6 -7
leaf_value=-0.062033916473388691 0.14988277418272836 0.099267798207700264 0.002595012452867296 -0.033364742249250415 -0.077951596856117189 -0.10456630366189139
leaf_weight=4.9999999999999982 6.9999999999999991 9.9999999999999982 18 7.9999999999999991 10.000000000000005 7
leaf_count=5 7 10 18 8 10 7
internal_value=0 -0.0180893 -0.000153167 0.04032 -0.0261716 -0.0868445
internal_weight=0 58 46 18 28 12
internal_count=65 58 46 18 28 12
is_linear=0
shrinkage=0.02


Tree=15
num_leaves=9
num_cat=0
split_feature=5 3 0 6 1 1 3 2
split_gain=379.51 253.837 116.78 106.901 105.927 51.5104 22.3222 4.44426
threshold=-0.13541565312696743 -0.63789763362149732 -0.40833014029745412 0.6880505529060047 -0.17381140496715575 -1.0000000180025095e-35 -0.080554788738197672 -0.6288879395994994
decision_type=2 2 2 2 2 2 2 2
left_child=3 -2 -3 4 -1 -4 -6 -5
right_child=1 2 5 7 6 -7 -8 -9
leaf_value=0.031489741007486971 0.1391240261660682 0.099346323013305593 0.01106991070967454 -0.10737924575805663 -0.091553488731384289 -0.064466633319854735 -0.036224164281572602 -0.08303651315470538
leaf_weight=9 8.9999999999999982 5.0000000000000027 13.000000000000002 6 4.9999999999999982 4.9999999999999991 7.0000000000000018 5.9999999999999982
leaf_count=9 9 5 13 6 5 5 7 6
internal_value=0 0.0490757 0.0138394 -0.0475886 -0.0203776 -0.00991246 -0.059278 -0.0952079
internal_weight=0 32 23 33 21 18 12 12
internal_count=65 32 23 33 21 18 12 12
is_linear=0
shrinkage=0.02


Tree=16
num_leaves=7
num_cat=0
split_feature=9 8 9 4 6 8
split_gain=409.326 171.765 125.335 230.739 107.827 55.8744
threshold=1.2368754331791114 0.40878910590797307 -0.32476824922162234 0.36830221499627541 -0.46510126459413809 1.1554866475340619
decision_type=2 2 2 2 2 2
left_child=1 2 3 -1 -4 -3
right_child=-2 5 4 -5 -6 -7
leaf_value=0.10688747673481704 0.14446851066180638 -0.11305430471897127 0.017249841690063477 -0.028976886987686159 -0.067831051624738223 -0.032315932512283319
leaf_weight=9.9999999999999982 6.9999999999999991 7.9999999999999982 10.999999999999998 9.9999999999999982 13.000000000000005 6
leaf_count=10 7 8 11 10 13 6
internal_value=0 -0.0174359 0.00197842 0.0389553 -0.0288356 -0.0784521
internal_weight=0 58 44 20 24 14
internal_count=65 58 44 20 24 14
is_linear=0
shrinkage=0.02


Tree=17
num_leaves=9
num_cat=0
split_feature=5 3 0 6 1 0 3 2
split_gain=355.784 234.683 110.641 100.928 99.4483 51.0114 20.8148 3.69871
threshold=-0.13541565312696743 -0.63789763362149732 -0.40833014029745412 0.6880505529060047 -0.17381140496715575 0.11370154040001966 -0.080554788738197672 -0.32783087963053409
decision_type=2 2 2 2 2 2 2 2
left_child=3 -2 -3 4 -1 -4 -6 -5
right_child=1 2 5 7 6 -7 -8 -9
leaf_value=0.030618990659713741 0.13410110284884771 0.096865373611450117 -0.043151860766940636 -0.10173118250710622 -0.088495738029479992 0.024185680415895253 -0.035067222118377671 -0.079208921372890484
leaf_weight=9 8.9999999999999982 5.0000000000000027 9.0000000000000018 7 4.9999999999999982 8.9999999999999982 7.0000000000000018 4.9999999999999982
leaf_count=9 9 5 9 7 5 9 7 5
internal_value=0 0.0475169 0.0136361 -0.046077 -0.0196371 -0.00948309 -0.0573291 -0.0923469
internal_weight=0 32 23 33 21 18 12 12
internal_count=65 32 23 33 21 18 12 12
is_linear=0
shrinkage=0.02


Tree=18
num_leaves=7
num_cat=0
split_feature=9 9 9 4 6 7
split_gain=380.077 160.471 112.286 177.774 91.2047 11.7623
threshold=1.2368754331791114 -0.84959904070652026 -0.32476824922162234 0.36830221499627541 -0.049724264344604342 0.5169062099441506
decision_type=2 2 2 2 2 2
left_child=1 5 3 -3 -4 -1
right_child=-2 2 4 -5 -6 -7
leaf_value=-0.058505788326263436 0.13921116191361632 0.095379929214715956 0.0020406618383195666 -0.03110983595252037 -0.073291641235351521 -0.098669325283595483
leaf_weight=4.9999999999999982 6.9999999999999991 9.9999999999999982 18 7.9999999999999991 10.000000000000005 7
leaf_count=5 7 10 18 8 10 7
internal_value=0 -0.0168013 0.000189915 0.0391623 -0.0248637 -0.0819345
internal_weight=0 58 46 18 28 12
internal_count=65 58 46 18 28 12
is_linear=0
shrinkage=0.02


end of trees

feature_importances:
Column_9=28
Column_5=21
Column_0=15
Column_6=13
Column_1=11
Column_8=10
Column_2=8
Column_3=8
Column_4=6
Column_7=5

parameters:
[boosting: gbdt]
[objective: regression]
[metric: l2]
[tree_learner: serial]
[device_type: cpu]
[data: ]
[valid: ]
[num_iterations: 500]
[learning_rate: 0.02]
[num_leaves: 16]
[num_threads: -1]
[deterministic: 0]
[force_col_wise: 0]
[force_row_wise: 0]
[histogram_pool_size: -1]
[max_depth: 4]
[min_data_in_leaf: 5]
[min_sum_hessian_in_leaf: 0.001]
[bagging_fraction: 1]
[pos_bagging_fraction: 1]
[neg_bagging_fraction: 1]
[bagging_freq: 0]
[bagging_seed: 3]
[feature_fraction: 0.9]
[feature_fraction_bynode: 1]
[feature_fraction_seed: 2]
[extra_trees: 0]
[extra_seed: 6]
[early_stopping_round: 100]
[first_metric_only: 0]
[max_delta_step: 0]
[lambda_l1: 0]
[lambda_l2: 0]
[linear_lambda: 0]
[min_gain_to_split: 0]
[drop_rate: 0.1]
[max_drop: 50]
[skip_drop: 0.5]
[xgboost_dart_mode: 0]
[uniform_drop: 0]
[drop_seed: 4]
[top_rate: 0.2]
[other_rate: 0.1]
[min_data_per_group: 100]
[max_cat_threshold: 32]
[cat_l2: 10]
[cat_smooth: 10]
[max_cat_to_onehot: 4]
[top_k: 20]
[monotone_constraints: ]
[monotone_constraints_method: basic]
[monotone_penalty: 0]
[feature_contri: ]
[forcedsplits_filename: ]
[refit_decay_rate: 0.9]
[cegb_tradeoff: 1]
[cegb_penalty_split: 0]
[cegb_penalty_feature_lazy: ]
[cegb_penalty_feature_coupled: ]
[path_smooth: 0]
[interaction_constraints: ]
[verbosity: -1]
[saved_feature_importance_type: 0]
[linear_tree: 0]
[max_bin: 255]
[max_bin_by_feature: ]
[min_data_in_bin: 3]
[bin_construct_sample_cnt: 200000]
[data_random_seed: 1]
[is_enable_sparse: 1]
[enable_bundle: 1]
[use_missing: 1]
[zero_as_missing: 0]
[feature_pre_filter: 1]
[pre_partition: 0]
[two_round: 0]
[header: 0]
[label_column: ]
[weight_column: ]
[group_column: ]
[ignore_column: ]
[categorical_feature: ]
[forcedbins_filename: ]
[precise_float_parser: 0]
[objective_seed: 5]
[num_class: 1]
[is_unbalance: 0]
[scale_pos_weight: 1]
[sigmoid: 1]
[boost_from_average: 1]
[reg_sqrt: 0]
[alpha: 0.9]
[fair_c: 1]
[poisson_max_delta_step: 0.7]
[tweedie_variance_power: 1.5]
[lambdarank_truncation_level: 30]
[lambdarank_norm: 1]
[label_gain: ]
[eval_at: ]
[multi_error_top_k: 1]
[auc_mu_weights: ]
[num_machines: 1]
[local_listen_port: 12400]
[time_out: 120]
[machine_list_filename: ]
[machines: ]
[gpu_platform_id: -1]
[gpu_device_id: -1]
[gpu_use_dp: 0]
[num_gpu: 1]

end of parameters

pandas_categorical:null
