tree
version=v3
num_class=1
num_tree_per_iteration=1
label_index=0
max_feature_idx=9
objective=regression
feature_names=Column_0 Column_1 Column_2 Column_3 Column_4 Column_5 Column_6 Column_7 Column_8 Column_9
feature_infos=[-1.2302676085389734:3.8386176879800029] [-1.5450239671033088:3.4240217394810974] [-1.2763987299534021:3.6143545957952785] [-0.83810995457988469:4.0011061842104994] [-1.5411069265176838:2.1365905405115111] [-2.8637670530763097:2.5405858473788725] [-1.5495432518482588:2.3863599360728869] [-3.7607904258440112:2.2587048601005866] [-2.7350162615819986:2.0313490967982206] [-1.018404459255646:4.8305663218274617]
tree_sizes=776 800 885 851 705 850 785 884 882 866 882 786 881 812 707 852 805 905 826 710 881 827 718 810 812 825 811 813 829 808 813 827 813 926 811 922 889 926 812 602 924 907 814 733 813 599 618 918 618 811 792 618 602 809 601 807 810 987 617 986 985 1001 737 615 809 1001 736 1002 890 999 999 887 736 737 908 1010 905 887 906 887 888 1009 617 1009 615 715 1009 634 905 635 894 1009 714 886 1007 617 1010 618 1001 893 927 635 975 906 978 636 898 635 816 815 1011 619 636 1012 631 898 698 979 817 929 1012 634 977 622 929 974 634 978 635 979 723 622 621 789 931 774 819 928 733 979 636 796 820 904 814 978 698 725 1060 700 703 817 637 907 978 721 701 979 701 701 726 975 725 636 906 701 974 702 703 1056 715 635 889 1087 712 723 701 976 714 704 802 1057 633 1001 816 716 815 730 908 822 620 814 701 819 636 907 873 975 820 702 719 717 699 636 989 931 910 625 892 1070 701 1000 1009 717 702 701 1020 702 976 617 704 997 731 822 718 623 719 623 820 719 816 701 620 1089 716 821 721 634 997 717 621 822 718 835 908 715 622 910 719 819 621 977 720 621 818 623 719 622 721 619 997 621 620 718 718 618 625 621 616 618 722 814 719 737 637 719 737 705 620 615 811 802 718 620 718 705 621 821 718 719 720 621 717 740 828 617 619 717 638 737 721 931 719 717 640 737 722 620 805 637 809 736 719 801 740 805 721 719 622 725 704 834 918 619 717 620 739 718 721 620 733 616 720 617 730 737 721 620 722 736 735 720 640 637 703 719 733 620 740 736 717 721 736 620 639 736 821 720 732 738 719 738 614 718 617 737 700 737 621 733 928 731 719 618 892 738 719 733 723 619 708 801 736 927 894 722 640 722 619 723 740 718 639 720 620 801 734 737 721 708 616 927 738 733 722 720 617 723 707 621 735 621 722 740 735 619 802 622 738 926 725 703 621 623 734 723 721 722 617 705 622 735 739 722 725 638 734 719 724 619 720 738 704 930 615 708 819 620 709 623 705 620 722 619 641 721 723 722 720 623 706 737 722 930 723 723 703 621 725 619 735 737 722 725 642 724 738 718 722 932 724 705 726 706 620 625 707 623 740 720 803 624 726 928 625 724 721 740

Tree=0
num_leaves=7
num_cat=0
split_feature=6 9 8 9 7 7
split_gain=398.867 255.681 169.783 183.559 75.3615 63.7463
threshold=0.86296745786098794 1.4541822157721127 0.39649277857953019 -0.24119475197879089 0.98514880644826541 0.33313710459945828
decision_type=2 2 2 2 2 2
left_child=1 2 3 -1 -4 -2
right_child=5 -3 4 -5 -6 -7
leaf_value=10.054911844940747 9.9379000861644737 10.137100090742111 9.8607000823020936 9.961970670643975 9.9658334201574323 9.8488334170977279
leaf_weight=16.999999999999996 4.9999999999999991 4.9999999999999991 4.9999999999999982 17.000000000000004 6 8.9999999999999982
leaf_count=17 5 5 5 17 6 9
internal_value=9.975 10.0014 9.98634 10.0084 9.91805 9.88064
internal_weight=0 50 45 34 11 14
internal_count=64 50 45 34 11 14
is_linear=0
shrinkage=1


Tree=1
num_leaves=7
num_cat=0
split_feature=6 9 8 9 7 7
split_gain=383.071 245.556 163.06 176.29 72.3772 61.2219
threshold=0.86296745786098794 1.4541822157721127 0.39649277857953019 -0.24119475197879089 0.98514880644826541 0.33313710459945828
decision_type=2 2 2 2 2 2
left_child=1 2 3 -1 -4 -2
right_child=5 -3 4 -5 -6 -7
leaf_value=0.078313528807724242 -0.036357999920845034 0.15885800604522227 -0.11201400184631349 -0.012768822838278376 -0.008983329137166339 -0.12364333735571968
leaf_weight=16.999999999999996 4.9999999999999991 4.9999999999999991 4.9999999999999982 17.000000000000004 6 8.9999999999999982
leaf_count=17 5 5 5 17 6 9
internal_value=0 0.0258916 0.0111176 0.0327724 -0.0558155 -0.09247
internal_weight=0 50 45 34 11 14
internal_count=64 50 45 34 11 14
is_linear=0
shrinkage=0.02


Tree=2
num_leaves=8
num_cat=0
split_feature=6 9 0 6 5 3 0
split_gain=368.411 214.502 162.463 137.485 137.244 117.136 11.8824
threshold=0.59251026086363234 1.4541822157721127 -0.44089814794773774 1.0000000180025095e-35 -0.10592798465906869 -0.23930235920470569 -0.58518512834675118
decision_type=2 2 2 2 2 2 2
left_child=1 2 5 -4 6 -1 -2
right_child=4 -3 3 -5 -6 -7 -8
leaf_value=0.015283954938252764 -0.12473479986190793 0.15568085074424745 0.01602652098238468 -0.086958773476736889 0.0002244137866156442 0.14025674882034464 -0.085431993246078461
leaf_weight=6 8 4.9999999999999991 20.000000000000004 6.9999999999999991 6.9999999999999991 5.9999999999999982 5.0000000000000009
leaf_count=6 8 5 20 7 7 6 5
internal_value=0 0.0323515 0.0165401 -0.0106734 -0.0711734 0.0777704 -0.109618
internal_weight=0 44 39 27 20 12 13
internal_count=64 44 39 27 20 12 13
is_linear=0
shrinkage=0.02


Tree=3
num_leaves=8
num_cat=0
split_feature=1 3 8 5 8 8 0
split_gain=358.099 181.677 305.63 106.864 75.1344 89.7816 8.44648
threshold=0.29434967917898186 -0.23930235920470569 -1.296752721803252 -0.10592798465906869 0.45475867505448714 0.21931626953149591 -0.97818349407659888
decision_type=2 2 2 2 2 2 2
left_child=1 2 -1 -4 5 -2 -6
right_child=4 -3 3 -5 6 -7 -8
leaf_value=0.16040415096282959 -0.086331989467143974 0.12725173541477747 -0.046237952947616574 0.02925650244951248 -0.12423558044433591 0.023079515149195987 -0.087473678469657909
leaf_weight=4.9999999999999991 6.0000000000000018 6.9999999999999991 15 15 5 6 4.9999999999999982
leaf_count=5 6 7 15 15 5 6 5
internal_value=0 0.0342396 0.0156371 -0.00849073 -0.0653664 -0.0316262 -0.105855
internal_weight=0 42 35 30 22 12 10
internal_count=64 42 35 30 22 12 10
is_linear=0
shrinkage=0.02


Tree=4
num_leaves=6
num_cat=0
split_feature=6 9 0 6 7
split_gain=345.081 221.757 130.624 174.853 57.5915
threshold=0.86296745786098794 1.4541822157721127 0.75141242693555033 -1.1500068954485754 0.33313710459945828
decision_type=2 2 2 2 2
left_child=1 2 3 -1 -2
right_child=4 -3 -4 -5 -6
leaf_value=0.12423645238081614 -0.033342092156410222 0.15093291878700257 -0.068857792956488473 0.0065822130348533389 -0.11799990177154542
leaf_weight=5.9999999999999991 4.9999999999999991 4.9999999999999991 6.9999999999999991 32 8.9999999999999982
leaf_count=6 5 5 7 32 9
internal_value=0 0.0245742 0.0105343 0.0251592 -0.087765
internal_weight=0 50 45 38 14
internal_count=64 50 45 38 14
is_linear=0
shrinkage=0.02


Tree=5
num_leaves=8
num_cat=0
split_feature=1 9 3 5 8 8 0
split_gain=332.281 187.43 248.679 108.033 70.3482 86.7302 7.87277
threshold=0.29434967917898186 1.4541822157721127 -0.23930235920470569 -0.10592798465906869 0.45475867505448714 0.21931626953149591 -0.97818349407659888
decision_type=2 2 2 2 2 2 2
left_child=1 2 3 -1 5 -2 -6
right_child=4 -3 -4 -5 6 -7 -8
leaf_value=-0.04554817342758178 -0.084086283842722528 0.14791426253318787 0.12479059764317103 0.030358001212278999 -0.11988919830322264 0.023449909339348474 -0.084397735357284565
leaf_weight=15 6.0000000000000018 4.9999999999999991 6.9999999999999991 15 5 6 4.9999999999999982
leaf_count=15 6 5 7 15 5 6 5
internal_value=0 0.0329822 0.0174509 -0.00759509 -0.062966 -0.0303182 -0.102143
internal_weight=0 42 37 30 22 12 10
internal_count=64 42 37 30 22 12 10
is_linear=0
shrinkage=0.02


Tree=6
num_leaves=7
num_cat=0
split_feature=6 9 8 9 7 4
split_gain=320.928 204.213 150.518 164.041 64.9932 57.0058
threshold=0.86296745786098794 1.4541822157721127 0.39649277857953019 -0.24119475197879089 0.98514880644826541 1.0873893794756802
decision_type=2 2 2 2 2 2
left_child=1 2 3 -1 -4 -2
right_child=5 -3 4 -5 -6 -7
leaf_value=0.074961541014559152 -0.11958865046501162 0.14495597481727601 -0.1073366622924805 -0.012899627685546873 -0.0097029731671015411 -0.038037001291910802
leaf_weight=16.999999999999996 7.9999999999999982 4.9999999999999991 4.9999999999999982 17.000000000000004 6 6
leaf_count=17 8 5 5 17 6 6
internal_value=0 0.0236986 0.0102256 0.031031 -0.0540819 -0.0846379
internal_weight=0 50 45 34 11 14
internal_count=64 50 45 34 11 14
is_linear=0
shrinkage=0.02


Tree=7
num_leaves=8
num_cat=0
split_feature=6 3 0 5 3 2 0
split_gain=311.171 194.406 167.183 124.077 114.68 108.129 9.89272
threshold=0.59251026086363234 -0.74887596875296369 -0.44089814794773774 -0.10592798465906869 -0.23930235920470569 -0.072143962297986391 -0.58518512834675118
decision_type=2 2 2 2 2 2 2
left_child=1 -1 4 6 -3 -4 -2
right_child=3 2 5 -5 -6 -7 -8
leaf_value=0.11891172468662262 -0.11575819611549376 0.0041495685577392569 0.015286759376525879 0.0024755745168243133 0.1338403896490733 -0.069616587191820123 -0.079896600127220122
leaf_weight=7.9999999999999991 8 5 14.999999999999998 6.9999999999999991 5.9999999999999982 10.000000000000002 5.0000000000000009
leaf_count=8 8 5 15 7 6 10 5
internal_value=0 0.0297323 0.0099146 -0.065411 0.07489 -0.0186746 -0.101965
internal_weight=0 44 36 20 11 25 13
internal_count=64 44 36 20 11 25 13
is_linear=0
shrinkage=0.02


Tree=8
num_leaves=8
num_cat=0
split_feature=1 4 2 9 8 8 0
split_gain=303.234 171.178 354.389 209.184 63.5378 80.7411 7.19586
threshold=0.29434967917898186 0.33875467693856059 -0.32506959285479009 1.4541822157721127 0.45475867505448714 0.21931626953149591 -0.97818349407659888
decision_type=2 2 2 2 2 2 2
left_child=1 2 -1 -4 5 -2 -6
right_child=4 -3 3 -5 6 -7 -8
leaf_value=0.20423938179016113 -0.081002005288998244 -0.067394322951634722 6.9411901327279892e-06 0.14126173210144041 -0.11434937000274657 0.022754807273546854 -0.080418013170361541
leaf_weight=4.9999999999999991 6.0000000000000018 5.9999999999999991 26.000000000000004 4.9999999999999991 5 6 4.9999999999999982
leaf_count=5 6 6 26 5 5 6 5
internal_value=0 0.0315076 0.0479913 0.02279 -0.0601509 -0.0291236 -0.0973837
internal_weight=0 42 36 31 22 12 10
internal_count=64 42 36 31 22 12 10
is_linear=0
shrinkage=0.02


Tree=9
num_leaves=8
num_cat=0
split_feature=1 9 3 6 8 8 0
split_gain=291.226 164.154 226.924 125.824 61.0217 77.5437 6.9109
threshold=0.29434967917898186 1.4541822157721127 -0.23930235920470569 -0.05684568029816895 0.45475867505448714 0.21931626953149591 -0.97818349407659888
decision_type=2 2 2 2 2 2 2
left_child=1 2 3 -1 5 -2 -6
right_child=4 -3 -4 -5 6 -7 -8
leaf_value=0.017116465378891339 -0.079381965311864977 0.13843650197982788 0.1188795256614685 -0.075505967065691917 -0.11206238269805907 0.022299712598323817 -0.078809652306139483
leaf_weight=22 6.0000000000000018 4.9999999999999991 6.9999999999999991 8.0000000000000018 5 6 4.9999999999999982
leaf_count=22 6 5 7 8 5 6 5
internal_value=0 0.0308775 0.0163425 -0.00758285 -0.0589479 -0.0285411 -0.095436
internal_weight=0 42 37 30 22 12 10
internal_count=64 42 37 30 22 12 10
is_linear=0
shrinkage=0.02


Tree=10
num_leaves=8
num_cat=0
split_feature=1 4 2 9 8 8 0
split_gain=279.693 164.72 336.094 192.945 58.6053 74.473 6.63723
threshold=0.29434967917898186 0.33875467693856059 -0.32506959285479009 1.4541822157721127 0.45475867505448714 0.21931626953149591 -0.97818349407659888
decision_type=2 2 2 2 2 2 2
left_child=1 2 -1 -4 5 -2 -6
right_child=4 -3 3 -5 6 -7 -8
leaf_value=0.19859110355377196 -0.077794326382378709 -0.066758446296056109 6.6508238132183361e-06 0.13566776895523072 -0.10982113552093503 0.021853717466195421 -0.07723345980048181
leaf_weight=4.9999999999999991 6.0000000000000018 5.9999999999999991 26.000000000000004 4.9999999999999991 5 6 4.9999999999999982
leaf_count=5 6 6 26 5 5 6 5
internal_value=0 0.0302599 0.0464296 0.0218875 -0.0577689 -0.0279703 -0.0935273
internal_weight=0 42 36 31 22 12 10
internal_count=64 42 36 31 22 12 10
is_linear=0
shrinkage=0.02


Tree=11
num_leaves=7
num_cat=0
split_feature=6 9 8 9 7 4
split_gain=271.527 171.606 141.534 154.82 57.6222 56.4461
threshold=0.86296745786098794 1.4541822157721127 0.39649277857953019 -0.24119475197879089 0.98514880644826541 1.0873893794756802
decision_type=2 2 2 2 2 2
left_child=1 2 3 -1 -4 -2
right_child=5 -3 4 -5 -6 -7
leaf_value=0.072300619938794317 -0.11263037800788882 0.13295441341400147 -0.10305488300323487 -0.013055309758466832 -0.011124148766199746 -0.031480000615119928
leaf_weight=16.999999999999996 7.9999999999999982 4.9999999999999991 4.9999999999999982 17.000000000000004 6 6
leaf_count=17 8 5 5 17 6 6
internal_value=0 0.0217985 0.0094478 0.0296227 -0.0529108 -0.0778516
internal_weight=0 50 45 34 11 14
internal_count=64 50 45 34 11 14
is_linear=0
shrinkage=0.02


Tree=12
num_leaves=8
num_cat=0
split_feature=1 4 2 9 4 5 8
split_gain=260.642 158.736 322.695 177.915 56.0782 94.0013 37.2916
threshold=0.29434967917898186 0.33875467693856059 -0.32506959285479009 1.4541822157721127 1.0873893794756802 -0.32373564697576201 0.32490990102215483
decision_type=2 2 2 2 2 2 2
left_child=1 2 -1 -4 6 -6 -2
right_child=4 -3 3 -5 5 -7 -8
leaf_value=0.1941820983886719 -0.055118336890424981 -0.066028605302174886 2.5158111865703873e-05 0.13029533052444459 -0.082107147693634031 0.04053138345479966 -0.1266324825286865
leaf_weight=4.9999999999999991 7.0000000000000018 5.9999999999999991 26.000000000000004 4.9999999999999991 5 4.9999999999999982 5
leaf_count=5 7 6 26 5 5 5 5
internal_value=0 0.0292112 0.0450845 0.0210365 -0.0557668 -0.0207879 -0.0849159
internal_weight=0 42 36 31 22 10 12
internal_count=64 42 36 31 22 10 12
is_linear=0
shrinkage=0.02


Tree=13
num_leaves=7
num_cat=0
split_feature=6 6 4 4 0 4
split_gain=253.054 159.481 97.7948 218.149 60.0121 52.5015
threshold=0.86296745786098794 -1.2214643290933369 -0.31517712249863666 0.33875467693856059 -1.0000000180025095e-35 1.0873893794756802
decision_type=2 2 2 2 2 2
left_child=1 -1 4 -4 -3 -2
right_child=5 2 3 -5 -6 -7
leaf_value=0.097281668451097286 -0.10869812130928042 0.015171192203249242 0.090606560707092235 -0.032699192328886552 -0.059738922335884806 -0.030434642632802326
leaf_weight=8.9999999999999982 7.9999999999999982 7.0000000000000027 12.000000000000005 10.999999999999998 10.999999999999995 6
leaf_count=9 8 7 12 11 11 6
internal_value=0 0.0210439 0.00430873 0.0316342 -0.0306072 -0.0751566
internal_weight=0 50 41 23 18 14
internal_count=64 50 41 23 18 14
is_linear=0
shrinkage=0.02


Tree=14
num_leaves=6
num_cat=0
split_feature=6 9 0 6 7
split_gain=243.033 157.246 115.847 161.061 50.6458
threshold=0.86296745786098794 1.4541822157721127 0.75141242693555033 -1.1500068954485754 0.33313710459945828
decision_type=2 2 2 2 2
left_child=1 2 3 -1 -2
right_child=4 -3 -4 -5 -6
leaf_value=0.11766263822714487 -0.022617830097675325 0.12702665376663208 -0.065966322720050818 0.0047438804991543296 -0.10200664679209391
leaf_weight=5.9999999999999991 4.9999999999999991 4.9999999999999991 6.9999999999999991 32 8.9999999999999982
leaf_count=6 5 5 7 32 9
internal_value=0 0.020623 0.00880035 0.0225732 -0.0736535
internal_weight=0 50 45 38 14
internal_count=64 50 45 38 14
is_linear=0
shrinkage=0.02


Tree=15
num_leaves=8
num_cat=0
split_feature=1 3 8 5 4 5 8
split_gain=234.564 150.557 251.773 77.4464 52.5726 89.8024 32.7584
threshold=0.29434967917898186 -0.23930235920470569 -1.296752721803252 -0.10592798465906869 1.0873893794756802 -0.32373564697576201 0.32490990102215483
decision_type=2 2 2 2 2 2 2
left_child=1 2 -1 -4 6 -6 -2
right_child=4 -3 3 -5 5 -7 -8
leaf_value=0.14217103099822997 -0.053198968597820813 0.11238363742828369 -0.04325652682781219 0.021012262543042497 -0.078969620823860151 0.040898582637310041 -0.12022573471069334
leaf_weight=4.9999999999999991 7.0000000000000018 6.9999999999999991 15 15 5 4.9999999999999982 5
leaf_count=5 7 7 15 15 5 5 5
internal_value=0 0.0277113 0.0107769 -0.0111221 -0.0529035 -0.0190355 -0.0811268
internal_weight=0 42 35 30 22 10 12
internal_count=64 42 35 30 22 10 12
is_linear=0
shrinkage=0.02


Tree=16
num_leaves=7
num_cat=0
split_feature=6 6 4 4 9 4
split_gain=227.614 146.101 93.4719 205.92 67.4225 48.179
threshold=-1.2214643290933369 0.86296745786098794 -0.31517712249863666 0.33875467693856059 -0.24119475197879089 1.0873893794756802
decision_type=2 2 2 2 2 2
left_child=-1 2 4 -4 -2 -3
right_child=1 5 3 -5 -6 -7
leaf_value=0.093239425023396813 0.02439582725365955 -0.10317158102989199 0.087800836960474596 -0.031998994350433352 -0.057715354859828968 -0.02819899866978327
leaf_weight=8.9999999999999982 6.0000000000000027 7.9999999999999982 12.000000000000005 10.999999999999998 11.999999999999995 6
leaf_count=9 6 8 12 11 12 6
internal_value=0 -0.0152574 0.00379053 0.0305053 -0.030345 -0.0710405
internal_weight=0 55 41 23 18 14
internal_count=64 55 41 23 18 14
is_linear=0
shrinkage=0.02


Tree=17
num_leaves=8
num_cat=0
split_feature=3 6 4 4 6 5 1
split_gain=220.772 132.626 127.535 164.44 74.619 39.9647 10.3766
threshold=0.3154727006591182 -1.2214643290933369 -0.31517712249863666 0.33875467693856059 -0.59392291315112067 -0.051714392579916682 0.85838963928972867
decision_type=2 2 2 2 2 2 2
left_child=1 -1 4 -4 -3 6 -2
right_child=5 2 3 -5 -6 -7 -8
leaf_value=0.091374635166592069 -0.062960374355316137 0.0097104835510253857 0.087424081303179246 -0.025667952166663274 -0.074238039321369589 -0.014258051574230195 -0.10015635410944619
leaf_weight=8.9999999999999982 6.0000000000000018 8.0000000000000018 12.000000000000002 8.9999999999999982 8.9999999999999982 4.9999999999999991 6
leaf_count=9 6 8 12 9 9 5 6
internal_value=0 0.0223402 0.00598997 0.0389561 -0.0347329 -0.0617642 -0.0815584
internal_weight=0 47 38 21 17 17 12
internal_count=64 47 38 21 17 17 12
is_linear=0
shrinkage=0.02


Tree=18
num_leaves=7
num_cat=0
split_feature=3 9 9 3 6 9
split_gain=212.029 138.234 186.493 172.317 126.136 55.5452
threshold=0.3154727006591182 1.4541822157721127 -0.24119475197879089 -0.23930235920470569 1.0000000180025095e-35 -0.80391013822044755
decision_type=2 2 2 2 2 2
left_child=1 2 3 -1 -4 -2
right_child=5 -3 4 -5 -6 -7
leaf_value=0.0093586786768653143 -0.098873538374900788 0.12130283212661742 0.0059823806583881372 0.13629474035331182 -0.091281258058734244 -0.026444725526703731
leaf_weight=11.000000000000002 8.0000000000000018 4.9999999999999991 16.000000000000004 6.9999999999999991 7.9999999999999991 8.9999999999999982
leaf_count=11 8 5 16 7 8 9
internal_value=0 0.0218934 0.010059 0.0587227 -0.0264388 -0.0605289
internal_weight=0 47 42 18 24 17
internal_count=64 47 42 18 24 17
is_linear=0
shrinkage=0.02


Tree=19
num_leaves=6
num_cat=0
split_feature=6 6 4 4 4
split_gain=206.92 130.952 84.5543 181.953 46.9334
threshold=-1.2214643290933369 0.86296745786098794 1.1294805342911294 -0.31517712249863666 1.0873893794756802
decision_type=2 2 2 2 2
left_child=-1 2 3 -2 -3
right_child=1 4 -4 -5 -6
leaf_value=0.088899952040778274 -0.02893840157323414 -0.099072359800338766 -0.065882669587930043 0.062301096153609875 -0.025075347324212391
leaf_weight=8.9999999999999982 17.999999999999996 7.9999999999999982 5.9999999999999991 17.000000000000004 6
leaf_count=9 18 8 6 17 6
internal_value=0 -0.0145473 0.00348613 0.0153779 -0.0673594
internal_weight=0 55 41 35 14
internal_count=64 55 41 35 14
is_linear=0
shrinkage=0.02


Tree=20
num_leaves=8
num_cat=0
split_feature=1 4 2 6 4 5 8
split_gain=198.746 138.604 301.56 155.479 49.2521 83.3718 27.453
threshold=0.29434967917898186 0.33875467693856059 -0.32506959285479009 -1.2214643290933369 1.0873893794756802 -0.32373564697576201 0.32490990102215483
decision_type=2 2 2 2 2 2 2
left_child=1 2 -1 -4 6 -6 -2
right_child=4 -3 3 -5 5 -7 -8
leaf_value=0.18447289752960205 -0.050448048934340461 -0.063487628698348994 0.087121954494052467 -0.011554614549333398 -0.073664410114288328 0.041832266569137584 -0.11180754661560056
leaf_weight=4.9999999999999991 7.0000000000000018 5.9999999999999991 8.9999999999999982 22.000000000000004 5 4.9999999999999982 5
leaf_count=5 7 6 9 22 5 5 5
internal_value=0 0.025508 0.0403406 0.0170934 -0.048697 -0.0159161 -0.0760145
internal_weight=0 42 36 31 22 10 12
internal_count=64 42 36 31 22 10 12
is_linear=0
shrinkage=0.02


Tree=21
num_leaves=7
num_cat=0
split_feature=3 9 9 3 6 9
split_gain=192.592 130.865 180.146 160.671 114.165 51.743
threshold=0.3154727006591182 1.4541822157721127 -0.24119475197879089 -0.23930235920470569 1.0000000180025095e-35 -0.80391013822044755
decision_type=2 2 2 2 2 2
left_child=1 2 3 -1 -4 -2
right_child=5 -3 4 -5 -6 -7
leaf_value=0.0095129341428930089 -0.094696824550628625 0.11758955812454223 0.0043239753693342202 0.13208442211151122 -0.088208969980478294 -0.024790923595428466
leaf_weight=11.000000000000002 8.0000000000000018 4.9999999999999991 16.000000000000004 6.9999999999999991 7.9999999999999991 8.9999999999999982
leaf_count=11 8 5 16 7 8 9
internal_value=0 0.0208658 0.00935107 0.0571796 -0.0265203 -0.0576878
internal_weight=0 47 42 18 24 17
internal_count=64 47 42 18 24 17
is_linear=0
shrinkage=0.02


Tree=22
num_leaves=6
num_cat=0
split_feature=6 2 9 5 9
split_gain=188.126 116.965 78.9349 228.259 112.645
threshold=-1.2214643290933369 -0.87528869387080077 -0.24119475197879089 -0.10592798465906869 0.33991967994900368
decision_type=2 2 2 2 2
left_child=-1 -2 3 -3 -4
right_child=1 2 4 -5 -6
leaf_value=0.084766570727030435 -0.079808768100208705 -0.012201946903677548 -0.065988633449260967 0.13128354599078498 0.023296381711959836
leaf_weight=8.9999999999999982 8.9999999999999982 17 13.000000000000005 5.9999999999999991 9.9999999999999982
leaf_count=9 9 17 13 6 10
internal_value=0 -0.0138709 -0.000970005 0.0252291 -0.0271691
internal_weight=0 55 46 23 23
internal_count=64 55 46 23 23
is_linear=0
shrinkage=0.02


Tree=23
num_leaves=7
num_cat=0
split_feature=6 6 4 4 9 4
split_gain=180.676 114.19 78.3992 176.133 61.1016 43.0914
threshold=-1.2214643290933369 0.86296745786098794 -0.31517712249863666 0.33875467693856059 -0.24119475197879089 1.0873893794756802
decision_type=2 2 2 2 2 2
left_child=-1 2 4 -4 -2 -3
right_child=1 5 3 -5 -6 -7
leaf_value=0.083071239789326998 0.024095585346221911 -0.093297109007835402 0.080702209820349965 -0.030094580921259793 -0.054071925977865865 -0.022393466333548228
leaf_weight=8.9999999999999982 6.0000000000000027 7.9999999999999982 12.000000000000005 10.999999999999998 11.999999999999995 6
leaf_count=9 6 8 12 11 12 6
internal_value=0 -0.0135935 0.00324626 0.0277124 -0.0280161 -0.0629098
internal_weight=0 55 41 23 18 14
internal_count=64 55 41 23 18 14
is_linear=0
shrinkage=0.02


Tree=24
num_leaves=7
num_cat=0
split_feature=9 9 9 4 6 5
split_gain=175.369 124.74 174.875 219.839 115.147 30.1045
threshold=1.4541822157721127 -0.80391013822044755 -0.24119475197879089 0.68723071909978328 1.0000000180025095e-35 -0.38423501655140185
decision_type=2 2 2 2 2 2
left_child=1 5 3 -3 -4 -1
right_child=-2 2 4 -5 -6 -7
leaf_value=-0.10467201805114744 0.11372527503967286 0.10402330100536347 0.0010097298201392675 -0.026738136145803663 -0.087460438261429463 -0.040417726550783434
leaf_weight=5 4.9999999999999991 11.999999999999998 17.000000000000007 8.9999999999999982 8.9999999999999982 6.9999999999999982
leaf_count=5 5 12 17 9 9 7
internal_value=0 -0.00963773 0.00505655 0.0479827 -0.0296146 -0.0671903
internal_weight=0 59 47 21 26 12
internal_count=64 59 47 21 26 12
is_linear=0
shrinkage=0.02


Tree=25
num_leaves=7
num_cat=0
split_feature=3 9 9 3 6 9
split_gain=170.664 117.903 160.91 156.044 99.9384 46.4054
threshold=0.3154727006591182 1.4541822157721127 -0.24119475197879089 -0.23930235920470569 1.0000000180025095e-35 -0.80391013822044755
decision_type=2 2 2 2 2 2
left_child=1 2 3 -1 -4 -2
right_child=5 -3 4 -5 -6 -7
leaf_value=0.0069399729100140641 -0.08935268878936764 0.11145076799392702 0.0036688821017742154 0.12773370368140083 -0.082906996048986908 -0.023150449726316663
leaf_weight=11.000000000000002 8.0000000000000018 4.9999999999999991 16.000000000000004 6.9999999999999991 7.9999999999999991 8.9999999999999982
leaf_count=11 8 5 16 7 8 9
internal_value=0 0.019642 0.00871242 0.0539153 -0.0251897 -0.0543044
internal_weight=0 47 42 18 24 17
internal_count=64 47 42 18 24 17
is_linear=0
shrinkage=0.02


Tree=26
num_leaves=7
num_cat=0
split_feature=6 9 9 4 9 5
split_gain=166.994 104.705 133.399 194.069 74.8216 27.5732
threshold=-1.2214643290933369 -0.80391013822044755 -0.24119475197879089 0.68723071909978328 0.33991967994900368 -0.38423501655140185
decision_type=2 2 2 2 2 2
left_child=-1 5 3 -3 -4 -2
right_child=1 2 4 -5 -6 -7
leaf_value=0.079863881535000264 -0.10117669582366942 0.10173939800262451 -0.06231754477207474 -0.026276266508632237 0.0085555011034011835 -0.039683058602469318
leaf_weight=8.9999999999999982 5 9.9999999999999982 13.000000000000005 8.9999999999999982 10.999999999999998 6.9999999999999982
leaf_count=9 5 10 13 9 11 7
internal_value=0 -0.0130686 0.00150907 0.0411004 -0.0298341 -0.0653054
internal_weight=0 55 43 19 24 12
internal_count=64 55 43 19 24 12
is_linear=0
shrinkage=0.02


Tree=27
num_leaves=7
num_cat=0
split_feature=6 9 9 4 9 5
split_gain=160.381 100.559 128.116 186.383 71.8587 26.4813
threshold=-1.2214643290933369 -0.80391013822044755 -0.24119475197879089 0.68723071909978328 0.33991967994900368 -0.38423501655140185
decision_type=2 2 2 2 2 2
left_child=-1 5 3 -3 -4 -2
right_child=1 2 4 -5 -6 -7
leaf_value=0.078266599443223742 -0.099153161048889146 0.099704607963562022 -0.061071194135225701 -0.025750741958618165 0.0083843901753425602 -0.03888939602034433
leaf_weight=8.9999999999999982 5 9.9999999999999982 13.000000000000005 8.9999999999999982 10.999999999999998 6.9999999999999982
leaf_count=9 5 10 13 9 11 7
internal_value=0 -0.0128073 0.00147889 0.0402784 -0.0292374 -0.0639993
internal_weight=0 55 43 19 24 12
internal_count=64 55 43 19 24 12
is_linear=0
shrinkage=0.02


Tree=28
num_leaves=7
num_cat=0
split_feature=9 3 9 3 6 9
split_gain=157.435 109.452 147.046 152.034 92.8202 40.7123
threshold=1.4541822157721127 0.3154727006591182 -0.24119475197879089 -0.23930235920470569 1.0000000180025095e-35 -0.80391013822044755
decision_type=2 2 2 2 2 2
left_child=1 2 3 -1 -4 -3
right_child=-2 5 4 -5 -6 -7
leaf_value=0.0050428621877323474 0.10775343132019043 -0.084776611328124959 0.0036021403968334192 0.12427449158259801 -0.079833546280860909 -0.02276811844772763
leaf_weight=11.000000000000002 4.9999999999999991 8.0000000000000018 16.000000000000004 6.9999999999999991 7.9999999999999991 8.9999999999999982
leaf_count=11 5 8 16 7 8 9
internal_value=0 -0.00913165 0.00819902 0.0514107 -0.0242098 -0.0519486
internal_weight=0 59 42 18 24 17
internal_count=64 59 42 18 24 17
is_linear=0
shrinkage=0.02


Tree=29
num_leaves=7
num_cat=0
split_feature=9 9 9 4 2 5
split_gain=151.2 106.865 150.554 191.692 67.4276 24.2138
threshold=1.4541822157721127 -0.80391013822044755 -0.24119475197879089 0.68723071909978328 0.25312232473142826 -0.38423501655140185
decision_type=2 2 2 2 2 2
left_child=1 5 3 -3 -4 -1
right_child=-2 2 4 -5 -6 -7
leaf_value=-0.095833845138549784 0.10559836053848268 0.096811555847525599 -0.050952867970747086 -0.02529253317250146 0.016747326850891114 -0.038207943950380602
leaf_weight=5 4.9999999999999991 11.999999999999998 17.000000000000007 8.9999999999999982 8.9999999999999982 6.9999999999999982
leaf_count=5 5 12 17 9 9 7
internal_value=0 -0.00894901 0.00465177 0.0444812 -0.0275182 -0.0622187
internal_weight=0 59 47 21 26 12
internal_count=64 59 47 21 26 12
is_linear=0
shrinkage=0.02


Tree=30
num_leaves=7
num_cat=0
split_feature=6 9 9 4 6 8
split_gain=148.156 90.8754 116.659 170.117 66.6034 22.5354
threshold=-1.2214643290933369 -0.80391013822044755 -0.24119475197879089 0.68723071909978328 0.068725693739623769 0.39649277857953019
decision_type=2 2 2 2 2 2
left_child=-1 5 3 -3 -4 -2
right_child=1 2 4 -5 -6 -7
leaf_value=0.075224692821502681 -0.033566708962122604 0.095069284304976465 -0.0044802400097250913 -0.024786681334177652 -0.075157343894243236 -0.088382012844085672
leaf_weight=8.9999999999999982 5.9999999999999982 9.9999999999999982 16.000000000000007 8.9999999999999982 7.9999999999999991 6
leaf_count=9 6 10 16 9 8 6
internal_value=0 -0.0123095 0.0012714 0.0382954 -0.0280393 -0.0609744
internal_weight=0 55 43 19 24 12
internal_count=64 55 43 19 24 12
is_linear=0
shrinkage=0.02


Tree=31
num_leaves=7
num_cat=0
split_feature=9 8 9 5 6 2
split_gain=143.679 101.134 99.1761 199.544 80.1718 23.1774
threshold=1.4541822157721127 0.45475867505448714 -0.24119475197879089 -0.10592798465906869 0.068725693739623769 -0.78591387602138607
decision_type=2 2 2 2 2 2
left_child=1 2 3 -1 -4 -3
right_child=-2 5 4 -5 -6 -7
leaf_value=-0.00422270942479372 0.10293836116790772 -0.07287931534979078 0.0068157709561861447 0.12509743469102044 -0.073654197752475739 -0.024355830465044297
leaf_weight=14.999999999999998 4.9999999999999991 8.9999999999999982 13.000000000000005 6.9999999999999991 7.9999999999999991 6.9999999999999991
leaf_count=15 5 9 13 7 8 7
internal_value=0 -0.00872359 0.00724914 0.0369246 -0.0238395 -0.0516503
internal_weight=0 59 43 22 21 16
internal_count=64 59 43 22 21 16
is_linear=0
shrinkage=0.02


Tree=32
num_leaves=7
num_cat=0
split_feature=6 9 9 4 9 5
split_gain=139.476 85.3234 109.448 161.503 63.657 22.4424
threshold=-1.2214643290933369 -0.80391013822044755 -0.24119475197879089 0.68723071909978328 0.33991967994900368 -0.38423501655140185
decision_type=2 2 2 2 2 2
left_child=-1 5 3 -3 -4 -2
right_child=1 2 4 -5 -6 -7
leaf_value=0.072987622155083559 -0.091460456848144508 0.092395370747894057 -0.057136386770468457 -0.024386628203921849 0.0082354318553751159 -0.035982444116047459
leaf_weight=8.9999999999999982 5 9.9999999999999982 13.000000000000005 8.9999999999999982 10.999999999999998 6.9999999999999982
leaf_count=9 5 10 13 9 11 7
internal_value=0 -0.0119434 0.00121606 0.0370776 -0.0271743 -0.0590983
internal_weight=0 55 43 19 24 12
internal_count=64 55 43 19 24 12
is_linear=0
shrinkage=0.02


Tree=33
num_leaves=8
num_cat=0
split_feature=9 8 9 5 6 7 2
split_gain=136.128 96.1376 93.0236 188.281 75.4899 23.9013 29.0581
threshold=1.4541822157721127 0.45475867505448714 -0.24119475197879089 -0.10592798465906869 0.068725693739623769 0.6590617796452769 -0.78591387602138607
decision_type=2 2 2 2 2 2 2
left_child=1 2 3 -1 -4 -3 -7
right_child=-2 5 4 -5 -6 6 -8
leaf_value=-0.0041470230718453731 0.10019686794281006 -0.081901779373486847 0.0067197031699694088 0.12147035394396101 -0.071365245133638386 -0.065502370834350593 0.0026833775043487553
leaf_weight=14.999999999999998 4.9999999999999991 5.9999999999999991 13.000000000000005 6.9999999999999991 7.9999999999999991 4.9999999999999991 4.9999999999999991
leaf_count=15 5 6 13 7 8 5 5
internal_value=0 -0.00849126 0.00708189 0.0358221 -0.0230269 -0.0503441 -0.0314095
internal_weight=0 59 43 22 21 16 10
internal_count=64 59 43 22 21 16 10
is_linear=0
shrinkage=0.02


Tree=34
num_leaves=7
num_cat=0
split_feature=6 9 9 4 9 5
split_gain=131.775 80.0896 102.425 153.53 59.9523 21.2859
threshold=-1.2214643290933369 -0.80391013822044755 -0.24119475197879089 0.68723071909978328 0.33991967994900368 -0.38423501655140185
decision_type=2 2 2 2 2 2
left_child=-1 5 3 -3 -4 -2
right_child=1 2 4 -5 -6 -7
leaf_value=0.070944108168284101 -0.088812042236328104 0.089767314508557322 -0.055401058838917633 -0.024095479249954223 0.008039998087016019 -0.034782394681658071
leaf_weight=8.9999999999999982 5 9.9999999999999982 13.000000000000005 8.9999999999999982 10.999999999999998 6.9999999999999982
leaf_count=9 5 10 13 9 11 7
internal_value=0 -0.011609 0.00114047 0.0358323 -0.0263239 -0.0572947
internal_weight=0 55 43 19 24 12
internal_count=64 55 43 19 24 12
is_linear=0
shrinkage=0.02


Tree=35
num_leaves=8
num_cat=0
split_feature=9 8 9 5 6 7 2
split_gain=128.975 91.3866 87.2536 177.658 71.0805 23.9443 26.85
threshold=1.4541822157721127 0.45475867505448714 -0.24119475197879089 -0.10592798465906869 0.068725693739623769 0.6590617796452769 -0.78591387602138607
decision_type=2 2 2 2 2 2 2
left_child=1 2 3 -1 -4 -3 -7
right_child=-2 5 4 -5 -6 6 -8
leaf_value=-0.0040723367929458619 0.097528898239135742 -0.080656791130701691 0.006623018338130067 0.11795002749988012 -0.06914712369441986 -0.062891069889068604 0.0026528483629226687
leaf_weight=14.999999999999998 4.9999999999999991 5.9999999999999991 13.000000000000005 6.9999999999999991 7.9999999999999991 4.9999999999999991 4.9999999999999991
leaf_count=15 5 6 13 7 8 5 5
internal_value=0 -0.00826516 0.00691831 0.034753 -0.0222418 -0.0490707 -0.0301191
internal_weight=0 59 43 22 21 16 10
internal_count=64 59 43 22 21 16 10
is_linear=0
shrinkage=0.02


Tree=36
num_leaves=8
num_cat=0
split_feature=6 3 3 1 9 5 5
split_gain=124.504 75.2984 105.12 142.518 95.327 35.6994 9.97596
threshold=-1.2214643290933369 0.3154727006591182 -0.23930235920470569 0.29434967917898186 0.33991967994900368 -0.051714392579916682 -0.7390188263686176
decision_type=2 2 2 2 2 2 2
left_child=-1 2 4 -4 -2 6 -3
right_child=1 5 3 -5 -6 -7 -8
leaf_value=0.068959066073099776 -0.041249314170134693 -0.04340301704406737 0.13534371566772455 -0.0092337421576182029 0.041050335317850115 -0.0013718667030334472 -0.080391289847237715
leaf_weight=8.9999999999999982 19 5.0000000000000009 5.0000000000000018 6 7.9999999999999991 4.9999999999999991 7.0000000000000009
leaf_count=9 19 5 5 6 8 5 7
internal_value=0 -0.0112842 0.00436794 0.0564833 -0.0168642 -0.0462714 -0.0649795
internal_weight=0 55 38 11 27 17 12
internal_count=64 55 38 11 27 17 12
is_linear=0
shrinkage=0.02


Tree=37
num_leaves=8
num_cat=0
split_feature=9 8 9 5 6 7 2
split_gain=121.175 85.7318 84.3295 168.062 67.2913 23.7034 25.5025
threshold=1.4541822157721127 0.45475867505448714 -0.24119475197879089 -0.10592798465906869 0.068725693739623769 0.6590617796452769 -0.78591387602138607
decision_type=2 2 2 2 2 2 2
left_child=1 2 3 -1 -4 -3 -7
right_child=-2 5 4 -5 -6 6 -8
leaf_value=-0.003703068365653356 0.094534041404724115 -0.078961048523585001 0.0061124271154403657 0.11497809256826129 -0.067610464990139008 -0.060617234706878666 0.0032607617378234868
leaf_weight=14.999999999999998 4.9999999999999991 5.9999999999999991 13.000000000000005 6.9999999999999991 7.9999999999999991 4.9999999999999991 4.9999999999999991
leaf_count=15 5 6 13 7 8 5 5
internal_value=0 -0.00801136 0.00669485 0.0340591 -0.0219725 -0.0475343 -0.0286782
internal_weight=0 59 43 22 21 16 10
internal_count=64 59 43 22 21 16 10
is_linear=0
shrinkage=0.02


Tree=38
num_leaves=7
num_cat=0
split_feature=6 9 9 7 9 5
split_gain=117.648 71.3778 93.8495 115.599 52.7303 19.7846
threshold=-1.2214643290933369 -0.80391013822044755 -0.24119475197879089 0.56545995974749053 0.33991967994900368 -0.38423501655140185
decision_type=2 2 2 2 2 2
left_child=-1 5 3 -3 -4 -2
right_child=1 2 4 -5 -6 -7
leaf_value=0.0670335947142707 -0.084484100341796861 0.063756428893123357 -0.052492189453198335 -0.048273670673370364 0.0070052001693032004 -0.032394605704716278
leaf_weight=8.9999999999999982 5 13.999999999999998 13.000000000000005 4.9999999999999991 10.999999999999998 6.9999999999999982
leaf_count=9 5 14 13 5 11 7
internal_value=0 -0.0109691 0.00106699 0.0342748 -0.0252226 -0.0540986
internal_weight=0 55 43 19 24 12
internal_count=64 55 43 19 24 12
is_linear=0
shrinkage=0.02


Tree=39
num_leaves=5
num_cat=0
split_feature=9 0 6 3
split_gain=114.824 80.2688 148.067 71.7764
threshold=1.4541822157721127 0.75141242693555033 -1.1500068954485754 0.3154727006591182
decision_type=2 2 2 2
left_child=1 2 -1 -4
right_child=-2 -3 3 -5
leaf_value=0.094206469903389614 0.092023030281066898 -0.071379957454545159 0.0076997686460100372 -0.044058092411826635
leaf_weight=5.9999999999999991 4.9999999999999991 6.9999999999999991 29 17
leaf_count=6 5 7 29 17
internal_value=0 -0.00779856 0.000760472 -0.0114281
internal_weight=0 59 52 46
internal_count=64 59 52 46
is_linear=0
shrinkage=0.02


Tree=40
num_leaves=8
num_cat=0
split_feature=9 8 9 5 2 7 2
split_gain=110.277 78.0819 77.6406 157.138 53.4147 23.3196 23.3005
threshold=1.4541822157721127 0.45475867505448714 -0.24119475197879089 -0.10592798465906869 0.25312232473142826 0.6590617796452769 -0.78591387602138607
decision_type=2 2 2 2 2 2 2
left_child=1 2 3 -1 -4 -3 -7
right_child=-2 5 4 -5 -6 6 -8
leaf_value=-0.0038654863238334657 0.090182570457458505 -0.076532293955485026 -0.048738437096277842 0.11089359709194728 0.015716820889049105 -0.057187245368957522 0.0038708195686340333
leaf_weight=14.999999999999998 4.9999999999999991 5.9999999999999991 12.000000000000005 6.9999999999999991 8.9999999999999982 4.9999999999999991 4.9999999999999991
leaf_count=15 5 6 12 7 9 5 5
internal_value=0 -0.00764259 0.00639216 0.0326488 -0.0211148 -0.045361 -0.0266582
internal_weight=0 59 43 22 21 16 10
internal_count=64 59 43 22 21 16 10
is_linear=0
shrinkage=0.02


Tree=41
num_leaves=8
num_cat=0
split_feature=6 3 3 2 5 5 7
split_gain=108.484 101.989 102.224 148.828 86.403 78.8344 2.78806
threshold=0.59251026086363234 -0.74887596875296369 -0.23930235920470569 -0.51386257771026178 -0.051714392579916682 -0.10592798465906869 0.6590617796452769
decision_type=2 2 2 2 2 2 2
left_child=1 -1 4 -4 -3 6 -2
right_child=5 2 3 -5 -6 -7 -8
leaf_value=0.082148465812206264 -0.075081566087901563 -0.065530216634273539 -0.019570588966210681 0.12129702170689903 0.011442374416760033 0.015490374735423498 -0.056043499469757077
leaf_weight=7.9999999999999991 8.0000000000000018 9.9999999999999982 6 5.9999999999999982 14.000000000000002 6.9999999999999991 4.9999999999999991
leaf_count=8 8 10 6 6 14 7 5
internal_value=0 0.0175554 0.00320138 0.0508632 -0.0206295 -0.0386219 -0.0677592
internal_weight=0 44 36 12 24 20 13
internal_count=64 44 36 12 24 20 13
is_linear=0
shrinkage=0.02


Tree=42
num_leaves=7
num_cat=0
split_feature=6 9 9 7 9 5
split_gain=104.432 64.1779 88.9283 104.821 48.8098 17.9433
threshold=-1.2214643290933369 -0.80391013822044755 -0.24119475197879089 0.56545995974749053 0.33991967994900368 -0.38423501655140185
decision_type=2 2 2 2 2 2
left_child=-1 5 3 -3 -4 -2
right_child=1 2 4 -5 -6 -7
leaf_value=0.063156451119316948 -0.080168148994445798 0.061477323727948327 -0.050749032955903245 -0.045202453613281249 0.0064938218485225329 -0.030561740313257497
leaf_weight=8.9999999999999982 5 13.999999999999998 13.000000000000005 4.9999999999999991 10.999999999999998 6.9999999999999982
leaf_count=9 5 14 13 5 11 7
internal_value=0 -0.0103347 0.00107825 0.0334037 -0.0245127 -0.0512311
internal_weight=0 55 43 19 24 12
internal_count=64 55 43 19 24 12
is_linear=0
shrinkage=0.02


Tree=43
num_leaves=6
num_cat=0
split_feature=9 0 3 3 5
split_gain=102.633 79.9026 114.268 136.391 30.0796
threshold=1.4541822157721127 0.75141242693555033 0.3154727006591182 -0.23930235920470569 -0.051714392579916682
decision_type=2 2 2 2 2
left_child=1 2 3 -1 -4
right_child=-2 -3 4 -5 -6
leaf_value=-0.0013996800436423377 0.087001242637634285 -0.070809177586010533 -0.058546355168024686 0.088933743735154447 -0.0001595451831817627
leaf_weight=25.999999999999996 4.9999999999999991 6.9999999999999991 12.000000000000002 9.0000000000000018 4.9999999999999991
leaf_count=26 5 7 12 9 5
internal_value=0 -0.00737299 0.0011665 0.0218289 -0.0413738
internal_weight=0 59 52 35 17
internal_count=64 59 52 35 17
is_linear=0
shrinkage=0.02


Tree=44
num_leaves=7
num_cat=0
split_feature=6 9 9 4 4 4
split_gain=100.614 60.8485 85.5876 134.941 50.4548 19.1941
threshold=-1.2214643290933369 -0.80391013822044755 -0.24119475197879089 0.68723071909978328 -0.72231581374726739 1.0873893794756802
decision_type=2 2 2 2 2 2
left_child=-1 5 3 -3 -4 -2
right_child=1 2 4 -5 -6 -7
leaf_value=0.061991150114271372 -0.075259792804718034 0.083246033132076264 -0.061573656764295367 -0.023501468547102479 -0.0016745847066243482 -0.024671174486478167
leaf_weight=8.9999999999999982 5.9999999999999982 9.9999999999999982 8.9999999999999982 8.9999999999999982 15.000000000000005 6
leaf_count=9 6 10 9 9 15 6
internal_value=0 -0.010144 0.000968964 0.0326814 -0.0241367 -0.0499655
internal_weight=0 55 43 19 24 12
internal_count=64 55 43 19 24 12
is_linear=0
shrinkage=0.02


Tree=45
num_leaves=5
num_cat=0
split_feature=9 0 6 6
split_gain=98.5769 78.0075 130.83 62.3375
threshold=1.4541822157721127 0.75141242693555033 -1.1500068954485754 0.59251026086363234
decision_type=2 2 2 2
left_child=1 2 -1 -4
right_child=-2 -3 3 -5
leaf_value=0.089050275832414635 0.085264575481414792 -0.069905208860124857 0.010174531959570372 -0.036791296387091277
leaf_weight=5.9999999999999991 4.9999999999999991 6.9999999999999991 26 20
leaf_count=6 5 7 26 20
internal_value=0 -0.00722581 0.0012118 -0.0102454
internal_weight=0 59 52 46
internal_count=64 59 52 46
is_linear=0
shrinkage=0.02


Tree=46
num_leaves=5
num_cat=0
split_feature=9 0 6 9
split_gain=94.6733 74.9184 125.649 60.1712
threshold=1.4541822157721127 0.75141242693555033 -1.1500068954485754 -0.80391013822044755
decision_type=2 2 2 2
left_child=1 2 -1 -4
right_child=-2 -3 3 -5
leaf_value=0.087269270221392303 0.083559284210205073 -0.068507106474467686 -0.048543453017870587 0.0035487977765938819
leaf_weight=5.9999999999999991 4.9999999999999991 6.9999999999999991 11.999999999999998 34
leaf_count=6 5 7 12 34
internal_value=0 -0.0070813 0.00118756 -0.0100405
internal_weight=0 59 52 46
internal_count=64 59 52 46
is_linear=0
shrinkage=0.02


Tree=47
num_leaves=8
num_cat=0
split_feature=6 4 4 2 5 0 7
split_gain=92.7406 74.8356 96.2994 146.354 70.2042 48.7991 3.3848
threshold=0.59251026086363234 1.1294805342911294 -0.31517712249863666 0.40317185186513588 -0.10592798465906869 -0.44089814794773774 0.6590617796452769
decision_type=2 2 2 2 2 2 2
left_child=1 2 3 -1 6 -4 -2
right_child=4 -3 5 -5 -6 -7 -8
leaf_value=-0.030966764443060926 -0.071273958794772593 -0.056614189147949218 0.11633970880508424 0.077691751718521121 0.01535478955933026 0.039815932035446172 -0.050297202587127686
leaf_weight=17.000000000000004 8.0000000000000018 4.9999999999999991 4.9999999999999991 6.9999999999999991 6.9999999999999991 9.9999999999999982 4.9999999999999991
leaf_count=17 8 5 5 7 7 10 5
internal_value=0 0.0162317 0.0255709 0.000725303 -0.0357097 0.0653239 -0.063206
internal_weight=0 44 39 24 20 15 13
internal_count=64 44 39 24 20 15 13
is_linear=0
shrinkage=0.02


Tree=48
num_leaves=5
num_cat=0
split_feature=9 0 6 6
split_gain=89.7443 73.5222 117.571 57.9856
threshold=1.4541822157721127 0.75141242693555033 -1.1500068954485754 0.86296745786098794
decision_type=2 2 2 2
left_child=1 2 -1 -4
right_child=-2 -3 3 -5
leaf_value=0.084565615952014922 0.08135503578186036 -0.067745242629732402 0.0052883434412069616 -0.043512798973492216
leaf_weight=5.9999999999999991 4.9999999999999991 6.9999999999999991 32 13.999999999999998
leaf_count=6 5 7 32 14
internal_value=0 -0.00689449 0.00129695 -0.00956418
internal_weight=0 59 52 46
internal_count=64 59 52 46
is_linear=0
shrinkage=0.02


Tree=49
num_leaves=7
num_cat=0
split_feature=8 9 9 4 9 4
split_gain=87.7595 58.2242 105.225 131.117 68.4074 18.6087
threshold=-1.296752721803252 -0.80391013822044755 -0.24119475197879089 0.68723071909978328 0.33991967994900368 1.0873893794756802
decision_type=2 2 2 2 2 2
left_child=-1 5 3 -3 -4 -2
right_child=1 2 4 -5 -6 -7
leaf_value=0.07281578501065572 -0.071671703656514499 0.078985672021905581 -0.059455843468507096 -0.021999302953481674 0.0067641519583188569 -0.021860450704892474
leaf_weight=5.9999999999999991 5.9999999999999982 11.999999999999998 12.000000000000005 8.9999999999999982 12.999999999999998 6
leaf_count=6 6 12 12 9 13 6
internal_value=0 -0.00753267 0.00270213 0.0357064 -0.0250214 -0.0467661
internal_weight=0 58 46 21 25 12
internal_count=64 58 46 21 25 12
is_linear=0
shrinkage=0.02


Tree=50
num_leaves=7
num_cat=0
split_feature=8 6 3 2 1 4
split_gain=84.2843 55.5094 65.8918 213.174 50.5493 41.2222
threshold=-1.296752721803252 0.86296745786098794 -0.23930235920470569 -0.51386257771026178 -0.23843368321638594 1.0873893794756802
decision_type=2 2 2 2 2 2
left_child=-1 2 4 -4 -2 -3
right_child=1 5 3 -5 -6 -7
leaf_value=0.071359467506408689 -0.02604550987482071 -0.07178952634334565 -0.028104979917407038 0.12959814533591263 0.038857811292012538 -0.0024407122532526648
leaf_weight=5.9999999999999991 24 7.9999999999999982 7.9999999999999991 6.0000000000000027 5.9999999999999991 6
leaf_count=6 24 8 8 6 6 6
internal_value=0 -0.00738201 0.00365463 0.0394821 -0.0130648 -0.0420686
internal_weight=0 58 44 14 30 14
internal_count=64 58 44 14 30 14
is_linear=0
shrinkage=0.02


Tree=51
num_leaves=5
num_cat=0
split_feature=9 0 6 9
split_gain=84.2084 72.5326 109.991 53.7699
threshold=1.4541822157721127 0.75141242693555033 -1.1500068954485754 -0.80391013822044755
decision_type=2 2 2 2
left_child=1 2 -1 -4
right_child=-2 -3 3 -5
leaf_value=0.08199724912643433 0.078805908679962164 -0.067118301391601562 -0.045444826707243917 0.0037986177863443601
leaf_weight=5.9999999999999991 4.9999999999999991 6.9999999999999991 11.999999999999998 34
leaf_count=6 5 7 12 34
internal_value=0 -0.00667847 0.00145766 -0.0090475
internal_weight=0 59 52 46
internal_count=64 59 52 46
is_linear=0
shrinkage=0.02


Tree=52
num_leaves=5
num_cat=0
split_feature=9 0 6 6
split_gain=80.8738 69.6603 105.635 51.8968
threshold=1.4541822157721127 0.75141242693555033 -1.1500068954485754 0.59251026086363234
decision_type=2 2 2 2
left_child=1 2 -1 -4
right_child=-2 -3 3 -5
leaf_value=0.080357301235198977 0.077229790210723875 -0.065775934457778934 0.0097650360831847555 -0.033087608851492409
leaf_weight=5.9999999999999991 4.9999999999999991 6.9999999999999991 26 20
leaf_count=6 5 7 26 20
internal_value=0 -0.0065449 0.00142851 -0.00886655
internal_weight=0 59 52 46
internal_count=64 59 52 46
is_linear=0
shrinkage=0.02


Tree=53
num_leaves=7
num_cat=0
split_feature=8 9 9 4 9 4
split_gain=79.241 51.7898 98.6427 122.71 65.3478 16.9951
threshold=-1.296752721803252 -0.80391013822044755 -0.24119475197879089 0.68723071909978328 0.33991967994900368 1.0873893794756802
decision_type=2 2 2 2 2 2
left_child=-1 5 3 -3 -4 -2
right_child=1 2 4 -5 -6 -7
leaf_value=0.069191612005233771 -0.06796122670173646 0.076319186588128404 -0.058003069708744651 -0.021374776785572373 0.0067190992832183837 -0.020358498245477672
leaf_weight=5.9999999999999991 5.9999999999999982 11.999999999999998 12.000000000000005 8.9999999999999982 12.999999999999998 6
leaf_count=6 6 12 12 9 13 6
internal_value=0 -0.00715775 0.00249497 0.0344503 -0.0243475 -0.0441599
internal_weight=0 58 46 21 25 12
internal_count=64 58 46 21 25 12
is_linear=0
shrinkage=0.02


Tree=54
num_leaves=5
num_cat=0
split_feature=9 0 6 3
split_gain=76.375 68.1642 98.9751 49.6934
threshold=1.4541822157721127 0.75141242693555033 -1.1500068954485754 0.3154727006591182
decision_type=2 2 2 2
left_child=1 2 -1 -4
right_child=-2 -3 3 -5
leaf_value=0.077927273809909825 0.075051030635833738 -0.064951783588954384 0.0074775286519835737 -0.035588507652282712
leaf_weight=5.9999999999999991 4.9999999999999991 6.9999999999999991 29 17
leaf_count=6 5 7 29 17
internal_value=0 -0.00636026 0.00152706 -0.00843818
internal_weight=0 59 52 46
internal_count=64 59 52 46
is_linear=0
shrinkage=0.02


Tree=55
num_leaves=7
num_cat=0
split_feature=8 9 9 4 9 4
split_gain=75.315 48.6796 94.7433 116.165 63.2533 16.3221
threshold=-1.296752721803252 -0.80391013822044755 -0.24119475197879089 0.68723071909978328 0.33991967994900368 1.0873893794756802
decision_type=2 2 2 2 2 2
left_child=-1 5 3 -3 -4 -2
right_child=1 2 4 -5 -6 -7
leaf_value=0.06745576779047649 -0.066177338361740126 0.07443455688655376 -0.057038199305534332 -0.020618322429557644 0.0066383084884056674 -0.019526664415995276
leaf_weight=5.9999999999999991 5.9999999999999982 11.999999999999998 12.000000000000005 8.9999999999999982 12.999999999999998 6
leaf_count=6 6 12 12 9 13 6
internal_value=0 -0.00697818 0.0023802 0.0336976 -0.0239264 -0.042852
internal_weight=0 58 46 21 25 12
internal_count=64 58 46 21 25 12
is_linear=0
shrinkage=0.02


Tree=56
num_leaves=7
num_cat=0
split_feature=8 9 9 4 9 4
split_gain=72.3325 46.7519 90.9915 111.565 60.7485 15.6758
threshold=-1.296752721803252 -0.80391013822044755 -0.24119475197879089 0.68723071909978328 0.33991967994900368 1.0873893794756802
decision_type=2 2 2 2 2 2
left_child=-1 5 3 -3 -4 -2
right_child=1 2 4 -5 -6 -7
leaf_value=0.066106652220090226 -0.064853790998458866 0.072945865144332253 -0.055897434751192694 -0.020205954442628557 0.0065055422599499049 -0.019136132150888441
leaf_weight=5.9999999999999991 5.9999999999999982 11.999999999999998 12.000000000000005 8.9999999999999982 12.999999999999998 6
leaf_count=6 6 12 12 9 13 6
internal_value=0 -0.00683862 0.0023326 0.0330237 -0.0234479 -0.041995
internal_weight=0 58 46 21 25 12
internal_count=64 58 46 21 25 12
is_linear=0
shrinkage=0.02


Tree=57
num_leaves=9
num_cat=0
split_feature=5 6 9 6 3 9 8 2
split_gain=72.6748 103.761 104.995 73.2711 118.525 64.9441 40.1099 4.24196
threshold=-0.10592798465906869 -1.2214643290933369 -0.24119475197879089 0.59251026086363234 -0.23930235920470569 0.33991967994900368 -0.31048793977212141 -0.87528869387080077
decision_type=2 2 2 2 2 2 2 2
left_child=3 -2 -3 4 6 -4 -1 -5
right_child=1 2 5 7 -6 -7 -8 -9
leaf_value=0.0068812956809997574 0.10542785215377799 0.066229414930567082 -0.063324187397956852 -0.045280787547429403 0.063000347651541208 0.013128186941146851 -0.067286009362765714 -0.068197917171887001
leaf_weight=4.9999999999999982 5.0000000000000027 8.0000000000000053 7.9999999999999991 6 8.0000000000000018 9.9999999999999982 7 6.9999999999999982
leaf_count=5 5 8 8 6 8 10 7 7
internal_value=0 0.0219891 0.00594322 -0.0206565 0.00337036 -0.0208506 -0.036383 -0.0576208
internal_weight=0 31 26 33 20 18 12 13
internal_count=64 31 26 33 20 18 12 13
is_linear=0
shrinkage=0.02


Tree=58
num_leaves=5
num_cat=0
split_feature=9 0 6 7
split_gain=68.9755 68.7391 88.9021 46.2734
threshold=1.4541822157721127 0.75141242693555033 -1.1500068954485754 -0.78376024054117532
decision_type=2 2 2 2
left_child=1 2 -1 -4
right_child=-2 -3 3 -5
leaf_value=0.074284374043345452 0.071322826385498056 -0.064882405826023642 0.04422470062971115 -0.015337293542921545
leaf_weight=5.9999999999999991 4.9999999999999991 6.9999999999999991 5.9999999999999991 40
leaf_count=6 5 7 6 40
internal_value=0 -0.00604431 0.00187621 -0.00756834
internal_weight=0 59 52 46
internal_count=64 59 52 46
is_linear=0
shrinkage=0.02


Tree=59
num_leaves=9
num_cat=0
split_feature=5 4 6 3 6 4 8 2
split_gain=68.3982 97.9813 69.9704 114.493 63.6212 70.2532 38.7448 4.07398
threshold=-0.10592798465906869 -1.1105997581701785 0.59251026086363234 -0.23930235920470569 0.5109634102690922 -0.72231581374726739 -0.31048793977212141 -0.87528869387080077
decision_type=2 2 2 2 2 2 2 2
left_child=2 -2 3 6 5 -3 -1 -4
right_child=1 4 7 -5 -6 -7 -8 -9
leaf_value=0.0068901095390319833 0.10241396832466119 -0.064647999491010327 -0.04406842748324076 0.062047084681689714 0.052668089140206577 0.016402181082151152 -0.066004108403410214 -0.066527211155210236
leaf_weight=4.9999999999999982 5.0000000000000027 7.0000000000000062 6 8.0000000000000018 7.9999999999999991 10.999999999999998 7 6.9999999999999982
leaf_count=5 5 7 6 8 8 11 7 7
internal_value=0 0.0213323 -0.0200395 0.00343992 0.00573972 -0.0151173 -0.0356315 -0.0561616
internal_weight=0 31 33 20 26 18 12 13
internal_count=64 31 33 20 26 18 12 13
is_linear=0
shrinkage=0.02


Tree=60
num_leaves=9
num_cat=0
split_feature=5 4 9 6 3 9 8 2
split_gain=65.6896 94.1013 98.5117 67.1996 109.959 62.2043 37.2105 3.91265
threshold=-0.10592798465906869 -1.1105997581701785 -0.24119475197879089 0.59251026086363234 -0.23930235920470569 0.33991967994900368 -0.31048793977212141 -0.87528869387080077
decision_type=2 2 2 2 2 2 2 2
left_child=3 -2 -3 4 6 -4 -1 -5
right_child=1 2 5 7 -6 -7 -8 -9
leaf_value=0.00675230646133423 0.10036568832397454 0.064020300880074446 -0.061896543800830844 -0.04318705876668294 0.060806144103407837 0.012925800204277039 -0.064684027859142845 -0.065196668377944411
leaf_weight=4.9999999999999982 5.0000000000000027 8.0000000000000053 7.9999999999999991 6 8.0000000000000018 9.9999999999999982 7 6.9999999999999982
leaf_count=5 5 8 8 6 8 10 7 7
internal_value=0 0.0209057 0.00562493 -0.0196387 0.00337112 -0.0203286 -0.0349189 -0.0550384
internal_weight=0 31 26 33 20 18 12 13
internal_count=64 31 26 33 20 18 12 13
is_linear=0
shrinkage=0.02


Tree=61
num_leaves=9
num_cat=0
split_feature=5 4 7 6 8 6 4 7
split_gain=63.0883 90.3748 66.3596 103.83 101.694 59.6797 66.5739 3.82367
threshold=-0.10592798465906869 -1.1105997581701785 0.065712733551583857 0.75978451697849403 0.45475867505448714 0.5109634102690922 -0.72231581374726739 0.6590617796452769
decision_type=2 2 2 2 2 2 2 2
left_child=2 -2 -1 4 -4 6 -3 -5
right_child=1 5 3 7 -6 -7 -8 -9
leaf_value=-0.06938194662332535 0.098358375310897764 -0.062904427732740062 0.066899881422519666 -0.065488716125488303 -0.043568536460399633 0.050963910035789012 0.015994804427027703 -0.040754394054412835
leaf_weight=7.9999999999999991 5.0000000000000027 7.0000000000000062 10.000000000000002 4.9999999999999982 4.9999999999999991 7.9999999999999991 10.999999999999998 5
leaf_count=8 5 7 10 5 5 8 11 5
internal_value=0 0.0204876 -0.0192459 -0.00320238 0.0300771 0.00551243 -0.0146882 -0.0531216
internal_weight=0 31 33 25 15 26 18 10
internal_count=64 31 33 25 15 26 18 10
is_linear=0
shrinkage=0.02


Tree=62
num_leaves=6
num_cat=0
split_feature=9 0 6 0 4
split_gain=63.1102 68.0081 80.6802 85.1114 56.1341
threshold=1.4541822157721127 0.75141242693555033 1.0000000180025095e-35 1.0000000180025095e-35 0.33875467693856059
decision_type=2 2 2 2 2
left_child=1 2 4 -4 -1
right_child=-2 -3 3 -5 -6
leaf_value=0.046537696288691616 0.068222988486289979 -0.064305994851248605 -0.0044503710046410556 -0.095155603408813474 -0.029212917327880859
leaf_weight=18.000000000000004 4.9999999999999991 6.9999999999999991 24.000000000000004 4.9999999999999991 4.9999999999999991
leaf_count=18 5 7 24 5 5
internal_value=0 -0.00578161 0.00209667 -0.0200892 0.0300702
internal_weight=0 59 52 29 23
internal_count=64 59 52 29 23
is_linear=0
shrinkage=0.02


Tree=63
num_leaves=5
num_cat=0
split_feature=9 0 6 7
split_gain=60.611 65.3149 78.4282 44.1707
threshold=1.4541822157721127 0.75141242693555033 -1.1500068954485754 -0.78376024054117532
decision_type=2 2 2 2
left_child=1 2 -1 -4
right_child=-2 -3 3 -5
leaf_value=0.070063964625199635 0.06685852849483491 -0.063019875798906597 0.043786564071973164 -0.01440641626343131
leaf_weight=5.9999999999999991 4.9999999999999991 6.9999999999999991 5.9999999999999991 40
leaf_count=6 5 7 6 40
internal_value=0 -0.00566598 0.00205474 -0.00681603
internal_weight=0 59 52 46
internal_count=64 59 52 46
is_linear=0
shrinkage=0.02


Tree=64
num_leaves=7
num_cat=0
split_feature=3 2 4 6 5 4
split_gain=59.0592 56.7734 67.975 65.726 39.4311 24.4414
threshold=0.3154727006591182 -0.32506959285479009 0.33875467693856059 -1.2214643290933369 1.1349122681184525 1.0873893794756802
decision_type=2 2 2 2 2 2
left_child=1 2 -1 -3 -5 -2
right_child=5 3 -4 4 -6 -7
leaf_value=0.096705967187881492 -0.054554991987016445 0.046210775805844199 -0.0031422628164291377 -0.0018992716223001477 -0.057052024560315273 -0.0065096217393875123
leaf_weight=5.9999999999999982 9.0000000000000018 8.9999999999999982 5 20.000000000000004 6.9999999999999991 7.9999999999999991
leaf_count=6 9 9 5 20 7 8
internal_value=0 0.0115547 0.0513204 -0.000595906 -0.0161981 -0.0319454
internal_weight=0 47 11 36 27 17
internal_count=64 47 11 36 27 17
is_linear=0
shrinkage=0.02


Tree=65
num_leaves=9
num_cat=0
split_feature=5 4 9 7 6 8 9 7
split_gain=58.5515 82.1119 91.6788 62.661 96.1772 94.8937 57.8672 3.45476
threshold=-0.10592798465906869 -1.1105997581701785 -0.24119475197879089 0.065712733551583857 0.75978451697849403 0.45475867505448714 0.33991967994900368 0.6590617796452769
decision_type=2 2 2 2 2 2 2 2
left_child=3 -2 -3 -1 5 -5 -4 -6
right_child=1 2 6 4 7 -7 -8 -9
leaf_value=-0.067259813304990534 0.09396283137798303 0.061796810552477786 -0.059666885882616046 0.064648888349533057 -0.062750689506530774 -0.042062146782875065 0.012499922513961792 -0.039239796876907346
leaf_weight=7.9999999999999991 5.0000000000000027 8.0000000000000053 7.9999999999999991 10.000000000000002 4.9999999999999982 4.9999999999999991 9.9999999999999982 5
leaf_count=8 5 8 8 10 5 5 10 5
internal_value=0 0.0197372 0.00546302 -0.018541 -0.00295097 0.0290785 -0.0195742 -0.0509952
internal_weight=0 31 26 33 25 15 18 10
internal_count=64 31 26 33 25 15 18 10
is_linear=0
shrinkage=0.02


Tree=66
num_leaves=6
num_cat=0
split_feature=9 0 6 0 4
split_gain=56.7851 64.2237 72.5023 79.7076 52.0645
threshold=1.4541822157721127 0.75141242693555033 1.0000000180025095e-35 1.0000000180025095e-35 0.33875467693856059
decision_type=2 2 2 2 2
left_child=1 2 4 -4 -1
right_child=-2 -3 3 -5 -6
leaf_value=0.044548974451091551 0.064713983237743383 -0.06235698699951172 -0.0037255038274452085 -0.091504033088684086 -0.028404062747955323
leaf_weight=18.000000000000004 4.9999999999999991 6.9999999999999991 24.000000000000004 4.9999999999999991 4.9999999999999991
leaf_count=18 5 7 24 5 5
internal_value=0 -0.00548424 0.00217171 -0.0188597 0.0286896
internal_weight=0 59 52 29 23
internal_count=64 59 52 29 23
is_linear=0
shrinkage=0.02


Tree=67
num_leaves=9
num_cat=0
split_feature=5 4 9 7 6 8 9 7
split_gain=55.7527 77.6897 87.4486 59.7189 91.4647 90.2246 55.1663 3.2176
threshold=-0.10592798465906869 -1.1105997581701785 -0.24119475197879089 0.065712733551583857 0.75978451697849403 0.45475867505448714 0.33991967994900368 0.6590617796452769
decision_type=2 2 2 2 2 2 2 2
left_child=3 -2 -3 -1 5 -5 -4 -6
right_child=1 2 6 4 7 -7 -8 -9
leaf_value=-0.065653757797554141 0.091458895772695489 0.060394012816250273 -0.058223443776369094 0.063046391665935494 -0.061070051193237315 -0.041006251573562622 0.012239108800888061 -0.038380490541458125
leaf_weight=7.9999999999999991 5.0000000000000027 8.0000000000000053 7.9999999999999991 10.000000000000002 4.9999999999999982 4.9999999999999991 9.9999999999999982 5
leaf_count=8 5 8 8 10 5 5 10 5
internal_value=0 0.0192597 0.00537522 -0.0180924 -0.0028728 0.0283622 -0.0190776 -0.0497253
internal_weight=0 31 26 33 25 15 18 10
internal_count=64 31 26 33 25 15 18 10
is_linear=0
shrinkage=0.02


Tree=68
num_leaves=8
num_cat=0
split_feature=9 4 9 2 2 3 4
split_gain=54.7875 43.5205 95.1522 80.0325 64.6999 59.1636 14.6102
threshold=-0.80391013822044755 0.33875467693856059 -0.24119475197879089 0.25312232473142826 -0.60953910964906866 -0.23930235920470569 1.0873893794756802
decision_type=2 2 2 2 2 2 2
left_child=6 2 5 -4 -3 -2 -1
right_child=1 4 3 -5 -6 -7 -8
leaf_value=-0.060588746865590418 0.029047737377030508 0.036429014682769774 -0.029246211647987352 0.042879465665668255 -0.053301362925105629 0.11912475204467785 -0.016452248295148211
leaf_weight=5.9999999999999982 7 4.9999999999999991 16.000000000000007 9.9999999999999982 8.9999999999999982 4.9999999999999947 6
leaf_count=6 7 5 16 10 9 5 6
internal_value=0 0.00888935 0.0199951 -0.00150557 -0.0212548 0.0665798 -0.0385205
internal_weight=0 52 38 26 14 12 12
internal_count=64 52 38 26 14 12 12
is_linear=0
shrinkage=0.02


Tree=69
num_leaves=9
num_cat=0
split_feature=5 4 9 7 6 8 9 7
split_gain=53.2769 73.0294 82.4014 56.5909 86.7629 85.5647 53.0493 3.12704
threshold=-0.10592798465906869 -1.1105997581701785 -0.24119475197879089 0.065712733551583857 0.75978451697849403 0.45475867505448714 0.33991967994900368 0.6590617796452769
decision_type=2 2 2 2 2 2 2 2
left_child=3 -2 -3 -1 5 -5 -4 -6
right_child=1 2 6 4 7 -7 -8 -9
leaf_value=-0.063985133352689447 0.088827454715967119 0.058773039504885619 -0.056758416295051572 0.061327744767069793 -0.059686795234680193 -0.0400022439956665 0.012338858604431154 -0.03731881403923034
leaf_weight=7.9999999999999991 5.0000000000000027 8.0000000000000053 7.9999999999999991 10.000000000000002 4.9999999999999982 4.9999999999999991 9.9999999999999982 5
leaf_count=8 5 8 8 10 5 5 10 5
internal_value=0 0.0188272 0.0053656 -0.0176861 -0.00287047 0.0275511 -0.018371 -0.0485028
internal_weight=0 31 26 33 25 15 18 10
internal_count=64 31 26 33 25 15 18 10
is_linear=0
shrinkage=0.02


Tree=70
num_leaves=9
num_cat=0
split_feature=5 4 7 6 8 6 4 7
split_gain=51.1671 70.1374 54.3499 83.3271 82.1764 54.1816 61.3497 3.00321
threshold=-0.10592798465906869 -1.1105997581701785 0.065712733551583857 0.75978451697849403 0.45475867505448714 0.5109634102690922 -0.72231581374726739 0.6590617796452769
decision_type=2 2 2 2 2 2 2 2
left_child=2 -2 -1 4 -4 6 -3 -5
right_child=1 5 3 7 -6 -7 -8 -9
leaf_value=-0.062705431692302221 0.087050908863544413 -0.060275125673838963 0.06010119064152239 -0.0584930591583252 -0.039202199876308443 0.048565544188022614 0.01546518016945232 -0.036572438478469846
leaf_weight=7.9999999999999991 5.0000000000000027 7.0000000000000062 10.000000000000002 4.9999999999999982 4.9999999999999991 7.9999999999999991 10.999999999999998 5
leaf_count=8 5 7 10 5 5 8 11 5
internal_value=0 0.0184506 -0.0173324 -0.00281306 0.0270001 0.00525829 -0.0139894 -0.0475327
internal_weight=0 31 33 25 15 26 18 10
internal_count=64 31 33 25 15 26 18 10
is_linear=0
shrinkage=0.02


Tree=71
num_leaves=8
num_cat=0
split_feature=9 4 9 2 2 3 4
split_gain=51.1706 41.3455 87.966 72.0293 59.8391 57.7743 13.774
threshold=-0.80391013822044755 0.33875467693856059 -0.24119475197879089 0.25312232473142826 -0.60953910964906866 -0.23930235920470569 1.0873893794756802
decision_type=2 2 2 2 2 2 2
left_child=6 2 5 -4 -3 -2 -1
right_child=1 4 3 -5 -6 -7 -8
leaf_value=-0.058654689788818368 0.027117868789604729 0.034684346675872807 -0.027574340105056751 0.040850123316049577 -0.05160957780149248 0.11613100624084483 -0.015799884398778278
leaf_weight=5.9999999999999982 7 4.9999999999999991 16.000000000000007 9.9999999999999982 8.9999999999999982 4.9999999999999947 6
leaf_count=6 7 5 16 10 9 5 6
internal_value=0 0.00859091 0.0194156 -0.00125724 -0.0207903 0.0642067 -0.0372273
internal_weight=0 52 38 26 14 12 12
internal_count=64 52 38 26 14 12 12
is_linear=0
shrinkage=0.02


Tree=72
num_leaves=6
num_cat=0
split_feature=9 0 6 0 0
split_gain=51.1488 63.8414 64.3702 72.0541 49.6281
threshold=1.4541822157721127 0.75141242693555033 1.0000000180025095e-35 1.0000000180025095e-35 0.17947636800296954
decision_type=2 2 2 2 2
left_child=1 2 4 -4 -1
right_child=-2 -3 3 -5 -6
leaf_value=0.0059596586227416981 0.061418418884277348 -0.061908164194652011 -0.0029994201722244418 -0.08645737743377685 0.067642893008887775
leaf_weight=15.000000000000002 4.9999999999999991 6.9999999999999991 24.000000000000004 4.9999999999999991 7.9999999999999991
leaf_count=15 5 7 24 5 8
internal_value=0 -0.00520495 0.00242817 -0.0173887 0.0274147
internal_weight=0 59 52 29 23
internal_count=64 59 52 29 23
is_linear=0
shrinkage=0.02


Tree=73
num_leaves=6
num_cat=0
split_feature=9 0 6 0 0
split_gain=49.1233 61.3132 61.8211 69.2008 47.6628
threshold=1.4541822157721127 0.75141242693555033 1.0000000180025095e-35 1.0000000180025095e-35 0.17947636800296954
decision_type=2 2 2 2 2
left_child=1 2 4 -4 -1
right_child=-2 -3 3 -5 -6
leaf_value=0.0058404673735300682 0.060190050125122074 -0.060670002528599332 -0.0029394310278197128 -0.084728230476379396 0.066290034539997572
leaf_weight=15.000000000000002 4.9999999999999991 6.9999999999999991 24.000000000000004 4.9999999999999991 7.9999999999999991
leaf_count=15 5 7 24 5 8
internal_value=0 -0.00510085 0.00237961 -0.0170409 0.0268664
internal_weight=0 59 52 29 23
internal_count=64 59 52 29 23
is_linear=0
shrinkage=0.02


Tree=74
num_leaves=8
num_cat=0
split_feature=3 2 1 8 0 4 0
split_gain=47.8762 50.2111 98.7846 48.7385 29.1736 22.3374 9.27844
threshold=0.3154727006591182 -0.32506959285479009 0.29434967917898186 -1.296752721803252 1.0000000180025095e-35 1.352082423815671 -0.77174632919951702
decision_type=2 2 2 2 2 2 2
left_child=1 2 -1 -3 -5 6 -2
right_child=5 3 -4 4 -6 -7 -8
leaf_value=0.11345547866821293 -0.028697566134589052 0.051012067099412278 -0.0069123435020446771 0.0096538274309464853 -0.029879351779818535 0.0067539350986480715 -0.064369282722473123
leaf_weight=4.9999999999999982 7.0000000000000009 5.9999999999999991 6 14.000000000000002 15.999999999999998 4.9999999999999991 5.0000000000000009
leaf_count=5 7 6 6 14 16 5 5
internal_value=0 0.0104034 0.0478003 -0.00102343 -0.0114305 -0.0287623 -0.0435608
internal_weight=0 47 11 36 30 17 12
internal_count=64 47 11 36 30 17 12
is_linear=0
shrinkage=0.02


Tree=75
num_leaves=9
num_cat=0
split_feature=5 5 3 1 7 6 3 6
split_gain=47.0076 66.5166 61.5908 72.1492 50.7854 76.8356 58.3825 15.4079
threshold=-0.10592798465906869 1.0000000180025095e-35 -0.17362627453177129 -0.34375944214295301 0.065712733551583857 0.068725693739623769 -0.6548111611786781 0.86296745786098794
decision_type=2 2 2 2 2 2 2 2
left_child=4 -2 3 -3 -1 6 -6 -7
right_child=1 2 -4 -5 5 7 -8 -9
leaf_value=-0.060472862944006923 0.077485830187797505 -0.012905291676521291 -0.047006525737898715 0.067676543593406649 -0.0079603284597396847 -0.0063803911209106444 0.088689570426940867 -0.047756631771723436
leaf_weight=7.9999999999999991 6.0000000000000027 10.000000000000005 6.9999999999999956 8.0000000000000018 5 5.9999999999999991 5.0000000000000018 8.9999999999999982
leaf_count=8 6 10 7 8 5 6 5 9
internal_value=0 0.0176848 0.00333255 0.0229089 -0.016613 -0.00257783 0.0403646 -0.0312061
internal_weight=0 31 25 18 33 25 10 15
internal_count=64 31 25 18 33 25 10 15
is_linear=0
shrinkage=0.02


Tree=76
num_leaves=8
num_cat=0
split_feature=9 8 9 5 5 7 4
split_gain=46.9962 45.8217 44.916 89.2397 35.5534 24.6457 12.8268
threshold=1.4541822157721127 0.45475867505448714 -0.24119475197879089 -0.10592798465906869 0.48525996053146142 0.6590617796452769 1.352082423815671
decision_type=2 2 2 2 2 2 2
left_child=1 2 3 -1 -4 -3 -7
right_child=-2 5 4 -5 -6 6 -8
leaf_value=-0.0017840299010276795 0.058872482061386108 -0.065928942561149603 0.0032416617018835871 0.084697967852864944 -0.051961922645568849 0.0079946879148483294 -0.037307467699050897
leaf_weight=14.999999999999998 4.9999999999999991 5.9999999999999991 14.000000000000005 6.9999999999999991 6.9999999999999991 4.9999999999999982 5
leaf_count=15 5 6 14 7 7 5 5
internal_value=0 -0.00498919 0.00576221 0.025733 -0.0151595 -0.0338836 -0.0146564
internal_weight=0 59 43 22 21 16 10
internal_count=64 59 43 22 21 16 10
is_linear=0
shrinkage=0.02


Tree=77
num_leaves=8
num_cat=0
split_feature=9 4 9 2 2 3 4
split_gain=46.0965 36.7773 80.9746 68.5722 59.3012 55.774 12.7292
threshold=-0.80391013822044755 0.33875467693856059 -0.24119475197879089 0.25312232473142826 -0.60953910964906866 -0.23930235920470569 1.0873893794756802
decision_type=2 2 2 2 2 2 2
left_child=6 2 5 -4 -3 -2 -1
right_child=1 4 3 -5 -6 -7 -8
leaf_value=-0.055932064453760796 0.024896230697631833 0.035668000459671022 -0.027149039804935441 0.039613184571266176 -0.050237173636754354 0.1123548035621644 -0.014734651645024615
leaf_weight=5.9999999999999982 7 4.9999999999999991 16.000000000000007 9.9999999999999982 8.9999999999999982 4.9999999999999947 6
leaf_count=6 7 5 16 10 9 5 6
internal_value=0 0.00815385 0.018363 -0.00147126 -0.0195568 0.0613373 -0.0353334
internal_weight=0 52 38 26 14 12 12
internal_count=64 52 38 26 14 12 12
is_linear=0
shrinkage=0.02


Tree=78
num_leaves=8
num_cat=0
split_feature=9 8 9 5 5 7 4
split_gain=45.149 43.5424 43.0735 84.2499 33.7413 23.8323 12.2952
threshold=1.4541822157721127 0.45475867505448714 -0.24119475197879089 -0.10592798465906869 0.48525996053146142 0.6590617796452769 1.352082423815671
decision_type=2 2 2 2 2 2 2
left_child=1 2 3 -1 -4 -3 -7
right_child=-2 5 4 -5 -6 6 -8
leaf_value=-0.0015893565018971763 0.057703918457031253 -0.064568880796432498 0.0030284146751676272 0.082440091030938287 -0.050749929973057342 0.0080272441506385826 -0.036326225280761716
leaf_weight=14.999999999999998 4.9999999999999991 5.9999999999999991 14.000000000000005 6.9999999999999991 6.9999999999999991 4.9999999999999982 5
leaf_count=15 5 6 14 7 7 5 5
internal_value=0 -0.00489016 0.00559043 0.0251473 -0.0148977 -0.0330568 -0.0141495
internal_weight=0 59 43 22 21 16 10
internal_count=64 59 43 22 21 16 10
is_linear=0
shrinkage=0.02


Tree=79
num_leaves=8
num_cat=0
split_feature=9 4 9 2 2 6 4
split_gain=43.5214 34.8658 76.1263 65.0565 57.284 54.9008 12.328
threshold=-0.80391013822044755 0.33875467693856059 -0.24119475197879089 0.25312232473142826 -0.60953910964906866 -0.82375315744508171 1.0873893794756802
decision_type=2 2 2 2 2 2 2
left_child=6 2 5 -4 -3 -2 -1
right_child=1 4 3 -5 -6 -7 -8
leaf_value=-0.05460376024246217 0.0089144532084465006 0.035219344377517697 -0.026379049234092223 0.038649208068847661 -0.049212119579315185 0.095685741773673533 -0.014060803850491839
leaf_weight=5.9999999999999982 5 4.9999999999999991 16.000000000000007 9.9999999999999982 8.9999999999999982 6.9999999999999947 6
leaf_count=6 5 5 16 10 9 7 6
internal_value=0 0.00792283 0.0178632 -0.00136818 -0.019058 0.059531 -0.0343323
internal_weight=0 52 38 26 14 12 12
internal_count=64 52 38 26 14 12 12
is_linear=0
shrinkage=0.02


Tree=80
num_leaves=8
num_cat=0
split_feature=9 8 3 6 6 7 4
split_gain=43.3724 41.2774 42.2193 95.6311 35.8143 23.0264 11.8185
threshold=1.4541822157721127 0.45475867505448714 -0.23930235920470569 0.59251026086363234 -1.2214643290933369 0.6590617796452769 1.352082423815671
decision_type=2 2 2 2 2 2 2
left_child=1 2 4 -4 -1 -3 -7
right_child=-2 5 3 -5 -6 6 -8
leaf_value=0.033249135017395022 0.056557192325592046 -0.063191940585772197 0.080050780028104715 -0.017740379795432092 -0.022156600100653515 0.0081102515459060692 -0.035375000715255733
leaf_weight=5.9999999999999991 4.9999999999999991 5.9999999999999991 8.0000000000000053 7.9999999999999991 21 4.9999999999999982 5
leaf_count=6 5 6 8 8 21 5 5
internal_value=0 -0.00479298 0.00541138 0.0311552 -0.00984421 -0.0322172 -0.0136324
internal_weight=0 59 43 16 27 16 10
internal_count=64 59 43 16 27 16 10
is_linear=0
shrinkage=0.02


Tree=81
num_leaves=9
num_cat=0
split_feature=5 5 3 1 7 6 3 6
split_gain=42.9148 61.6833 51.5716 69.9534 47.9331 71.3529 53.1376 13.1548
threshold=-0.10592798465906869 1.0000000180025095e-35 -0.17362627453177129 -0.34375944214295301 0.065712733551583857 0.068725693739623769 -0.6548111611786781 0.86296745786098794
decision_type=2 2 2 2 2 2 2 2
left_child=4 -2 3 -3 -1 6 -6 -7
right_child=1 2 -4 -5 5 7 -8 -9
leaf_value=-0.058483707904815677 0.074484763940175322 -0.014275124549865712 -0.042986621430942014 0.065071008205413797 -0.0069591948986053457 -0.0068870609998703007 0.085247216224670352 -0.045118567811118233
leaf_weight=7.9999999999999991 6.0000000000000027 10.000000000000005 6.9999999999999956 8.0000000000000018 5 5.9999999999999991 5.0000000000000018 8.9999999999999982
leaf_count=8 6 10 7 8 5 6 5 9
internal_value=0 0.0168974 0.00307642 0.0209898 -0.0158733 -0.00223797 0.039144 -0.029826
internal_weight=0 31 25 18 33 25 10 15
internal_count=64 31 25 18 33 25 10 15
is_linear=0
shrinkage=0.02


Tree=82
num_leaves=5
num_cat=0
split_feature=9 0 6 7
split_gain=41.607 57.3513 51.6444 37.2596
threshold=1.4541822157721127 0.75141242693555033 -1.1500068954485754 -0.78376024054117532
decision_type=2 2 2 2
left_child=1 2 -1 -4
right_child=-2 -3 3 -5
leaf_value=0.057728141744931537 0.055394167661666868 -0.058438224451882501 0.041817435125509901 -0.011629417829215527
leaf_weight=5.9999999999999991 4.9999999999999991 6.9999999999999991 5.9999999999999991 40
leaf_count=6 5 7 6 40
internal_value=0 -0.00469442 0.00254032 -0.00465809
internal_weight=0 59 52 46
internal_count=64 59 52 46
is_linear=0
shrinkage=0.02


Tree=83
num_leaves=9
num_cat=0
split_feature=5 5 3 1 7 6 3 6
split_gain=40.355 59.6089 48.5916 67.5184 45.6249 67.8749 51.7646 12.6339
threshold=-0.10592798465906869 1.0000000180025095e-35 -0.17362627453177129 -0.34375944214295301 0.065712733551583857 0.068725693739623769 -0.6548111611786781 0.86296745786098794
decision_type=2 2 2 2 2 2 2 2
left_child=4 -2 3 -3 -1 6 -6 -7
right_child=1 2 -4 -5 5 7 -8 -9
leaf_value=-0.056964424028992655 0.072996465762456206 -0.014458492040634145 -0.041913266352244814 0.063494415283203098 -0.0072324781417846661 -0.0065167307853698734 0.083774860382080027 -0.043983608351813419
leaf_weight=7.9999999999999991 6.0000000000000027 10.000000000000005 6.9999999999999956 8.0000000000000018 5 5.9999999999999991 5.0000000000000018 8.9999999999999982
leaf_count=8 6 10 7 8 5 6 5 9
internal_value=0 0.0163857 0.0027991 0.0201872 -0.0153926 -0.00208964 0.0382712 -0.0289969
internal_weight=0 31 25 18 33 25 10 15
internal_count=64 31 25 18 33 25 10 15
is_linear=0
shrinkage=0.02


Tree=84
num_leaves=5
num_cat=0
split_feature=9 0 6 7
split_gain=39.926 55.0362 48.9894 35.0938
threshold=1.4541822157721127 0.75141242693555033 -1.1500068954485754 -0.78376024054117532
decision_type=2 2 2 2
left_child=1 2 -1 -4
right_child=-2 -3 3 -5
leaf_value=0.05623912851015727 0.054263642787933344 -0.057246493952614927 0.040582240819931031 -0.011288024798035621
leaf_weight=5.9999999999999991 4.9999999999999991 6.9999999999999991 5.9999999999999991 40
leaf_count=6 5 7 6 40
internal_value=0 -0.00459861 0.0024886 -0.00452234
internal_weight=0 59 52 46
internal_count=64 59 52 46
is_linear=0
shrinkage=0.02


Tree=85
num_leaves=6
num_cat=0
split_feature=9 0 4 1 5
split_gain=38.3449 52.8568 47.4386 50.6936 37.058
threshold=1.4541822157721127 0.75141242693555033 0.33875467693856059 -0.23843368321638594 -0.24991359752936046
decision_type=2 2 2 2 2
left_child=1 2 3 -1 -4
right_child=-2 -3 4 -5 -6
leaf_value=-0.0012203074991703033 0.053178368806838988 -0.0561015636580331 -0.041276917732678921 0.053276712244207193 0.0099340741634368901
leaf_weight=18 4.9999999999999991 6.9999999999999991 13.000000000000002 11.000000000000002 9.9999999999999982
leaf_count=18 5 7 13 11 10
internal_value=0 -0.00450664 0.00243883 0.019451 -0.0190113
internal_weight=0 59 52 29 23
internal_count=64 59 52 29 23
is_linear=0
shrinkage=0.02


Tree=86
num_leaves=9
num_cat=0
split_feature=5 5 3 1 7 8 6 5
split_gain=36.8299 57.6837 45.2853 64.6141 43.4179 66.8989 80.5732 15.2183
threshold=-0.10592798465906869 1.0000000180025095e-35 -0.17362627453177129 -0.34375944214295301 0.065712733551583857 0.45475867505448714 -1.0000000180025095e-35 -0.7390188263686176
decision_type=2 2 2 2 2 2 2 2
left_child=4 -2 3 -3 -1 6 -6 -7
right_child=1 2 -4 -5 5 7 -8 -9
leaf_value=-0.055258829817175864 0.071342774232228554 -0.014817934393882742 -0.040876139913286508 0.061439958214759803 0.0752526171718325 -0.017162480851014454 -0.020707591942378444 -0.064406727313995382
leaf_weight=7.9999999999999991 6.0000000000000027 10.000000000000005 6.9999999999999956 8.0000000000000018 6.9999999999999991 6 7.0000000000000027 4.9999999999999982
leaf_count=8 6 10 7 8 7 6 7 5
internal_value=0 0.0156537 0.00228829 0.0190745 -0.014705 -0.00172773 0.0272725 -0.0386371
internal_weight=0 31 25 18 33 25 14 11
internal_count=64 31 25 18 33 25 14 11
is_linear=0
shrinkage=0.02


Tree=87
num_leaves=5
num_cat=0
split_feature=9 0 6 3
split_gain=36.8142 50.3798 45.4183 34.1925
threshold=1.4541822157721127 0.75141242693555033 -1.1500068954485754 -0.40744178761887279
decision_type=2 2 2 2
left_child=1 2 -1 -4
right_child=-2 -3 3 -5
leaf_value=0.054119403163592025 0.052106131076812744 -0.054787252630506246 -0.029174156864484161 0.0076089056461088114
leaf_weight=5.9999999999999991 4.9999999999999991 6.9999999999999991 14.999999999999995 31.000000000000004
leaf_count=6 5 7 15 31
internal_value=0 -0.00441577 0.002365 -0.00438557
internal_weight=0 59 52 46
internal_count=64 59 52 46
is_linear=0
shrinkage=0.02


Tree=88
num_leaves=8
num_cat=0
split_feature=9 9 7 3 3 8 7
split_gain=36.6345 31.6808 61.2424 105.06 57.78 44.1248 11.63
threshold=-0.80391013822044755 -0.24119475197879089 0.56545995974749053 -0.23930235920470569 -0.74887596875296369 -0.31048793977212141 0.6590617796452769
decision_type=2 2 2 2 2 2 2
left_child=6 2 3 -2 -3 -6 -1
right_child=1 4 -4 -5 5 -7 -8
leaf_value=-0.048139399119785868 0.0001311228010389539 0.040717844069004062 -0.034861297607421876 0.10344017003263745 -0.059615238979458786 -0.0014525571266810094 -0.0082023003101348857
leaf_weight=6.9999999999999982 9.0000000000000036 7.9999999999999991 4.9999999999999991 7.0000000000000009 8.0000000000000018 15.000000000000002 5
leaf_count=7 9 8 5 7 8 15 5
internal_value=0 0.00726899 0.0262359 0.0453288 -0.0055796 -0.0216831 -0.0314989
internal_weight=0 52 21 16 31 23 12
internal_count=64 52 21 16 31 23 12
is_linear=0
shrinkage=0.02


Tree=89
num_leaves=5
num_cat=0
split_feature=9 0 6 3
split_gain=35.5741 48.4483 43.1755 32.0373
threshold=1.4541822157721127 0.75141242693555033 -1.1500068954485754 -0.40744178761887279
decision_type=2 2 2 2
left_child=1 2 -1 -4
right_child=-2 -3 3 -5
leaf_value=0.052769093712170916 0.051220997810363773 -0.053737251077379498 -0.028267639696598061 0.007337283857407108
leaf_weight=5.9999999999999991 4.9999999999999991 6.9999999999999991 14.999999999999995 31.000000000000004
leaf_count=6 5 7 15 31
internal_value=0 -0.00434076 0.00230876 -0.00427302
internal_weight=0 59 52 46
internal_count=64 59 52 46
is_linear=0
shrinkage=0.02


Tree=90
num_leaves=8
num_cat=0
split_feature=9 9 4 3 6 8 7
split_gain=35.3833 30.1217 60.3941 55.0202 53.8109 42.3957 11.1115
threshold=-0.80391013822044755 -0.24119475197879089 0.68723071909978328 -0.74887596875296369 -0.82375315744508171 -0.31048793977212141 0.6590617796452769
decision_type=2 2 2 2 2 2 2
left_child=6 2 4 -3 -2 -5 -1
right_child=1 3 -4 5 -6 -7 -8
leaf_value=-0.04722163004534586 0.0048994984626770013 0.039793563038110734 -0.013525875276989409 -0.058280362263321853 0.090805158700261762 -0.0012686624924341835 -0.0081850006580352769
leaf_weight=6.9999999999999982 5 7.9999999999999991 8.9999999999999982 8.0000000000000018 7.0000000000000018 15.000000000000002 5
leaf_count=7 5 8 9 8 7 15 5
internal_value=0 0.00714378 0.0256381 -0.00538466 0.0550111 -0.0210988 -0.0309564
internal_weight=0 52 21 31 12 23 12
internal_count=64 52 21 31 12 23 12
is_linear=0
shrinkage=0.02


Tree=91
num_leaves=9
num_cat=0
split_feature=5 5 3 1 7 8 5 5
split_gain=34.9144 53.9378 43.9681 61.9826 39.5655 63.1329 46.9058 13.879
threshold=-0.10592798465906869 1.0000000180025095e-35 -0.17362627453177129 -0.34375944214295301 0.065712733551583857 0.45475867505448714 -0.43976125501607649 -0.7390188263686176
decision_type=2 2 2 2 2 2 2 2
left_child=4 -2 3 -3 -1 6 -6 -7
right_child=1 2 -4 -5 5 7 -8 -9
leaf_value=-0.053030429407954216 0.069091733694076493 -0.014337803959846487 -0.040215002979551065 0.060351139307022073 0.068514434496561694 -0.017276874681313829 -0.0054608435928821539 -0.062394326925277722
leaf_weight=7.9999999999999991 6.0000000000000027 10.000000000000005 6.9999999999999956 8.0000000000000018 5.9999999999999991 6 8.0000000000000018 4.9999999999999982
leaf_count=8 6 10 7 8 6 6 8 5
internal_value=0 0.0152412 0.00231704 0.0188573 -0.0143175 -0.00192932 0.0262428 -0.0377848
internal_weight=0 31 25 18 33 25 14 11
internal_count=64 31 25 18 33 25 14 11
is_linear=0
shrinkage=0.02


Tree=92
num_leaves=6
num_cat=0
split_feature=9 0 6 1 5
split_gain=34.3575 46.247 40.6794 51.9484 34.835
threshold=1.4541822157721127 0.75141242693555033 0.59251026086363234 -0.23843368321638594 -0.10592798465906869
decision_type=2 2 2 2 2
left_child=1 2 3 -1 -4
right_child=-2 -3 4 -5 -6
leaf_value=-0.0077210179672521709 0.050337544918060306 -0.052527132374899727 -0.039513504275908821 0.043343729416529336 0.01582558878830501
leaf_weight=17 4.9999999999999991 6.9999999999999991 13.000000000000002 14.999999999999998 6.9999999999999991
leaf_count=17 5 7 13 15 7
internal_value=0 -0.00426589 0.00223081 0.0162156 -0.0201448
internal_weight=0 59 52 32 20
internal_count=64 59 52 32 20
is_linear=0
shrinkage=0.02


Tree=93
num_leaves=8
num_cat=0
split_feature=9 8 3 6 6 7 4
split_gain=32.997 32.4928 38.8406 80.5161 28.6735 19.1184 8.73658
threshold=1.4541822157721127 0.45475867505448714 -0.23930235920470569 0.59251026086363234 -1.2214643290933369 0.6590617796452769 1.352082423815671
decision_type=2 2 2 2 2 2 2
left_child=1 2 4 -4 -1 -3 -7
right_child=-2 5 3 -5 -6 6 -8
leaf_value=0.028799330393473307 0.049330792903900147 -0.056736345291137698 0.074430712163448279 -0.015300070941448212 -0.020776158968607582 0.0071161724328994772 -0.03027170634269714
leaf_weight=5.9999999999999991 4.9999999999999991 5.9999999999999991 8.0000000000000053 7.9999999999999991 21 4.9999999999999982 5
leaf_count=6 5 6 8 8 21 5 5
internal_value=0 -0.00418058 0.00487306 0.0295653 -0.00975938 -0.0285122 -0.0115778
internal_weight=0 59 43 16 27 16 10
internal_count=64 59 43 16 27 16 10
is_linear=0
shrinkage=0.02


Tree=94
num_leaves=9
num_cat=0
split_feature=5 5 3 1 7 8 5 5
split_gain=32.6662 52.1171 40.5973 58.8964 37.0574 57.9176 45.111 13.0823
threshold=-0.10592798465906869 1.0000000180025095e-35 -0.17362627453177129 -0.34375944214295301 0.065712733551583857 0.45475867505448714 -0.43976125501607649 -0.7390188263686176
decision_type=2 2 2 2 2 2 2 2
left_child=4 -2 3 -3 -1 6 -6 -7
right_child=1 2 -4 -5 5 7 -8 -9
leaf_value=-0.0513147085160017 0.067676171064376789 -0.014426355838775624 -0.038830986193248228 0.058379394412040687 0.066578659812609353 -0.016291677753130594 -0.0059675455093383765 -0.060095116138458263
leaf_weight=7.9999999999999991 6.0000000000000027 10.000000000000005 6.9999999999999956 8.0000000000000018 5.9999999999999991 6 8.0000000000000018 4.9999999999999982
leaf_count=8 6 10 7 8 6 6 8 5
internal_value=0 0.0147423 0.00203819 0.0179318 -0.0138488 -0.00185976 0.0251237 -0.0362023
internal_weight=0 31 25 18 33 25 14 11
internal_count=64 31 25 18 33 25 14 11
is_linear=0
shrinkage=0.02


Tree=95
num_leaves=5
num_cat=0
split_feature=9 0 9 9
split_gain=31.6868 44.1157 38.5874 26.8486
threshold=1.4541822157721127 0.75141242693555033 0.33991967994900368 -0.80391013822044755
decision_type=2 2 2 2
left_child=1 2 3 -1
right_child=-2 -3 -4 -5
leaf_value=-0.029186654289563498 0.048341485023498533 -0.051232788903372628 0.0550705246925354 0.0054802662139492378
leaf_weight=11.999999999999998 4.9999999999999991 6.9999999999999991 4.9999999999999991 35
leaf_count=12 5 7 5 35
internal_value=0 -0.00409674 0.0022485 -0.00337086
internal_weight=0 59 52 47
internal_count=64 59 52 47
is_linear=0
shrinkage=0.02


Tree=96
num_leaves=9
num_cat=0
split_feature=5 5 3 1 7 6 3 6
split_gain=30.7739 49.7904 38.7649 56.8316 35.444 54.6272 47.9053 10.3355
threshold=-0.10592798465906869 1.0000000180025095e-35 -0.17362627453177129 -0.34375944214295301 0.065712733551583857 0.068725693739623769 -0.6548111611786781 0.86296745786098794
decision_type=2 2 2 2 2 2 2 2
left_child=4 -2 3 -3 -1 6 -6 -7
right_child=1 2 -4 -5 5 7 -8 -9
leaf_value=-0.050082903071306646 0.066047741572062141 -0.014363470792770377 -0.038044572387422856 0.057154637575149513 -0.0092826306819915761 -0.0055227435628573095 0.078266470432281451 -0.039410704109403824
leaf_weight=7.9999999999999991 6.0000000000000027 10.000000000000005 6.9999999999999956 8.0000000000000018 5 5.9999999999999991 5.0000000000000018 8.9999999999999982
leaf_count=8 6 10 7 8 5 6 5 9
internal_value=0 0.0143089 0.00189162 0.0174224 -0.0134417 -0.00171654 0.0344919 -0.0258555
internal_weight=0 31 25 18 33 25 10 15
internal_count=64 31 25 18 33 25 10 15
is_linear=0
shrinkage=0.02


Tree=97
num_leaves=5
num_cat=0
split_feature=9 0 6 4
split_gain=30.4335 42.3066 37.0772 30.5574
threshold=1.4541822157721127 0.75141242693555033 -1.1500068954485754 -0.72231581374726739
decision_type=2 2 2 2
left_child=1 2 -1 -4
right_child=-2 -3 3 -5
leaf_value=0.048960018952687583 0.047375850677490235 -0.050174338136400494 -0.036951738119953212 0.0041390985089379394
leaf_weight=5.9999999999999991 4.9999999999999991 6.9999999999999991 8.9999999999999982 37
leaf_count=6 5 7 9 37
internal_value=0 -0.0040149 0.00219887 -0.00390041
internal_weight=0 59 52 46
internal_count=64 59 52 46
is_linear=0
shrinkage=0.02


Tree=98
num_leaves=9
num_cat=0
split_feature=5 9 2 9 7 6 3 6
split_gain=29.6618 48.6515 82.84 51.0058 33.3146 52.18 46.3527 9.92626
threshold=-0.10592798465906869 -0.24119475197879089 0.25312232473142826 0.33991967994900368 0.065712733551583857 0.068725693739623769 -0.6548111611786781 0.86296745786098794
decision_type=2 2 2 2 2 2 2 2
left_child=4 -2 3 -3 -1 6 -6 -7
right_child=1 2 -4 -5 5 7 -8 -9
leaf_value=-0.048720062840729952 0.053221049904823285 -0.067915963785988909 0.054834064074925019 0.0060090261697769163 -0.0095003569126129138 -0.0054950710137685148 0.07661836099624629 -0.038705272277196251
leaf_weight=7.9999999999999991 9.0000000000000018 7.0000000000000027 6.9999999999999991 7.9999999999999991 5 5.9999999999999991 5.0000000000000018 8.9999999999999982
leaf_count=8 9 7 7 8 5 6 5 9
internal_value=0 0.014048 -0.00197732 -0.0284893 -0.0131966 -0.00182911 0.033559 -0.0254212
internal_weight=0 31 22 15 33 25 10 15
internal_count=64 31 22 15 33 25 10 15
is_linear=0
shrinkage=0.02


Tree=99
num_leaves=8
num_cat=0
split_feature=9 9 5 4 3 8 7
split_gain=28.8108 27.8333 55.1243 57.2745 50.5567 40.9156 10.5701
threshold=-0.80391013822044755 -0.24119475197879089 -0.10592798465906869 0.68723071909978328 -0.74887596875296369 -0.31048793977212141 0.6590617796452769
decision_type=2 2 2 2 2 2 2
left_child=6 2 3 -2 -3 -6 -1
right_child=1 4 -4 -5 5 -7 -8
leaf_value=-0.043797825915472856 0.037670423473630622 0.037710047066211699 0.065530706718564036 -0.0465384312470754 -0.057186932507902355 -0.0011792056163152057 -0.0057240180969238275
leaf_weight=6.9999999999999982 7.0000000000000018 7.9999999999999991 7.9999999999999991 6 8.0000000000000018 15.000000000000002 5
leaf_count=7 7 8 8 6 8 15 5
internal_value=0 0.00644625 0.0242242 -0.0011952 -0.00559688 -0.0206602 -0.0279337
internal_weight=0 52 21 13 31 23 12
internal_count=64 52 21 13 31 23 12
is_linear=0
shrinkage=0.02


Tree=100
num_leaves=8
num_cat=0
split_feature=8 6 3 6 0 5 5
split_gain=28.3306 37.2703 56.8091 71.7715 17.4658 12.0831 12.7102
threshold=0.45475867505448714 -1.2214643290933369 -0.23930235920470569 0.59251026086363234 0.23087372002586223 -0.051714392579916682 -0.7390188263686176
decision_type=2 2 2 2 2 2 2
left_child=1 -1 4 -4 -3 6 -2
right_child=5 2 3 -5 -6 -7 -8
leaf_value=0.047326107621192937 -0.014953012367089584 -0.03417010954448154 0.071236347928643223 -0.013481730371713638 0.0015409472253587512 0.0007050406932830811 -0.05812899637222288
leaf_weight=7.9999999999999991 6.0000000000000009 14.000000000000002 7.9999999999999991 7.9999999999999991 8.9999999999999982 5.9999999999999991 5.0000000000000009
leaf_count=8 6 14 8 8 9 6 5
internal_value=0 0.00800283 -6.34889e-05 0.0288773 -0.0201962 -0.0221255 -0.0345785
internal_weight=0 47 39 16 23 17 11
internal_count=64 47 39 16 23 17 11
is_linear=0
shrinkage=0.02


Tree=101
num_leaves=5
num_cat=0
split_feature=9 0 9 3
split_gain=28.2991 42.005 36.0032 24.1708
threshold=1.4541822157721127 0.75141242693555033 0.33991967994900368 -0.23930235920470569
decision_type=2 2 2 2
left_child=1 2 3 -1
right_child=-2 -3 -4 -5
leaf_value=-0.018397125669501049 0.045684326648712158 -0.049866173267364505 0.053342661380767827 0.010346601510047911
leaf_weight=21.999999999999996 4.9999999999999991 6.9999999999999991 4.9999999999999991 25.000000000000004
leaf_count=22 5 7 5 25
internal_value=0 -0.00387155 0.00232003 -0.00310791
internal_weight=0 59 52 47
internal_count=64 59 52 47
is_linear=0
shrinkage=0.02


Tree=102
num_leaves=9
num_cat=0
split_feature=9 9 5 4 2 2 7 7
split_gain=28.1172 27.294 52.6088 53.8272 48.346 52.0906 27.9784 10.283
threshold=-0.80391013822044755 -0.24119475197879089 -0.10592798465906869 0.68723071909978328 0.25312232473142826 -0.072143962297986391 -0.46811173309059967 0.6590617796452769
decision_type=2 2 2 2 2 2 2 2
left_child=7 2 3 -2 5 -3 -6 -1
right_child=1 4 -4 -5 6 -7 -8 -9
leaf_value=-0.043242570332118452 0.036818236964089514 -0.0029503573051520749 0.0643261145055294 -0.044817047516504921 0.063061470985412593 -0.073384766976038573 -0.00099712173144022643 -0.0056894614696502682
leaf_weight=6.9999999999999982 7.0000000000000018 14.000000000000002 7.9999999999999991 6 5 6.0000000000000027 5.9999999999999982 5
leaf_count=7 7 14 8 6 5 6 6 5
internal_value=0 0.00636818 0.0239731 -0.000859587 -0.00555771 -0.0240807 0.0281204 -0.0275954
internal_weight=0 52 21 13 31 20 11 12
internal_count=64 52 21 13 31 20 11 12
is_linear=0
shrinkage=0.02


Tree=103
num_leaves=8
num_cat=0
split_feature=8 6 3 6 9 1 3
split_gain=27.1163 34.2516 53.5039 68.7988 27.482 11.1459 6.00097
threshold=0.45475867505448714 -1.2214643290933369 -0.23930235920470569 0.59251026086363234 0.5392542393388744 0.29434967917898186 0.76927633860010214
decision_type=2 2 2 2 2 2 2
left_child=1 -1 4 -4 -3 -2 -7
right_child=5 2 3 -5 -6 6 -8
leaf_value=0.045526626110076907 -0.0022901496716908037 -0.032429579461322106 0.069655502736568453 -0.013289543390274048 0.017357662916183472 -0.050688462853431711 -0.019702091217041012
leaf_weight=7.9999999999999991 7.0000000000000027 17.000000000000004 7.9999999999999991 7.9999999999999991 5.9999999999999991 4.9999999999999982 5
leaf_count=8 7 17 8 8 6 5 5
internal_value=0 0.00782944 9.66872e-05 0.028183 -0.0194416 -0.0216461 -0.0351953
internal_weight=0 47 39 16 23 17 10
internal_count=64 47 39 16 23 17 10
is_linear=0
shrinkage=0.02


Tree=104
num_leaves=9
num_cat=0
split_feature=9 9 5 4 2 2 7 7
split_gain=27.0277 26.4798 50.4762 50.8768 45.5178 49.8348 26.5328 9.9205
threshold=-0.80391013822044755 -0.24119475197879089 -0.10592798465906869 0.68723071909978328 0.25312232473142826 -0.072143962297986391 -0.46811173309059967 0.6590617796452769
decision_type=2 2 2 2 2 2 2 2
left_child=7 2 3 -2 5 -3 -6 -1
right_child=1 4 -4 -5 6 -7 -8 -9
leaf_value=-0.042424359662192213 0.035890445368630529 -0.0028083668862070349 0.063110560476779945 -0.043475981454054506 0.061201531887054433 -0.071700857877731283 -0.0011802101135253908 -0.0055390614271163931
leaf_weight=6.9999999999999982 7.0000000000000018 14.000000000000002 7.9999999999999991 6 5 6.0000000000000027 5.9999999999999982 5
leaf_count=7 7 14 8 6 5 6 6 5
internal_value=0 0.00624357 0.0235839 -0.000740213 -0.00550309 -0.0234761 0.0271751 -0.0270555
internal_weight=0 52 21 13 31 20 11 12
internal_count=64 52 21 13 31 20 11 12
is_linear=0
shrinkage=0.02


Tree=105
num_leaves=5
num_cat=0
split_feature=9 0 9 2
split_gain=26.1424 41.0047 35.1698 23.2564
threshold=1.4541822157721127 0.75141242693555033 0.33991967994900368 -0.51386257771026178
decision_type=2 2 2 2
left_child=1 2 3 -1
right_child=-2 -3 -4 -5
leaf_value=-0.020047114962025697 0.043909034729003905 -0.049164775780269079 0.052824911117553719 0.0086206739502293715
leaf_weight=18.999999999999996 4.9999999999999991 6.9999999999999991 4.9999999999999991 28.000000000000004
leaf_count=19 5 7 5 28
internal_value=0 -0.0037211 0.00239631 -0.00296843
internal_weight=0 59 52 47
internal_count=64 59 52 47
is_linear=0
shrinkage=0.02


Tree=106
num_leaves=8
num_cat=0
split_feature=9 9 5 4 3 8 7
split_gain=25.4554 25.6657 48.3578 48.7078 42.3369 37.8157 9.55357
threshold=-0.80391013822044755 -0.24119475197879089 -0.10592798465906869 0.68723071909978328 -0.74887596875296369 -0.31048793977212141 0.6590617796452769
decision_type=2 2 2 2 2 2 2
left_child=6 2 3 -2 -3 -6 -1
right_child=1 4 -4 -5 5 -7 -8
leaf_value=-0.041338744844709126 0.035164038028035832 0.034124910831451416 0.061819275617599485 -0.042492198298374806 -0.05440571568906305 -0.00056143947442372627 -0.0051420090198516831
leaf_weight=6.9999999999999982 7.0000000000000018 7.9999999999999991 7.9999999999999991 6 8.0000000000000018 15.000000000000002 5
leaf_count=7 7 8 8 6 8 15 5
internal_value=0 0.00605925 0.0231309 -0.000677302 -0.00550542 -0.0192899 -0.0262568
internal_weight=0 52 21 13 31 23 12
internal_count=64 52 21 13 31 23 12
is_linear=0
shrinkage=0.02


Tree=107
num_leaves=5
num_cat=0
split_feature=9 0 9 3
split_gain=25.2995 39.4149 33.6184 23.4083
threshold=1.4541822157721127 0.75141242693555033 0.33991967994900368 -0.23930235920470569
decision_type=2 2 2 2
left_child=1 2 3 -1
right_child=-2 -3 -4 -5
leaf_value=-0.017954188178886072 0.04319534778594971 -0.048214617456708637 0.051640894412994388 0.010332529640197752
leaf_weight=21.999999999999996 4.9999999999999991 6.9999999999999991 4.9999999999999991 25.000000000000004
leaf_count=22 5 7 5 25
internal_value=0 -0.00366062 0.00233703 -0.00290806
internal_weight=0 59 52 47
internal_count=64 59 52 47
is_linear=0
shrinkage=0.02


Tree=108
num_leaves=7
num_cat=0
split_feature=8 5 5 2 1 2
split_gain=25.408 31.9762 59.9794 29.9687 10.8215 9.22446
threshold=0.45475867505448714 -0.92454068959715818 -0.43976125501607649 0.25312232473142826 0.29434967917898186 -0.92724546156861476
decision_type=2 2 2 2 2 2
left_child=1 -1 -3 -4 -2 -6
right_child=4 2 3 -5 5 -7
leaf_value=-0.040232856273651127 -0.0018810361623764031 0.078286981582641607 -0.0064695250104974825 0.034061071276664738 -0.015094882011413568 -0.053512497544288655
leaf_weight=4.9999999999999991 7.0000000000000027 4.9999999999999991 27 9.9999999999999982 5.0000000000000009 4.9999999999999973
leaf_count=5 7 5 27 10 5 5
internal_value=0 0.00757881 0.0132707 0.00448469 -0.0209532 -0.0343037
internal_weight=0 47 42 37 17 10
internal_count=64 47 42 37 17 10
is_linear=0
shrinkage=0.02


Tree=109
num_leaves=7
num_cat=0
split_feature=8 5 5 2 1 2
split_gain=24.4019 30.7099 57.6042 28.7819 10.3929 8.85917
threshold=0.45475867505448714 -0.92454068959715818 -0.43976125501607649 0.25312232473142826 0.29434967917898186 -0.92724546156861476
decision_type=2 2 2 2 2 2
left_child=1 -1 -3 -4 -2 -6
right_child=4 2 3 -5 5 -7
leaf_value=-0.039428199291229253 -0.0018434149878365643 0.076721242427825923 -0.0063401354683770075 0.033379850149154663 -0.014792983770370478 -0.052442246317863483
leaf_weight=4.9999999999999991 7.0000000000000027 4.9999999999999991 27 9.9999999999999982 5.0000000000000009 4.9999999999999973
leaf_count=5 7 5 27 10 5 5
internal_value=0 0.00742724 0.0130053 0.004395 -0.0205341 -0.0336176
internal_weight=0 47 42 37 17 10
internal_count=64 47 42 37 17 10
is_linear=0
shrinkage=0.02


Tree=110
num_leaves=9
num_cat=0
split_feature=5 5 3 1 7 8 6 5
split_gain=24.0034 48.3175 33.4973 54.3194 28.276 45.0524 54.6873 11.2151
threshold=-0.10592798465906869 1.0000000180025095e-35 -0.17362627453177129 -0.34375944214295301 0.065712733551583857 0.45475867505448714 -1.0000000180025095e-35 -0.7390188263686176
decision_type=2 2 2 2 2 2 2 2
left_child=4 -2 3 -3 -1 6 -6 -7
right_child=1 2 -4 -5 5 7 -8 -9
leaf_value=-0.044598429873585699 0.063605042497316952 -0.01623335886001586 -0.036718816416604197 0.053686208426952334 0.061928291491099768 -0.013252761811017989 -0.017128479140145429 -0.053809859395027172
leaf_weight=7.9999999999999991 6.0000000000000027 10.000000000000005 6.9999999999999956 8.0000000000000018 6.9999999999999991 6 7.0000000000000027 4.9999999999999982
leaf_count=8 6 10 7 8 7 6 7 5
internal_value=0 0.0126372 0.000404975 0.014842 -0.0118714 -0.00139869 0.0223999 -0.0316878
internal_weight=0 31 25 18 33 25 14 11
internal_count=64 31 25 18 33 25 14 11
is_linear=0
shrinkage=0.02


Tree=111
num_leaves=5
num_cat=0
split_feature=9 9 6 7
split_gain=23.8666 23.032 26.7019 26.4617
threshold=1.4541822157721127 0.61835497863812094 -1.2214643290933369 -0.78376024054117532
decision_type=2 2 2 2
left_child=1 2 -1 -4
right_child=-2 -3 3 -5
leaf_value=0.04463343214988709 0.041954275608062745 -0.040694629351298021 0.035355936487515768 -0.0095453907336507521
leaf_weight=4.9999999999999991 4.9999999999999991 5.9999999999999991 5.9999999999999991 42
leaf_count=5 5 6 6 42
internal_value=0 -0.00355545 0.000648988 -0.00393272
internal_weight=0 59 53 48
internal_count=64 59 53 48
is_linear=0
shrinkage=0.02


Tree=112
num_leaves=5
num_cat=0
split_feature=9 0 9 3
split_gain=22.9215 37.6302 31.2968 23.9725
threshold=1.4541822157721127 0.75141242693555033 0.33991967994900368 -0.23930235920470569
decision_type=2 2 2 2
left_child=1 2 3 -1
right_child=-2 -3 -4 -5
leaf_value=-0.017911157987334513 0.041115190982818607 -0.047017949308667872 0.049946932792663573 0.010714418375492094
leaf_weight=21.999999999999996 4.9999999999999991 6.9999999999999991 4.9999999999999991 25.000000000000004
leaf_count=22 5 7 5 25
internal_value=0 -0.00348434 0.00237595 -0.00268479
internal_weight=0 59 52 47
internal_count=64 59 52 47
is_linear=0
shrinkage=0.02


Tree=113
num_leaves=9
num_cat=0
split_feature=5 5 3 1 7 8 6 5
split_gain=22.5439 46.7474 32.0244 52.3731 26.6745 42.6738 52.3141 10.5689
threshold=-0.10592798465906869 1.0000000180025095e-35 -0.17362627453177129 -0.34375944214295301 0.065712733551583857 0.45475867505448714 -1.0000000180025095e-35 -0.7390188263686176
decision_type=2 2 2 2 2 2 2 2
left_child=4 -2 3 -3 -1 6 -6 -7
right_child=1 2 -4 -5 5 7 -8 -9
leaf_value=-0.043291574791073803 0.062379865248997968 -0.016182347774505605 -0.036083253111158113 0.052473163008689858 0.060490021705627443 -0.01291566878557205 -0.016832385148320871 -0.052287013530731209
leaf_weight=7.9999999999999991 6.0000000000000027 10.000000000000005 6.9999999999999956 8.0000000000000018 6.9999999999999991 6 7.0000000000000027 4.9999999999999982
leaf_count=8 6 10 7 8 7 6 7 5
internal_value=0 0.012247 0.000215162 0.0143312 -0.0115048 -0.00133302 0.0218288 -0.0308117
internal_weight=0 31 25 18 33 25 14 11
internal_count=64 31 25 18 33 25 14 11
is_linear=0
shrinkage=0.02


Tree=114
num_leaves=5
num_cat=0
split_feature=9 0 9 3
split_gain=22.0674 35.8476 29.4643 23.652
threshold=1.4541822157721127 0.75141242693555033 0.33991967994900368 -0.23930235920470569
decision_type=2 2 2 2
left_child=1 2 3 -1
right_child=-2 -3 -4 -5
leaf_value=-0.017733594748106873 0.04034191226959228 -0.04590878861291068 0.048458286285400387 0.010699984884262085
leaf_weight=21.999999999999996 4.9999999999999991 6.9999999999999991 4.9999999999999991 25.000000000000004
leaf_count=22 5 7 5 25
internal_value=0 -0.00341881 0.002301 -0.00260935
internal_weight=0 59 52 47
internal_count=64 59 52 47
is_linear=0
shrinkage=0.02


Tree=115
num_leaves=8
num_cat=0
split_feature=9 9 5 4 3 8 7
split_gain=22.2094 24.8659 45.2682 43.4076 37.633 36.4111 8.94318
threshold=-0.80391013822044755 -0.24119475197879089 -0.10592798465906869 0.68723071909978328 -0.74887596875296369 -0.31048793977212141 0.6590617796452769
decision_type=2 2 2 2 2 2 2
left_child=6 2 3 -2 -3 -6 -1
right_child=1 4 -4 -5 5 -7 -8
leaf_value=-0.039117804936000283 0.033263348851885102 0.031640604138374329 0.059895368367433546 -0.040046088993549341 -0.053176930397748921 -0.00034214341640472406 -0.0040964847803115836
leaf_weight=6.9999999999999982 7.0000000000000018 7.9999999999999991 7.9999999999999991 6 8.0000000000000018 15.000000000000002 5
leaf_count=7 7 8 8 6 8 15 5
internal_value=0 0.00565975 0.0224633 -0.000571776 -0.00572331 -0.0187195 -0.0245256
internal_weight=0 52 21 13 31 23 12
internal_count=64 52 21 13 31 23 12
is_linear=0
shrinkage=0.02


Tree=116
num_leaves=6
num_cat=0
split_feature=9 0 7 9 7
split_gain=21.3801 34.445 28.2289 37.7492 18.32
threshold=1.4541822157721127 0.75141242693555033 -0.2948712428891781 -0.042687166087054494 0.065712733551583857
decision_type=2 2 2 2 2
left_child=1 2 3 -1 -4
right_child=-2 -3 4 -5 -6
leaf_value=0.064512707789738957 0.039708734035491945 -0.045015572820390974 -0.03060004406505161 -0.0098953080177307147 0.0016989383473992349
leaf_weight=6 4.9999999999999991 6.9999999999999991 8.9999999999999982 4.9999999999999982 32
leaf_count=6 5 7 9 5 32
internal_value=0 -0.00336515 0.00224164 0.0306909 -0.00539108
internal_weight=0 59 52 11 41
internal_count=64 59 52 11 41
is_linear=0
shrinkage=0.02


Tree=117
num_leaves=9
num_cat=0
split_feature=9 9 5 4 2 2 7 7
split_gain=21.4807 23.7409 42.9228 41.546 39.4371 46.1543 21.7914 8.63272
threshold=-0.80391013822044755 -0.24119475197879089 -0.10592798465906869 0.68723071909978328 0.25312232473142826 -0.072143962297986391 -0.46811173309059967 0.6590617796452769
decision_type=2 2 2 2 2 2 2 2
left_child=7 2 3 -2 5 -3 -6 -1
right_child=1 4 -4 -5 6 -7 -8 -9
leaf_value=-0.038456612910543177 0.032656385387693117 -0.0023960302131516586 0.058434618860483171 -0.039063820441563916 0.055697450637817378 -0.068695729970931971 -0.00083636919657389345 -0.0040485339760780326
leaf_weight=6.9999999999999982 7.0000000000000018 14.000000000000002 7.9999999999999991 6 5 6.0000000000000027 5.9999999999999982 5
leaf_count=7 7 14 8 6 5 6 6 5
internal_value=0 0.00556613 0.0219852 -0.000445248 -0.00555644 -0.0222859 0.0248608 -0.0241199
internal_weight=0 52 21 13 31 20 11 12
internal_count=64 52 21 13 31 20 11 12
is_linear=0
shrinkage=0.02


