tree
version=v3
num_class=1
num_tree_per_iteration=1
label_index=0
max_feature_idx=111
objective=regression
feature_names=Column_0 Column_1 Column_2 Column_3 Column_4 Column_5 Column_6 Column_7 Column_8 Column_9 Column_10 Column_11 Column_12 Column_13 Column_14 Column_15 Column_16 Column_17 Column_18 Column_19 Column_20 Column_21 Column_22 Column_23 Column_24 Column_25 Column_26 Column_27 Column_28 Column_29 Column_30 Column_31 Column_32 Column_33 Column_34 Column_35 Column_36 Column_37 Column_38 Column_39 Column_40 Column_41 Column_42 Column_43 Column_44 Column_45 Column_46 Column_47 Column_48 Column_49 Column_50 Column_51 Column_52 Column_53 Column_54 Column_55 Column_56 Column_57 Column_58 Column_59 Column_60 Column_61 Column_62 Column_63 Column_64 Column_65 Column_66 Column_67 Column_68 Column_69 Column_70 Column_71 Column_72 Column_73 Column_74 Column_75 Column_76 Column_77 Column_78 Column_79 Column_80 Column_81 Column_82 Column_83 Column_84 Column_85 Column_86 Column_87 Column_88 Column_89 Column_90 Column_91 Column_92 Column_93 Column_94 Column_95 Column_96 Column_97 Column_98 Column_99 Column_100 Column_101 Column_102 Column_103 Column_104 Column_105 Column_106 Column_107 Column_108 Column_109 Column_110 Column_111
feature_infos=[-4.0570826029659557:1.3741196595106338] [-3.5506699574323224:0.3305614974496392] [-2.0896902741546035:0.76202402149251902] [-0.51246527550268606:4.3380355072950563] [-1.4639787005605729:3.624717317430723] [-1.9049583289550365:2.012136386546596] [-1.4610728224901934:3.0731125374770643] [-1.5279293421430442:3.4604498181257912] [-2.3234467958565395:2.1157717089741057] [-1.5711377689319159:2.4227615523487027] [-1.5102659265137535:2.0215216213677811] [-1.6297855356438129:2.3522339252918827] [-2.5107844849080405:2.20124902389884] [-0.64012829793516701:3.5638254977119947] [-1.6082540455935592:1.9841256843529425] [-2.3384268801366228:2.4070261791548666] [-0.80860021188030717:4.0362934740443261] [-1.307458992838789:3.507413255259999] [-0.6409791613641348:3.5614476764583296] [-7.216860625471992:1.2117938888458115] [-2.4250773065874895:4.8425998552105316] [-0.38301159415092789:6.5098007651613443] [-1.9673432247612175:3.4543903310389772] [-1.7965341005572224:4.0613033701800676] [-0.32832318691515977:7.2978358472427294] [-0.58025386006189228:7.3901241890412548] [-0.73671339604496311:7.4212653368856998] [-5.1506582917554873:2.7940165551859271] [-2.6474135501380749:2.9307024870123821] [-5.5926855980347199:0.74301915121167494] [-0.52985468520971113:6.9233155440231835] [-1.5860384369445895:4.0345315559795534] [-1.6888227050436164:5.7611904445112847] [-5.5345735456936849:3.2302221337534358] [-0.42711878155919686:5.6819361824738746] [-2.8295595937769682:2.2539799320798983] [-0.20925996799871976:7.9699912658852403] [-0.34179147537384513:6.3223550156930584] [-0.12556551760264581:7.9999884160718908] [-7.9998666828455773:0.17013416848652968] [-0.18954968619741905:7.9811066032507183] [-0.42623303610649721:7.3900960152461561] [-2.225482859139877:3.2498058746349345] [-1.209847650108085:4.387594539732472] [-1.4725072302629216:3.9786913118026503] [-0.28096269143535918:7.8427490525848542] [-4.0340515653552824:1.8321640416751266] [-4.2523993073332678:1.7346216791079379] [-3.5634137260558667:1.6414192776160599] [-2.3019173349252791:2.5877877450168456] [-3.878332659310205:1.7302148274935811] [-2.3981845967356499:2.4966886713375542] [-3.0113642429619385:1.0385549447689852] [-0.70507214075031366:5.1765244337736211] [-2.264901698798496:2.573641459123936] [-1.9984304950366474:3.5297723888416055] [-2.2859684096800046:2.7943794673527451] [-2.431178354338579:2.2794170987768658] [-0.70507214075031366:5.1765244337736229] [-2.1776990830211349:3.496484881327071] [-0.20517196643134711:7.9703080134746038] [-3.7363744164125809:3.0046231126728009] [-0.49227764563996401:4.5766347257737419] [-1.5941669530129432:4.9698084096488069] [-2.3197239371437308:3.6536673973486558] [-0.55765422946330601:3.7846055325330443] [-0.20653708330048579:7.9701711943846689] [-0.34298775761315942:6.3406259375750897] [-2.2126618410976442:2.5459961458475888] [-0.31560253095887458:6.7402149065270356] [-0.94487514953823837:4.0805071580276104] [-1.2531606933434984:3.6525415203120573] [-1.3361683347912068:4.4582736732838422] [-0.28346262838992237:7.5789889353734425] [-1.0788592337480869:3.585235279562963] [-0.53922816801083062:4.056388081231427] [-2.8255560807399256:2.6379206373116251] [-0.19191900679473553:7.9825682033172747] [-0.35109170732823097:6.182704324846604] [-1.5035410741371857:3.1373145078997813] [-0.3210891096520273:6.448086434983086] [-0.90105411297061311:4.2730745590146881] [-1.2392607458722373:3.8057844941476735] [-2.3705849744526151:4.6247059552774648] [-0.50156794569339613:4.5448630958540086] [-2.2085858716654156:3.2744187007997794] [-2.342766932897324:2.8079023872547588] [-1.377249703045706:3.1733367852746319] [-2.5673200807365357:2.7538514648136454] [-0.35114199312871258:6.2743462183029832] [-1.2526883931633233:3.7454453630899942] [-0.62412514225426075:3.9251629138086392] [-3.2629841955881576:2.8016476109165609] [-0.27215113146446379:7.9280415156620894] [-0.41067014440033656:5.4601810876844494] [-0.43765605929618057:5.3109364211208456] [-0.22154850350073155:7.5628694425846374] [-0.53235904899578179:5.0753786483423058] [-0.9570668365299333:4.1992873408361362] [-0.56943018231681419:3.5778291156788136] [-1.94013644757394:3.560228130355116] [-2.5364375165140878:2.9263399567344299] [-0.40924057313706996:5.4134113908231312] [-0.99370870370326836:4.6623915368656492] [-3.3819971942513583:3.5986282115249684] [-1.2102292459180397:3.7094392821470672] [-0.43691137055267382:5.3126312885380891] [-0.73954724180243359:5.5509074238650484] [-0.25397694511513158:7.7293454691250725] [-0.33858800691882979:5.4599763235293457] [-1.2954261284645432:4.4173988314551522] [-0.49943830342414558:5.1062076157683718]
tree_sizes=585 615 801 817 825 801

Tree=0
num_leaves=5
num_cat=0
split_feature=25 30 29 23
split_gain=671.459 385.804 347.952 8.58817
threshold=-0.38799415536455639 0.21627187828880273 0.11707439915473432 0.68667960986402032
decision_type=2 2 2 2
left_child=-1 2 -2 -3
right_child=1 3 -4 -5
leaf_value=9.9476103162765508 9.7630042377385227 9.5426103019714361 9.636325748606426 9.5047769665718072
leaf_weight=2.9999999999999991 10.999999999999998 5.9999999999999982 41 4
leaf_count=3 11 6 41 4
internal_value=9.65538 9.64124 9.66312 9.52748
internal_weight=0 62 52 10
internal_count=65 62 52 10
is_linear=0
shrinkage=1


Tree=1
num_leaves=5
num_cat=0
split_feature=25 30 29 10
split_gain=644.869 370.526 334.173 7.01295
threshold=-0.38799415536455639 0.21627187828880273 0.11707439915473432 1.4198975826874747
decision_type=2 2 2 2
left_child=-1 2 -2 -3
right_child=1 3 -4 -5
leaf_value=0.28638112703959151 0.10546718564900485 -0.13372387290000917 -0.018677734369184913 -0.09185220241546628
leaf_weight=2.9999999999999991 10.999999999999998 7.9999999999999982 41 1.9999999999999998
leaf_count=3 11 8 41 2
internal_value=0 -0.0138572 0.00758369 -0.12535
internal_weight=0 62 52 10
internal_count=65 62 52 10
is_linear=0
shrinkage=0.02


Tree=2
num_leaves=7
num_cat=0
split_feature=37 30 70 21 2 23
split_gain=631.852 319.088 453.169 196.301 28.09 8.12435
threshold=-0.32036338777717549 0.21627187828880273 -0.17633783281503682 -0.37525546502741741 0.51165029613064383 0.68667960986402032
decision_type=2 2 2 2 2 2
left_child=3 2 -2 -1 -5 -3
right_child=1 5 -4 4 -6 -7
leaf_value=0.35732017517089831 0.049530106683572141 -0.10812353769938153 -0.075300330754957678 0.16764703750610352 0.061647044420242283 -0.14492105960845944
leaf_weight=1.9999999999999998 29.999999999999996 5.9999999999999982 19.000000000000004 1.9999999999999989 1.9999999999999998 4
leaf_count=2 30 6 19 2 2 4
internal_value=0 -0.0198852 0.00112647 0.195538 0.114647 -0.122843
internal_weight=0 59 49 6 4 10
internal_count=65 59 49 6 4 10
is_linear=0
shrinkage=0.02


Tree=3
num_leaves=7
num_cat=0
split_feature=37 30 70 21 2 10
split_gain=606.831 306.452 435.223 188.527 26.9776 6.61498
threshold=-0.32036338777717549 0.21627187828880273 -0.17633783281503682 -0.37525546502741741 0.51165029613064383 1.4198975826874747
decision_type=2 2 2 2 2 2
left_child=3 2 -2 -1 -5 -3
right_child=1 5 -4 4 -6 -7
leaf_value=0.35017376899719227 0.048539505541324621 -0.12851894736289979 -0.07379432428824273 0.16429409027099609 0.0604141044616699 -0.087852692604064905
leaf_weight=1.9999999999999998 29.999999999999996 7.9999999999999982 19.000000000000004 1.9999999999999989 1.9999999999999998 1.9999999999999998
leaf_count=2 30 8 19 2 2 2
internal_value=0 -0.0194875 0.00110394 0.191627 0.112354 -0.120386
internal_weight=0 59 49 6 4 10
internal_count=65 59 49 6 4 10
is_linear=0
shrinkage=0.02


Tree=4
num_leaves=7
num_cat=0
split_feature=37 93 81 21 5 4
split_gain=582.8 297.771 503.945 181.062 37.0399 25.9093
threshold=-0.32036338777717549 -0.065342037146226203 -0.23527413411684026 -0.37525546502741741 0.54378368165240387 -1.0000000180025095e-35
decision_type=2 2 2 2 2 2
left_child=3 2 -2 -1 -3 -5
right_child=1 4 -4 5 -6 -7
leaf_value=0.34317030906677232 0.071421453434488053 -0.14329709815979005 -0.062469849444248451 0.059205820262432075 -0.075404437647925482 0.16100821971893312
leaf_weight=1.9999999999999998 22.999999999999996 4.9999999999999991 22.000000000000004 1.9999999999999998 8.9999999999999982 1.9999999999999989
leaf_count=2 23 5 22 2 9 2
internal_value=0 -0.0190978 0.00596348 0.187795 -0.0996518 0.110107
internal_weight=0 59 45 6 14 4
internal_count=65 59 45 6 14 4
is_linear=0
shrinkage=0.02


Tree=5
num_leaves=7
num_cat=0
split_feature=37 30 70 21 2 23
split_gain=559.721 288.711 405.997 173.892 24.8833 6.8519
threshold=-0.32036338777717549 0.21627187828880273 -0.17633783281503682 -0.37525546502741741 0.51165029613064383 0.68667960986402032
decision_type=2 2 2 2 2 2
left_child=3 2 -2 -1 -5 -3
right_child=1 5 -4 4 -6 -7
leaf_value=0.33630688667297348 0.047085895737012232 -0.10313254833221437 -0.071069040408750103 0.15778805255889894 0.058021706938743568 -0.13692578077316281
leaf_weight=1.9999999999999998 29.999999999999996 5.9999999999999982 19.000000000000004 1.9999999999999989 1.9999999999999998 4
leaf_count=2 30 6 19 2 2 4
internal_value=0 -0.0187158 0.00127072 0.184039 0.107905 -0.11665
internal_weight=0 59 49 6 4 10
internal_count=65 59 49 6 4 10
is_linear=0
shrinkage=0.02


end of trees

feature_importances:
Column_30=5
Column_21=4
Column_37=4
Column_2=3
Column_23=3
Column_70=3
Column_10=2
Column_25=2
Column_29=2
Column_4=1
Column_5=1
Column_81=1
Column_93=1

parameters:
[boosting: gbdt]
[objective: regression]
[metric: l2]
[tree_learner: serial]
[device_type: cpu]
[data: ]
[valid: ]
[num_iterations: 500]
[learning_rate: 0.02]
[num_leaves: 8]
[num_threads: -1]
[deterministic: 0]
[force_col_wise: 0]
[force_row_wise: 0]
[histogram_pool_size: -1]
[max_depth: 3]
[min_data_in_leaf: 2]
[min_sum_hessian_in_leaf: 0.001]
[bagging_fraction: 1]
[pos_bagging_fraction: 1]
[neg_bagging_fraction: 1]
[bagging_freq: 0]
[bagging_seed: 3]
[feature_fraction: 0.9]
[feature_fraction_bynode: 1]
[feature_fraction_seed: 2]
[extra_trees: 0]
[extra_seed: 6]
[early_stopping_round: 100]
[first_metric_only: 0]
[max_delta_step: 0]
[lambda_l1: 0]
[lambda_l2: 0]
[linear_lambda: 0]
[min_gain_to_split: 0]
[drop_rate: 0.1]
[max_drop: 50]
[skip_drop: 0.5]
[xgboost_dart_mode: 0]
[uniform_drop: 0]
[drop_seed: 4]
[top_rate: 0.2]
[other_rate: 0.1]
[min_data_per_group: 100]
[max_cat_threshold: 32]
[cat_l2: 10]
[cat_smooth: 10]
[max_cat_to_onehot: 4]
[top_k: 20]
[monotone_constraints: ]
[monotone_constraints_method: basic]
[monotone_penalty: 0]
[feature_contri: ]
[forcedsplits_filename: ]
[refit_decay_rate: 0.9]
[cegb_tradeoff: 1]
[cegb_penalty_split: 0]
[cegb_penalty_feature_lazy: ]
[cegb_penalty_feature_coupled: ]
[path_smooth: 0]
[interaction_constraints: ]
[verbosity: -1]
[saved_feature_importance_type: 0]
[linear_tree: 0]
[max_bin: 255]
[max_bin_by_feature: ]
[min_data_in_bin: 3]
[bin_construct_sample_cnt: 200000]
[data_random_seed: 1]
[is_enable_sparse: 1]
[enable_bundle: 1]
[use_missing: 1]
[zero_as_missing: 0]
[feature_pre_filter: 1]
[pre_partition: 0]
[two_round: 0]
[header: 0]
[label_column: ]
[weight_column: ]
[group_column: ]
[ignore_column: ]
[categorical_feature: ]
[forcedbins_filename: ]
[precise_float_parser: 0]
[objective_seed: 5]
[num_class: 1]
[is_unbalance: 0]
[scale_pos_weight: 1]
[sigmoid: 1]
[boost_from_average: 1]
[reg_sqrt: 0]
[alpha: 0.9]
[fair_c: 1]
[poisson_max_delta_step: 0.7]
[tweedie_variance_power: 1.5]
[lambdarank_truncation_level: 30]
[lambdarank_norm: 1]
[label_gain: ]
[eval_at: ]
[multi_error_top_k: 1]
[auc_mu_weights: ]
[num_machines: 1]
[local_listen_port: 12400]
[time_out: 120]
[machine_list_filename: ]
[machines: ]
[gpu_platform_id: -1]
[gpu_device_id: -1]
[gpu_use_dp: 0]
[num_gpu: 1]

end of parameters

pandas_categorical:null
