tree
version=v3
num_class=1
num_tree_per_iteration=1
label_index=0
max_feature_idx=111
objective=regression
feature_names=Column_0 Column_1 Column_2 Column_3 Column_4 Column_5 Column_6 Column_7 Column_8 Column_9 Column_10 Column_11 Column_12 Column_13 Column_14 Column_15 Column_16 Column_17 Column_18 Column_19 Column_20 Column_21 Column_22 Column_23 Column_24 Column_25 Column_26 Column_27 Column_28 Column_29 Column_30 Column_31 Column_32 Column_33 Column_34 Column_35 Column_36 Column_37 Column_38 Column_39 Column_40 Column_41 Column_42 Column_43 Column_44 Column_45 Column_46 Column_47 Column_48 Column_49 Column_50 Column_51 Column_52 Column_53 Column_54 Column_55 Column_56 Column_57 Column_58 Column_59 Column_60 Column_61 Column_62 Column_63 Column_64 Column_65 Column_66 Column_67 Column_68 Column_69 Column_70 Column_71 Column_72 Column_73 Column_74 Column_75 Column_76 Column_77 Column_78 Column_79 Column_80 Column_81 Column_82 Column_83 Column_84 Column_85 Column_86 Column_87 Column_88 Column_89 Column_90 Column_91 Column_92 Column_93 Column_94 Column_95 Column_96 Column_97 Column_98 Column_99 Column_100 Column_101 Column_102 Column_103 Column_104 Column_105 Column_106 Column_107 Column_108 Column_109 Column_110 Column_111
feature_infos=[-3.6146791681451833:1.2850481878916218] [-3.2018908267936328:0.35795632259036653] [-2.0047757716075929:0.80847455941542468] [-0.54782403802345891:4.3504525426917873] [-1.4133413985143943:3.6903914294542521] [-1.8873130459117529:2.015936783260698] [-1.4269466889652624:3.2994124576968051] [-1.4571604995155414:3.3818971411197682] [-2.1214809438551558:2.2608035949881859] [-1.7080543090509972:2.4448887980530802] [-1.5380270723455134:2.1534201377559041] [-1.6063703648409307:2.6698967082339413] [-1.9588166119889132:3.7971973596128028] [-0.67803072815517607:3.5982247126504734] [-1.6320822216133495:2.1435727353617215] [-2.4449387682348251:2.3366842161758634] [-0.84270853106918209:4.0609244568462408] [-1.3179531760114254:3.1591689984831928] [-0.67886009942660841:3.5958444731665145] [-7.1427180734434117:1.3142996180918751] [-2.232329738251797:4.3109402440706557] [-0.41408092209107106:6.4065896376917912] [-2.193556301159818:3.2925454474252356] [-1.7838603797909005:3.9699071882509473] [-0.17778159759511661:7.8960610752873448] [-0.41902773779387553:5.9988898770201864] [-0.75934006607967042:7.3891817015191883] [-4.8232325848727182:2.6894332780860593] [-2.3875721072538125:3.1948806615051017] [-4.7458362106005136:0.67282761180298767] [-0.48478636956667392:4.7706313797185755] [-1.5793914266142142:3.9527753630522269] [-1.6206906613249106:5.3600905151836296] [-1.7595756839160559:7.595832331083626] [-0.45103120640289734:5.6105472417855387] [-2.6130453140380641:3.2187023613515096] [-0.2179503452674143:7.9663794008967583] [-0.32828845784671284:5.7923050796005988] [-0.13277941542128924:7.9865021443967672] [-7.9976613993311734:0.31277927122198462] [-0.19927481343700701:7.979004294299461] [-0.4321348624111962:7.3848925914208232] [-2.1531789134351578:3.061614239899682] [-1.2226079549959949:4.3871429961390387] [-1.4921503612347493:3.9753197211747504] [-0.28655956892353363:7.8372417101196632] [-4.0448696370261921:1.8577642360175493] [-4.2604018530629206:1.7570040405444869] [-2.616421229809295:1.6647476754845969] [-1.7691230441773858:2.4001355561459792] [-3.7631693919310383:1.6845539143641086] [-2.2427938352423258:2.3366617751120193] [-3.0800527897995216:1.0393466290952091] [-0.6355870640930551:4.885687920962698] [-2.1183813637462627:3.2427638602142168] [-1.9872306977767116:3.4223459824372102] [-2.1533602097037052:2.9993609083744484] [-2.3129144174755418:3.0189563761046716] [-0.63558706409305532:4.8856879209626971] [-2.2871886252107103:3.2885569544833348] [-0.21204776129217195:7.9680400539613156] [-2.7579641586693153:3.0825354214676968] [-0.52941554014757697:4.5541498003449581] [-1.6490119412482167:5.1679795231160162] [-2.3446283634236122:3.7403032571016515] [-0.59331535909036248:3.8525396096448294] [-0.219366591535996:7.966560953023567] [-0.32971306344077828:5.771217528186475] [-2.3537867945335211:2.3768295552367062] [-0.32433125762555759:5.2218436301711257] [-0.94666012930703636:3.6805301983286309] [-1.2056136010755711:3.359516132556553] [-1.2230221793461311:4.6615715781590783] [-0.31262058532850334:6.631608695259561] [-1.1173596204608078:3.3207383163846544] [-0.57598688647712515:4.0566121289707375] [-2.6694444739241039:2.518579974610923] [-0.19643330327813008:7.9794014531774975] [-0.33209965598683061:5.8773501231124605] [-1.6054204542975603:3.234982396037688] [-0.33028226288305634:5.1050991641916541] [-0.90417845715341438:3.8738071856876357] [-1.1934134809492409:3.5048223475571363] [-2.4457544225617385:4.7073072132806946] [-0.54238865587296348:4.4924821159949317] [-1.9721560959955842:3.4813215317020849] [-2.1464002334074141:2.9951864719553676] [-1.4629063797328243:3.3448565348211807] [-2.2670361921109374:2.9358862626555489] [-0.33328315306674761:5.8645073643384649] [-1.2143928440225331:3.549007710905252] [-0.66789977943836198:3.8298378603415242] [-2.864503726667305:3.7737209314379272] [-0.34447503148649317:7.2977519695017978] [-0.34887052346038844:6.4527561975697809] [-0.46934275157266347:5.5848255548894361] [-0.24465806777650526:7.3173312155039794] [-0.61481326357757249:5.0975358149239121] [-0.95000091493873695:3.9915391686769532] [-0.60757510286866256:3.534689229664036] [-1.9500108397303051:3.6665728950763223] [-2.2174754512251678:3.1564966995977306] [-0.3567459016744487:6.2525614648613184] [-0.96979035761434007:4.2333536518094981] [-2.3739448784400756:3.6709142779676678] [-1.1287576187944977:3.993707962560904] [-0.46858133317483763:5.5854493592428032] [-0.78133530277361374:5.3407994980742082] [-0.49130267145730694:4.4876547087729293] [-0.30881450937356453:6.6009096854055862] [-1.2723789549574802:4.7516742449572238] [-0.24686463633668934:7.799630319989773]
tree_sizes=2211 1996 2573 2167 2533 2761 2379 2268 2160 2260 2546 3053 2930 2838 3052 3018

Tree=0
num_leaves=23
num_cat=0
split_feature=98 70 110 85 19 21 6 5 33 38 5 92 8 11 8 3 69 72 23 9 0 8
split_gain=591.108 324.052 308.867 316.675 310.372 251.941 209.585 273.299 106.441 100.56 56.3818 47.3803 44.8963 38.988 30.2003 25.0104 24.6458 9.39175 7.00139 5.5225 1.63333 0.9025
threshold=1.0643146946082214 -0.77022690473333622 -0.68252939995397366 0.28226954007882182 -1.0000000180025095e-35 -0.4091556739024832 -1.1737265976441598 -0.052405997387736748 -0.27029769561236322 -0.1325566958729609 0.11097265371152119 -0.22041313896565962 0.15513967377927892 -0.59110908367950543 -0.29182431863606201 -0.32272892589150842 -0.28770724877600518 -0.31058401204417957 0.65523674144423072 -0.070514532357708812 0.019431125841192002 0.15513967377927892
decision_type=2 2 2 2 2 2 2 2 2 2 2 2 2 2 2 2 2 2 2 2 2 2
left_child=1 11 4 8 -3 -2 19 12 -4 -6 17 18 -8 -7 -11 -12 -9 -10 20 -5 -1 -20
right_child=5 2 3 6 9 13 7 16 10 14 15 -13 -14 -15 -16 -17 -18 -19 21 -21 -22 -23
leaf_value=9.2604616073461674 11.750461712250342 9.5904616184723697 10.097128302871418 9.6354616073461692 11.405461588272681 10.080461612859597 11.285461559662453 9.7337949422689594 9.2247473352558007 10.265461614498726 9.9504615930410534 9.7104616396320171 10.673794991542131 10.650461616882911 10.767128299444151 9.5421282835495784 10.112961593041053 9.4704616097303571 9.2004616168829116 9.4004616049619827 9.3771283058019783 9.1054616359563987
leaf_weight=1.999999999999998 1.9999999999999998 3 2.9999999999999956 1.9999999999999998 1.9999999999999998 1.9999999999999998 1.9999999999999989 2.9999999999999991 6.9999999999999973 1.9999999999999998 2.0000000000000009 2.9999999999999991 3 2.9999999999999991 2.9999999999999982 5.9999999999999991 4 2.0000000000000115 1.9999999999999998 1.9999999999999989 3 1.9999999999999998
leaf_count=2 2 3 3 2 2 2 2 3 7 2 2 3 3 3 3 6 4 2 2 2 3 2
internal_value=9.93385 9.82908 9.94981 9.81324 10.4415 10.8019 10.1448 10.3538 9.54796 10.8062 9.45105 9.36629 10.9185 10.4225 10.5665 9.64421 9.95046 9.27935 9.25157 9.51796 9.33046 9.15296
internal_weight=0 58 46 36 10 7 16 12 20 7 17 12 5 5 5 8 7 9 9 4 5 4
internal_count=65 58 46 36 10 7 16 12 20 7 17 12 5 5 5 8 7 9 9 4 5 4
is_linear=0
shrinkage=1


Tree=1
num_leaves=20
num_cat=0
split_feature=98 7 110 21 23 35 15 0 30 0 9 5 33 7 100 10 54 2 0
split_gain=478.797 262.993 282.008 204.072 165.792 196.268 131.523 127.421 103.224 68.2521 64.8305 58.1188 41.3157 31.5803 10.9973 3.76586 1.33179 0.945756 0.410057
threshold=1.0643146946082214 0.31634296664498701 -0.95908877384122548 -0.4091556739024832 0.65523674144423072 -0.65639380200485398 -0.30113715108567168 0.49067031297732644 -0.38049805941294695 0.61567444749700229 -0.070514532357708812 0.52246596661181088 -0.1336404249341176 -0.9938134878268936 1.0000000180025095e-35 1.326948539724065 -1.0000000180025095e-35 0.80596272876272568 0.019431125841192002
decision_type=2 2 2 2 2 2 2 2 2 2 2 2 2 2 2 2 2 2 2
left_child=1 2 -1 -2 5 -4 12 10 -8 -9 -3 18 -7 -5 17 16 -16 -12 -6
right_child=3 7 4 13 11 6 8 9 -10 -11 14 -13 -14 -15 15 -17 -18 -19 -20
leaf_value=1.0053982655207316 1.6349538803100581 -0.05665727456410713 1.0620372295379639 0.13195385383442043 -0.72029616832733157 -0.38353596755436486 -0.14333186447620391 0.54212055802345283 0.42336125837431998 -0.21204615334669744 -0.65926043987274174 -0.10601839423179625 0.13182882964611037 0.64495383898417158 -0.52653424739837618 -0.41871281464894605 -0.62076044082641713 -0.75651044845581028 -0.65626044273376438
leaf_weight=2.9999999999999991 1.9999999999999998 3.0000000000000062 1.9999999999999989 1.9999999999999993 1.9999999999999989 7 4.9999999999999991 1.9999999999999989 9.0000000000000018 3 1.9999999999999989 3 2.0000000000000018 2.9999999999999996 6.0000000000000027 3 1.9999999999999953 1.9999999999999998 1.9999999999999998
leaf_count=3 2 3 2 2 2 7 5 2 9 3 2 3 2 3 6 3 2 2 2
internal_value=0 -0.0942875 0.0783314 0.78124 -0.00858113 0.111863 0.029239 -0.356969 0.220971 0.0896205 -0.481021 -0.438738 -0.26901 0.439754 -0.565894 -0.51426 -0.550091 -0.707885 -0.688278
internal_weight=0 58 35 7 32 25 23 23 14 5 18 7 9 5 15 11 8 4 4
internal_count=65 58 35 7 32 25 23 23 14 5 18 7 9 5 15 11 8 4 4
is_linear=0
shrinkage=0.1


Tree=2
num_leaves=26
num_cat=0
split_feature=98 71 110 105 85 21 70 43 33 73 92 4 0 10 11 2 4 0 27 9 23 26 21 8 0
split_gain=387.826 221.179 280.561 201.261 172.055 165.298 152.686 187.286 78.7462 45.3996 42.4538 37.3336 34.6994 25.6862 25.58 23.2469 21.9563 15.1191 8.06525 5.71958 5.55166 5.41401 1.08091 0.339619 0.276009
threshold=1.0643146946082214 -0.96966060413837185 -0.68252939995397366 -0.009359191774600829 -0.47576798972960255 -0.4091556739024832 -0.3814818005006001 1.0000000180025095e-35 -0.27029769561236322 -0.18708635865179193 -0.22041313896565962 -1.0000000180025095e-35 0.61567444749700229 -1.0000000180025095e-35 -0.59110908367950543 0.80596272876272568 -1.0000000180025095e-35 0.54984166335368068 0.1783579938318369 0.52908491861902052 0.65523674144423072 -1.0000000180025095e-35 1.4995639261107871 0.15513967377927892 0.06669559877358458
decision_type=2 2 2 2 2 2 2 2 2 2 2 2 2 2 2 2 2 2 2 2 2 2 2 2 2
left_child=1 10 4 8 12 -2 9 16 -4 19 20 -6 -3 18 -7 -15 -8 -9 -10 -5 22 -11 24 -22 -1
right_child=5 2 3 6 11 14 7 17 13 21 -12 -13 -14 15 -16 -17 -18 -19 -20 -21 23 -23 -24 -25 -26
leaf_value=-0.54675643444061306 1.4714584350585931 1.2989945888519283 0.15040407801667852 -0.25006194114685049 -0.21011416912078851 0.11875846348702904 -0.25421297550201405 1.1421838760375971 -0.63608554601669298 0.23094431757926934 -0.046611881256103521 0.34766154686609918 0.70993249416351289 -0.37531711033412385 0.58045846621195485 0.011263085901737208 0.21436234712600682 0.75335066318511934 -0.43527152538299552 -0.468380832672119 -0.61342902183532688 -0.0017360150814056373 -0.43045046329498277 -0.67170581817626929 -0.49421992301940904
leaf_weight=1.999999999999998 1.9999999999999998 1.9999999999999998 2.9999999999999991 3 1.9999999999999998 1.9999999999999998 1.9999999999999998 1.9999999999999998 4 1.9999999999999998 1.9999999999999989 2.9999999999999982 1.9999999999999998 7 2.9999999999999991 1.9999999999999998 2.0000000000000018 1.9999999999999998 4 1.9999999999999998 1.9999999999999998 2.0000000000000018 1.9999999999999998 1.9999999999999998 1.9999999999999998
leaf_count=2 2 2 3 3 2 2 2 2 4 2 2 3 2 7 3 2 2 2 4 2 2 2 2 2 2
internal_value=0 -0.0848588 0.0148813 -0.106921 0.515623 0.703116 0.146049 0.463921 -0.321945 -0.136503 -0.467196 0.124551 1.00446 -0.405301 0.395778 -0.28941 -0.0199253 0.947767 -0.535679 -0.337389 -0.551312 0.114604 -0.490476 -0.642567 -0.520488
internal_weight=0 58 46 37 9 7 17 8 20 9 12 5 4 17 5 9 4 4 8 5 10 4 6 4 4
internal_count=65 58 46 37 9 7 17 8 20 9 12 5 4 17 5 9 4 4 8 5 10 4 6 4 4
is_linear=0
shrinkage=0.1


Tree=3
num_leaves=22
num_cat=0
split_feature=98 93 25 68 12 2 21 11 27 25 64 9 14 2 61 24 3 34 3 3 0
split_gain=314.139 179.449 252.274 185.565 165.454 155.758 133.892 88.9993 64.177 61.8409 40.3443 39.6917 35.4059 21.8815 18.4194 10.8844 6.752 3.88701 2.49786 0.715074 0.261913
threshold=1.0643146946082214 -0.12561656693181342 -0.22557211486777043 -1.1538600506588863 -0.2748051434677799 -1.1599633954164543 -0.4091556739024832 0.95743504766839072 1.0000000180025095e-35 -1.0000000180025095e-35 0.4693241831403035 0.42927070036839016 0.55264657034275011 0.56147787856667775 -0.51329811602534747 -0.15966894480086083 0.11026017449820376 1.4543220971775683 -1.0000000180025095e-35 -0.14604316169612613 0.091818496083970774
decision_type=2 2 2 2 2 2 2 2 2 2 2 2 2 2 2 2 2 2 2 2 2
left_child=1 2 3 -1 -4 7 -2 14 17 15 11 -7 18 -8 -5 -6 -12 19 -10 -3 -21
right_child=6 8 4 5 9 10 13 -9 12 -11 16 -13 -14 -15 -16 -17 -18 -19 -20 20 -22
leaf_value=0.83799054622650293 1.3243125915527338 -0.58186721801757801 1.1109856923421222 0.24663534760475156 -0.1905265629291534 -0.088749523122202162 0.61241259574890139 -0.3075942635536193 -0.0015624135732650751 0.65546491146087682 -0.54488984107971195 -0.42855357170104985 -0.37699980735778799 0.18539262513319646 0.63842018445332838 0.13938900828361503 -0.32748693227767933 -0.38740541934967043 0.15648378431797028 -0.49208078384399356 -0.53879915873209627
leaf_weight=1.9999999999999953 1.9999999999999998 3 3 1.9999999999999993 1.9999999999999993 11.000000000000012 1.9999999999999989 1.9999999999999998 1.9999999999999998 1.999999999999998 4.9999999999999991 4.9999999999999991 3 3 2.9999999999999996 2.0000000000000004 1.9999999999999998 1.9999999999999989 1.9999999999999989 2.0000000000000018 3
leaf_count=2 2 3 3 2 2 11 2 2 2 2 5 5 3 3 3 2 2 2 2 2 3
internal_value=0 -0.0763729 0.0368902 -0.0946597 0.504624 -0.156836 0.632804 0.256192 -0.349537 0.201442 -0.282541 -0.194938 -0.117308 0.356201 0.481706 -0.0255688 -0.482775 -0.512097 0.0774607 -0.54327 -0.520112
internal_weight=0 58 41 32 9 30 7 7 17 6 23 16 7 5 5 4 7 10 4 8 5
internal_count=65 58 41 32 9 30 7 7 17 6 23 16 7 5 5 4 7 10 4 8 5
is_linear=0
shrinkage=0.1


Tree=4
num_leaves=25
num_cat=0
split_feature=98 71 110 105 85 21 104 45 52 29 92 3 0 80 7 8 15 15 4 23 3 21 8 5
split_gain=254.453 148.391 188.055 134.491 117.857 108.452 101.039 103.233 51.8481 51.8268 28.0149 25.9631 25.657 18.6819 17.978 10.2635 9.44088 9.0192 4.30709 3.85946 2.58553 0.775604 0.366498 0.141207
threshold=1.0643146946082214 -0.96966060413837185 -0.68252939995397366 -0.009359191774600829 -0.47576798972960255 -0.4091556739024832 -0.75448771975192797 -0.060168267754716703 0.68841436872072892 0.44470032694304845 -0.22041313896565962 -1.0000000180025095e-35 0.61567444749700229 -0.29366707837350342 -0.9938134878268936 -1.0000000180025095e-35 -0.50104859750640707 0.50461266685835515 0.37296509127463195 0.65523674144423072 -0.54491952422204271 1.4995639261107871 0.15513967377927892 1.0250693282945076
decision_type=2 2 2 2 2 2 2 2 2 2 2 2 2 2 2 2 2 2 2 2 2 2 2 2
left_child=1 10 4 9 12 -2 17 8 -8 13 19 -6 -3 15 -7 -4 -15 -5 -9 21 -19 23 -21 -1
right_child=5 2 3 6 11 14 7 18 -10 -11 -12 -13 -14 16 -16 -17 -18 20 -20 22 -22 -23 -24 -25
leaf_value=-0.40614554882049581 1.1918813705444331 1.0807726144790644 0.019011728465557091 -0.036673438549041683 -0.17983308434486381 0.088343356549739821 0.21740396420160915 -0.0014061734080314625 0.7673558950424193 0.12066678075740736 -0.040248551964759828 0.28531131744384775 0.57424497604370095 -0.30940965243748259 0.47540535132090245 -0.30135575532913211 -0.48035345872243218 -0.3771560072898863 -0.2089414477348327 -0.49605283737182604 -0.21636011600494376 -0.34866487979888905 -0.55659189224243144 -0.44372308254241927
leaf_weight=1.999999999999998 1.9999999999999998 1.9999999999999998 1.9999999999999998 2.0000000000000027 1.9999999999999998 1.9999999999999993 3.0000000000000009 2.0000000000000009 4 2.9999999999999991 1.9999999999999989 2.9999999999999982 1.9999999999999998 6.9999999999999991 2.9999999999999996 1.9999999999999989 6.0000000000000027 1.9999999999999998 1.9999999999999998 1.9999999999999998 1.9999999999999998 1.9999999999999998 1.9999999999999998 1.9999999999999998
leaf_count=2 2 2 2 2 2 2 3 2 4 3 2 3 2 7 3 2 6 2 2 2 2 2 2 2
internal_value=0 -0.0687356 0.0129606 -0.0867599 0.422923 0.569524 0.120033 0.300085 0.531662 -0.262534 -0.381904 0.0992536 0.827509 -0.330157 0.320581 -0.141172 -0.388307 -0.210063 -0.105174 -0.450236 -0.296758 -0.399511 -0.526322 -0.424934
internal_weight=0 58 46 37 9 7 17 11 7 20 12 5 4 17 5 4 13 6 4 10 4 6 4 4
internal_count=65 58 46 37 9 7 17 11 7 20 12 5 4 17 5 4 13 6 4 10 4 6 4 4
is_linear=0
shrinkage=0.1


Tree=5
num_leaves=28
num_cat=0
split_feature=7 60 15 19 0 75 26 42 0 41 74 19 7 5 83 10 3 19 11 3 0 33 10 29 3 22 4
split_gain=209.582 142.681 131.306 101.379 78.1997 75.3331 72.0385 68.6862 42.2717 56.2615 41.9073 34.5535 26.1287 25.3676 21.6383 15.1628 13.4219 11.6532 8.24983 6.95572 5.73264 5.50776 2.72718 1.07334 0.907671 0.854255 0.0527789
threshold=0.23147072550948702 -0.13410870299434266 -0.090476847976710087 0.63447504481733452 1.0000000180025095e-35 -0.32510012057326837 -0.26581734682509606 -0.88403134989816878 0.4234174214881235 -0.1881641018037363 1.2831656864747147 0.13140486059417428 0.31634296664498701 -0.052405997387736748 -0.39736123452115923 1.1335119529176316 -0.51241439002629197 0.78403645093773344 -1.0000000180025095e-35 -0.47360594305891041 0.13104812349676551 0.14179517475897008 1.326948539724065 0.37805640102890892 0.39077406900806538 -0.25674767523774233 0.37296509127463195
decision_type=2 2 2 2 2 2 2 2 2 2 2 2 2 2 2 2 2 2 2 2 2 2 2 2 2 2 2
left_child=1 2 6 4 -4 10 19 -6 12 11 14 -10 -2 -8 20 24 -9 -5 23 -1 -3 22 25 -16 -11 -14 -27
right_child=8 5 3 17 7 -7 13 16 9 15 -12 -13 21 -15 18 -17 -18 -19 -20 -21 -22 -23 -24 -25 -26 26 -28
leaf_value=-0.44003915786743147 0.0073761880397796506 -0.19768410921096813 0.24075112342834482 -0.098446247726678759 1.3462660312652601 0.36898069878419243 0.5370586395263669 0.85352892875671482 -0.037922987341880793 -0.34224739074707045 0.23411997407674789 0.49868280887603744 -0.4346505403518679 0.0772798160711924 -0.47602046330769876 -0.052657711505889875 0.51909062067667533 0.24292091131210319 -0.19788051843643162 -0.17630214691162102 0.041745269298553454 -0.49971721967061361 -0.26545681158701573 -0.38144515752792341 -0.43751916885375963 -0.34473828077316271 -0.3657102664311726
leaf_weight=1.9999999999999998 2.0000000000000027 1.999999999999998 2.9999999999999982 2.0000000000000009 1.9999999999999971 2.9999999999999991 1.9999999999999998 1.9999999999999967 3 1.999999999999998 1.9999999999999989 1.9999999999999998 1.999999999999998 3 2.9999999999999982 1.9999999999999998 3.0000000000000058 1.9999999999999998 2.0000000000000018 1.9999999999999998 1.9999999999999998 2.9999999999999991 3 1.9999999999999998 1.9999999999999998 1.9999999999999998 3
leaf_count=2 2 2 3 2 2 3 2 2 3 2 2 2 2 3 3 2 3 2 2 2 2 3 3 2 2 2 3
internal_value=0 0.146614 0.306145 0.497719 0.667912 -0.082713 0.00814157 0.85098 -0.21992 -0.0710229 -0.18695 0.176719 -0.329112 0.261191 -0.263508 -0.277475 0.652866 0.0722373 -0.36953 -0.308171 -0.0779694 -0.380879 -0.345228 -0.43819 -0.389883 -0.379415 -0.357321
internal_weight=0 39 23 14 10 16 9 7 26 11 13 5 15 5 11 6 5 4 7 4 4 13 10 5 4 7 5
internal_count=65 39 23 14 10 16 9 7 26 11 13 5 15 5 11 6 5 4 7 4 4 13 10 5 4 7 5
is_linear=0
shrinkage=0.1


Tree=6
num_leaves=24
num_cat=0
split_feature=7 23 21 69 56 70 7 0 27 0 17 4 21 25 3 33 0 3 84 0 6 100 8
split_gain=169.761 120.541 117.53 111.036 73.1835 72.8631 82.552 35.076 30.5241 24.815 21.3741 44.0122 18.0069 17.4478 5.92165 4.93693 4.70146 4.3068 3.1819 2.51336 0.962952 0.908322 0.303187
threshold=0.23147072550948702 0.65523674144423072 -0.41144239462355686 -0.21612119413338529 -0.66231236929748782 -0.27659477832947493 -0.35656996113731648 0.49067031297732644 1.0000000180025095e-35 1.0733306450576541 -0.61164234515290483 0.37296509127463195 -0.37523860386989544 -0.26164011236246792 -0.32272892589150842 -0.072410709076166646 0.98012814007866533 -0.2927681834456205 -0.031517320967244258 -1.0000000180025095e-35 0.11897712148837315 -0.14102167528181728 0.15513967377927892
decision_type=2 2 2 2 2 2 2 2 2 2 2 2 2 2 2 2 2 2 2 2 2 2 2
left_child=1 2 -1 4 12 13 -7 10 22 -9 15 -12 16 -6 -14 18 -4 -10 -2 -20 -13 -17 -3
right_child=7 8 3 -5 5 6 -8 9 17 -11 11 20 14 -15 -16 21 -18 -19 19 -21 -22 -23 -24
leaf_value=0.96270351409911936 -0.3701045831044511 -0.38192543983459459 -0.14475912153720855 0.88908045291900639 0.41134478251139311 -0.11216477693191584 0.41984591484069933 0.21749881505966187 -0.12255423665046689 -0.18923638711373006 0.27580182552337623 -0.31508460839589431 0.18823384642601004 0.79265561103820448 -0.055110496282577352 -0.46755638122558579 -0.33253807425498949 0.084974174760282017 -0.1530014812946317 -0.29772423108418811 -0.22550445795059196 -0.38055436611175519 -0.43698782920837387
leaf_weight=2.0000000000000027 3.0000000000000027 1.9999999999999998 4 1.9999999999999989 3 7.0000000000000062 4.9999999999999867 2.9999999999999991 1.9999999999999998 3 2.0000000000000009 3 1.9999999999999998 2.000000000000008 2.0000000000000053 1.9999999999999998 1.9999999999999998 1.9999999999999998 2.0000000000000027 2.9999999999999964 1.9999999999999998 3.0000000000000009 1.9999999999999998
leaf_count=2 3 2 4 2 3 7 5 3 2 3 2 3 2 2 2 2 2 2 2 3 2 3 2
internal_value=0 0.131952 0.221262 0.170128 0.116872 0.243142 0.109506 -0.197928 -0.214123 0.0141312 -0.261546 -0.120666 -0.0977866 0.563869 0.0665617 -0.337405 -0.207352 -0.01879 -0.288686 -0.239835 -0.279253 -0.415355 -0.409457
internal_weight=0 39 31 29 27 17 12 26 8 6 20 7 10 5 4 13 6 4 8 5 5 5 4
internal_count=65 39 31 29 27 17 12 26 8 6 20 7 10 5 4 13 6 4 8 5 5 5 4
is_linear=0
shrinkage=0.1


Tree=7
num_leaves=23
num_cat=0
split_feature=98 93 25 12 68 2 21 11 27 25 64 9 14 2 10 9 34 5 3 2 3 0
split_gain=139.301 83.8233 121.769 86.1792 84.059 67.9532 55.4576 37.9436 26.7743 25.5279 19.365 18.6496 13.8022 10.8337 5.95262 3.53942 1.98186 1.64036 1.61758 0.399586 0.0727671 0.00864894
threshold=1.0643146946082214 -0.12561656693181342 -0.22557211486777043 -0.2748051434677799 -1.1538600506588863 -1.1599633954164543 -0.4091556739024832 0.57578044529993888 1.0000000180025095e-35 -1.0000000180025095e-35 0.4693241831403035 0.42927070036839016 0.55264657034275011 0.56147787856667775 0.60411309435898841 -0.070514532357708812 1.4543220971775683 -0.30303888251063221 -1.0000000180025095e-35 -0.67518007944552383 -0.2927681834456205 0.4234174214881235
decision_type=2 2 2 2 2 2 2 2 2 2 2 2 2 2 2 2 2 2 2 2 2 2
left_child=1 2 4 -4 -1 7 -2 17 16 14 11 -7 18 -8 -5 -12 19 -6 -10 -3 -21 -22
right_child=6 8 3 9 5 10 13 -9 12 -11 15 -13 -14 -15 -16 -17 -18 -19 -20 20 21 -23
leaf_value=0.56287343502044773 0.86643314361572232 -0.32610177993774403 0.78913100560506166 -0.13513910770416254 0.30370951890945425 -0.056237500770525431 0.42365412712097172 -0.10271761814753211 -0.029541585966944686 0.42441163063049336 -0.26686250865459438 -0.28916112422943113 -0.24969783226648962 0.12318686048189796 0.10884084701538083 -0.41055182615915942 -0.25351620912551881 0.43178608417510989 0.097642472386360174 -0.39328905344009402 -0.37457767724990781 -0.36527770757675154
leaf_weight=1.9999999999999953 1.9999999999999998 1.9999999999999998 3 1.9999999999999998 1.9999999999999998 11.000000000000012 1.9999999999999989 3 1.9999999999999998 1.999999999999998 4 4.9999999999999991 3 3 1.9999999999999998 2.9999999999999991 1.9999999999999989 1.9999999999999989 1.9999999999999989 1.9999999999999989 2.0000000000000027 1.9999999999999998
leaf_count=2 2 2 3 2 2 11 2 3 2 2 4 5 3 3 2 3 2 2 2 2 2 2
internal_value=0 -0.0508575 0.0265532 0.351513 -0.0648418 -0.10669 0.421391 0.16612 -0.237554 0.132704 -0.189718 -0.129026 -0.087556 0.243374 -0.0131491 -0.328444 -0.342552 0.367748 0.0340504 -0.364812 -0.377715 -0.369928
internal_weight=0 58 41 9 32 30 7 7 17 6 23 16 7 5 4 7 10 4 4 8 6 4
internal_count=65 58 41 9 32 30 7 7 17 6 23 16 7 5 4 7 10 4 4 8 6 4
is_linear=0
shrinkage=0.1


Tree=8
num_leaves=21
num_cat=0
split_feature=98 93 110 35 21 2 20 10 27 64 19 100 14 11 34 9 3 2 3 0
split_gain=112.834 67.8969 103.327 61.6933 44.9206 39.2503 70.9287 48.9936 21.6872 17.602 14.0626 11.3361 11.1798 8.87628 1.60531 1.43241 1.31024 0.323664 0.0589414 0.00700564
threshold=1.0643146946082214 -0.12561656693181342 -0.95908877384122548 -0.65639380200485398 -0.4091556739024832 0.45514371426908146 1.0000000180025095e-35 -0.6744706731603558 1.0000000180025095e-35 0.4693241831403035 0.13140486059417428 -0.66878234193160635 0.55264657034275011 -0.59110908367950543 1.4543220971775683 -0.070514532357708812 -1.0000000180025095e-35 -0.67518007944552383 -0.2927681834456205 0.4234174214881235
decision_type=2 2 2 2 2 2 2 2 2 2 2 2 2 2 2 2 2 2 2 2
left_child=1 2 -1 -4 -2 6 7 -5 14 10 -7 -8 16 -6 17 -11 -10 -3 -19 -20
right_child=4 8 3 5 13 9 11 -9 12 15 -12 -13 -14 -15 -16 -17 -18 18 19 -21
leaf_value=0.72491962909698493 0.77978982925415008 -0.29349160194396962 0.52891709804534914 0.3886074781417847 0.055852928757667522 0.034994540903717251 0.14693846702575677 -0.14599138150612509 -0.026587429083883753 -0.27660862207412706 -0.17878937274217607 0.43852191567420962 -0.22472804387410475 0.32782537142435708 -0.22816458940505982 -0.39629180431365968 0.08787822127342225 -0.35396014451980595 -0.3371199011802668 -0.32874993085861193
leaf_weight=1.9999999999999989 1.9999999999999998 1.9999999999999998 1.9999999999999989 1.9999999999999989 1.9999999999999998 5.0000000000000027 1.9999999999999998 12.000000000000002 1.9999999999999998 1.9999999999999998 7.9999999999999991 3.9999999999999991 3 2.9999999999999991 1.9999999999999989 1.9999999999999989 1.9999999999999989 1.9999999999999989 2.0000000000000027 1.9999999999999998
leaf_count=2 2 2 2 2 2 5 2 12 2 2 8 4 3 3 2 2 2 2 2 2
internal_value=0 -0.0457718 0.0238979 -0.0120519 0.379252 -0.0412935 0.0536641 -0.0696201 -0.213799 -0.153008 -0.0965648 0.341327 -0.0788004 0.219036 -0.308297 -0.33645 0.0306454 -0.32833 -0.339943 -0.332935
internal_weight=0 58 41 39 7 37 20 14 17 17 13 6 7 5 10 4 4 8 6 4
internal_count=65 58 41 39 7 37 20 14 17 17 13 6 7 5 10 4 4 8 6 4
is_linear=0
shrinkage=0.1


Tree=9
num_leaves=23
num_cat=0
split_feature=7 60 9 71 101 75 50 0 83 25 0 9 7 2 32 21 57 33 10 2 95 22
split_gain=92.4794 64.4373 61.2498 61.9088 37.8229 35.1337 30.6535 20.1601 18.8439 21.2755 15.8528 11.8022 11.0579 11.033 6.89854 4.77249 4.6449 3.11315 2.20848 0.990698 0.446142 0.242894
threshold=0.23147072550948702 -0.13410870299434266 -1.6060687259363915 -0.5659652066630193 -1.8014882171877959 -0.32510012057326837 0.62750753318311236 0.49067031297732644 -0.39736123452115923 -0.28022059592034249 0.61567444749700229 -0.29118935928766815 0.31634296664498701 0.78670536042536576 0.066314182514826805 -0.37523860386989544 -0.49253968192221237 0.14179517475897008 1.1335119529176316 -0.27579900566636334 -1.0000000180025095e-35 0.58708817903032273
decision_type=2 2 2 2 2 2 2 2 2 2 2 2 2 2 2 2 2 2 2 2 2 2
left_child=1 2 -1 -4 -5 8 13 11 9 -3 -9 -2 -13 -6 21 -8 -12 18 20 -20 -14 -10
right_child=7 5 3 4 6 -7 15 10 14 -11 16 12 17 -15 -16 -17 -18 -19 19 -21 -22 -23
leaf_value=0.73339035511016848 0.036139070987701291 -0.14404237667719519 0.68345022201537964 -0.31281522512435805 0.34503847757975248 0.2517478231995483 -0.10891348520914711 0.24455615878105164 -0.26802504062652577 0.27702236175537109 -0.20801720619201658 0.0017661124467849702 -0.23541439771652187 0.13062995597720145 -0.10320621430873869 0.057938249409198762 0.0075030487030744502 -0.33945767879486088 -0.21065368652343747 -0.1197921514511108 -0.28264478445053148 -0.31301518281300855
leaf_weight=1.9999999999999989 2.0000000000000062 3 2.0000000000000027 2.0000000000000062 6.0000000000000018 2.9999999999999991 3 1.9999999999999989 1.9999999999999998 1.9999999999999989 1.9999999999999993 2.0000000000000027 4.0000000000000053 4 3 3.9999999999999991 2.0000000000000004 2.9999999999999991 3 1.9999999999999998 3.9999999999999929 3
leaf_count=2 2 3 2 2 6 3 3 2 2 2 2 2 4 4 3 4 2 3 3 2 4 3
internal_value=0 0.0973913 0.204601 0.15424 0.0985333 -0.0567221 0.146927 -0.146087 -0.127907 0.0243835 0.0146807 -0.194317 -0.219923 0.259275 -0.223089 -0.0135696 -0.100257 -0.247635 -0.226445 -0.174309 -0.25903 -0.295019
internal_weight=0 39 23 21 19 16 17 26 13 5 6 20 18 10 8 7 4 16 13 5 8 5
internal_count=65 39 23 21 19 16 17 26 13 5 6 20 18 10 8 7 4 16 13 5 8 5
is_linear=0
shrinkage=0.1


Tree=10
num_leaves=25
num_cat=0
split_feature=98 71 110 105 29 21 104 43 52 29 72 92 80 11 8 2 3 37 23 9 2 21 8 5
split_gain=77.8028 46.1134 60.7013 42.029 40.3427 31.0424 30.3157 35.1363 16.859 15.3725 14.1142 7.75165 6.26209 5.85706 4.08117 3.87458 3.73439 2.88916 1.41152 0.799873 0.63896 0.363485 0.139402 0.103222
threshold=1.0643146946082214 -0.96966060413837185 -0.68252939995397366 -0.009359191774600829 1.0000000180025095e-35 -0.4091556739024832 -0.75448771975192797 0.46828000717876128 0.68841436872072892 0.44470032694304845 -0.55679304021374521 -0.22041313896565962 -0.29366707837350342 -0.59110908367950543 -1.0000000180025095e-35 0.45514371426908146 1.0000000180025095e-35 -0.29338448192458438 0.65523674144423072 -1.072791317686983 0.56147787856667775 1.4995639261107871 0.15513967377927892 1.0250693282945076
decision_type=2 2 2 2 2 2 2 2 2 2 2 2 2 2 2 2 2 2 2 2 2 2 2 2
left_child=1 11 4 9 -3 -2 15 8 -8 12 -6 18 14 -7 -4 -5 -12 -14 21 -17 -9 23 -20 -1
right_child=5 2 3 6 10 13 7 20 -10 -11 16 -13 17 -15 -16 19 -18 -19 22 -21 -22 -23 -24 -25
leaf_value=-0.21919304132461559 0.64788937568664529 0.63654104471206696 0.026212289370596401 -0.00068752169609069709 0.29124484856923422 0.049181810021400429 0.12100840111573526 -0.11129075884819027 0.43460740447044366 0.061316289504369105 -0.09231459498405449 -0.032867458462715153 -0.28859245181083681 0.27010898987452187 -0.17580671310424806 -0.12643771767616266 0.10093114376068112 -0.18644992907841995 -0.27587459087371813 -0.21587334871292108 -0.031355765461921675 -0.18304472565650931 -0.31321121454238882 -0.25132126808166494
leaf_weight=1.999999999999998 1.9999999999999998 1.999999999999998 1.9999999999999998 2.0000000000000027 2.9999999999999991 1.9999999999999998 3.0000000000000018 1.9999999999999998 4 2.9999999999999991 2.0000000000000009 1.9999999999999989 3.9999999999999991 2.9999999999999991 1.9999999999999989 1.9999999999999998 1.9999999999999998 9.0000000000000018 1.9999999999999998 1.9999999999999998 1.9999999999999998 1.9999999999999998 1.9999999999999998 1.9999999999999998
leaf_count=2 2 2 2 2 3 2 3 2 4 3 2 2 4 3 2 2 2 9 2 2 2 2 2 2
internal_value=0 -0.0380081 0.00753381 -0.0491215 0.24045 0.314924 0.0664803 0.165106 0.300208 -0.147383 0.127281 -0.212585 -0.184212 0.181738 -0.0747972 -0.114333 0.00430827 -0.217878 -0.248529 -0.171156 -0.0713233 -0.217853 -0.294543 -0.235257
internal_weight=0 58 46 37 9 7 17 11 7 20 7 12 17 5 4 6 4 13 10 4 4 6 4 4
internal_count=65 58 46 37 9 7 17 11 7 20 7 12 17 5 4 6 4 13 10 4 4 6 4 4
is_linear=0
shrinkage=0.1


Tree=11
num_leaves=30
num_cat=0
split_feature=83 24 14 0 11 33 19 20 19 9 21 61 35 23 9 2 104 69 14 0 19 19 7 2 9 2 0 20 10
split_gain=64.3555 58.856 59.565 35.4364 29.4541 27.6357 20.0086 17.0392 15.8253 20.2299 16.7291 5.67827 3.19668 2.67587 2.57976 2.45267 2.35506 1.79348 1.5119 0.943985 0.924581 0.494696 0.438461 0.405496 0.344639 0.163546 0.07838 0.070449 0.0128439
threshold=-0.39736123452115923 -0.15811059627831706 -1.5199805737767746 0.46031151119923558 -0.50581156945198935 -0.23977797417236066 0.18579082645613751 -0.4417727498459908 -0.058946019922697136 0.52908491861902052 -0.16523870699817092 0.20104192268199697 -1.0000000180025095e-35 -0.22033658412735488 0.27300471271106963 -0.27579900566636334 -0.088877033174395062 -0.30121465118373153 0.46162978819861783 0.98012814007866533 -0.22210391750858691 -1.0000000180025095e-35 0.98289043025822764 0.78670536042536576 -0.139781356625089 0.80596272876272568 0.04394290274062871 1.0000000180025095e-35 -1.0000000180025095e-35
decision_type=2 2 2 2 2 2 2 2 2 2 2 2 2 2 2 2 2 2 2 2 2 2 2 2 2 2 2 2 2
left_child=1 2 -1 8 -5 14 11 20 18 10 17 19 -13 25 -4 -12 -11 -10 24 -6 -7 -19 -18 -15 -2 -9 -20 28 -26
right_child=3 -3 5 4 6 7 -8 13 9 16 15 12 -14 23 -16 -17 22 21 26 -21 -22 -23 -24 -25 27 -27 -28 -29 -30
leaf_value=0.60592646598815714 -0.21035776138305665 0.66002740859985354 -0.10988990465799942 0.33629812399546288 0.048809767514467341 -0.10531185567378994 0.20963076427578914 0.1174889564514156 -0.0082382164895534443 -0.10989212989807125 0.25676412582397451 -0.22490599552790333 -0.06169153563678257 0.28521791696548698 -0.25651195049285874 0.10015398859977714 -0.21410895586013795 -0.089049696922302177 -0.18500902652740481 -0.048349130153655988 -0.0091567158699035322 -0.15938432812690737 -0.27455599308013906 0.22153934836387626 -0.27161958217620857 0.15792981386184687 -0.1570126056671142 -0.24296679496765128 -0.26028649806976256
leaf_weight=2.0000000000000062 1.9999999999999989 1.9999999999999989 3.0000000000000062 3.0000000000000009 1.9999999999999949 1.9999999999999998 3.0000000000000009 2.0000000000000062 2.0000000000000009 1.9999999999999998 1.9999999999999998 2.9999999999999982 2.0000000000000018 1.9999999999999825 1.9999999999999998 2.0000000000000009 2.9999999999999991 2.0000000000000009 1.9999999999999989 1.9999999999999998 2.0000000000000062 1.9999999999999989 1.9999999999999998 1.9999999999999998 1.9999999999999984 1.9999999999999998 1.9999999999999998 1.9999999999999998 2.000000000000004
leaf_count=2 2 2 3 3 2 2 3 2 2 2 2 3 2 2 2 2 3 2 2 2 2 2 2 2 2 2 2 2 2
internal_value=0 0.14403 0.0897144 -0.0687416 0.0560405 0.0289836 -0.014024 0.111285 -0.133284 -0.0712195 0.0200492 -0.0885755 -0.15962 0.195544 -0.168539 0.178459 -0.201603 -0.0855574 -0.221209 0.000230319 -0.0572343 -0.124217 -0.238288 0.253379 -0.246308 0.137709 -0.171011 -0.258291 -0.265953
internal_weight=0 21 19 44 15 17 12 12 29 17 10 9 5 8 5 4 7 6 12 4 4 4 5 4 8 4 4 6 4
internal_count=65 21 19 44 15 17 12 12 29 17 10 9 5 8 5 4 7 6 12 4 4 4 5 4 8 4 4 6 4
is_linear=0
shrinkage=0.1


Tree=12
num_leaves=29
num_cat=0
split_feature=83 24 14 0 11 33 19 27 19 9 21 61 61 35 9 2 104 69 14 0 15 19 3 2 42 0 20 5
split_gain=52.1279 47.6734 48.2476 28.7035 23.8578 22.3849 16.2069 13.9943 12.8185 16.3862 13.5506 4.59939 3.09241 2.58931 2.08961 1.98667 1.9076 1.45272 1.22464 0.764628 0.452431 0.400704 0.356927 0.328452 0.279157 0.0634878 0.0570637 0.010587
threshold=-0.39736123452115923 -0.15811059627831706 -1.5199805737767746 0.46031151119923558 -0.50581156945198935 -0.23977797417236066 0.18579082645613751 -0.39365972987384285 -0.058946019922697136 0.52908491861902052 -0.16523870699817092 0.20104192268199697 -0.13980755783179202 -1.0000000180025095e-35 0.27300471271106963 -0.27579900566636334 -0.088877033174395062 -0.30121465118373153 0.46162978819861783 0.98012814007866533 0.33098536554065555 -1.0000000180025095e-35 1.0000000180025095e-35 0.78670536042536576 1.5561781661355891 0.04394290274062871 1.0000000180025095e-35 1.0000000180025095e-35
decision_type=2 2 2 2 2 2 2 2 2 2 2 2 2 2 2 2 2 2 2 2 2 2 2 2 2 2 2 2
left_child=1 2 -1 8 -5 14 11 -7 18 10 17 19 20 -13 -4 -12 -11 -10 24 -6 -9 -19 -18 -14 26 -20 27 -2
right_child=3 -3 5 4 6 7 -8 12 9 16 15 13 23 -15 -16 -17 22 21 25 -21 -22 -23 -24 -25 -26 -27 -28 -29
leaf_value=0.54533381462096975 -0.23421307802200286 0.594024658203125 -0.098900912205377986 0.30266830921173082 0.043928790837526412 -0.086888877550760704 0.18866769025723129 0.073233926296233903 -0.0074143946170806821 -0.098902916908264124 0.23108772039413444 -0.20241539875666309 0.25669611692428801 -0.055522376846056355 -0.23086075186729424 0.09013859033584587 -0.18173621892929079 -0.08014472723007196 -0.16650812029838563 -0.043514219671487796 0.13463638226191199 -0.1434459000825882 -0.23627417882283522 0.19938541650772088 -0.18932199478149406 -0.14131134152412408 -0.21867010593414299 -0.24450238943099967
leaf_weight=2.0000000000000062 2.0000000000000018 1.9999999999999989 3.0000000000000062 3.0000000000000009 1.9999999999999949 3.0000000000000062 3.0000000000000009 2.0000000000000053 2.0000000000000009 1.9999999999999998 1.9999999999999998 2.9999999999999982 1.9999999999999825 2.0000000000000018 1.9999999999999998 2.0000000000000009 1.9999999999999989 2.0000000000000009 1.9999999999999989 1.9999999999999998 3 1.9999999999999989 3 1.9999999999999998 1.9999999999999998 1.9999999999999998 1.9999999999999998 1.9999999999999998
leaf_count=2 2 2 3 3 2 3 3 2 2 2 2 3 2 2 2 2 2 2 2 2 3 2 3 2 2 2 2 2
internal_value=0 0.129627 0.080743 -0.0618674 0.0504364 0.0260852 -0.0126216 0.100156 -0.119956 -0.0640975 0.0180443 -0.079718 0.162504 -0.143658 -0.151685 0.160613 -0.181443 -0.0770017 -0.199088 0.000207286 0.110075 -0.111795 -0.214459 0.228041 -0.221677 -0.15391 -0.232462 -0.239358
internal_weight=0 21 19 44 15 17 12 12 29 17 10 9 9 5 5 4 7 6 12 4 5 4 5 4 8 4 6 4
internal_count=65 21 19 44 15 17 12 12 29 17 10 9 9 5 5 4 7 6 12 4 5 4 5 4 8 4 6 4
is_linear=0
shrinkage=0.1


Tree=13
num_leaves=28
num_cat=0
split_feature=83 24 14 0 11 33 19 27 19 9 21 12 61 92 9 2 104 69 14 15 19 7 2 9 0 27 2
split_gain=42.2236 38.6154 39.0806 23.2498 19.3249 18.1318 13.1276 11.3354 10.383 13.2729 10.976 3.78742 2.50485 2.50056 1.69258 1.6092 1.54516 1.1767 0.991956 0.366469 0.32457 0.309268 0.266046 0.226117 0.0514251 0.0462216 0.0104035
threshold=-0.39736123452115923 -0.15811059627831706 -1.5199805737767746 0.46031151119923558 -0.50581156945198935 -0.23977797417236066 0.18579082645613751 -0.39365972987384285 -0.058946019922697136 0.52908491861902052 -0.16523870699817092 0.27381518391306953 -0.13980755783179202 -0.22041313896565962 0.27300471271106963 -0.27579900566636334 -0.088877033174395062 -0.30121465118373153 0.46162978819861783 0.33098536554065555 -1.0000000180025095e-35 0.98289043025822764 0.78670536042536576 -0.139781356625089 0.04394290274062871 -0.33747918759538131 0.80596272876272568
decision_type=2 2 2 2 2 2 2 2 2 2 2 2 2 2 2 2 2 2 2 2 2 2 2 2 2 2 2
left_child=1 2 -1 8 -5 14 11 -7 18 10 17 -6 19 -13 -4 -12 -11 -10 23 -9 -19 -18 -14 -2 -20 26 -25
right_child=3 -3 5 4 6 7 -8 12 9 16 15 13 22 -15 -16 -17 21 20 24 -21 -22 -23 -24 25 -26 -27 -28
leaf_value=0.4908004283905012 -0.17038979530334475 0.53462216854095457 -0.089010818799336547 0.27240147590637193 0.019995296001434359 -0.078199992577234728 0.16980091532071423 0.065910536050796317 -0.0066729560494422861 -0.089012622833251911 0.20797894597053521 -0.1821738521258037 0.23102650642395212 -0.053059980273246724 -0.20777466893196098 0.081124728918075498 -0.17270650466283163 -0.072130256891250549 -0.14985730648040771 0.1211727420488993 -0.12910131514072418 -0.22347297668457022 0.17944686412811273 -0.21032207012176515 -0.1271802127361297 -0.19680310487747144 -0.22052184343338005
leaf_weight=2.0000000000000062 1.9999999999999989 1.9999999999999989 3.0000000000000062 3.0000000000000009 2.9999999999999947 3.0000000000000062 3.0000000000000009 2.0000000000000053 2.0000000000000009 1.9999999999999998 1.9999999999999998 2.9999999999999982 1.9999999999999825 3.0000000000000018 1.9999999999999998 2.0000000000000009 2.9999999999999991 2.0000000000000009 1.9999999999999989 3 1.9999999999999989 1.9999999999999998 1.9999999999999998 1.9999999999999989 1.9999999999999998 2.000000000000004 1.9999999999999998
leaf_count=2 2 2 3 3 3 3 3 2 2 2 2 3 2 3 2 2 3 2 2 3 2 2 2 2 2 2 2
internal_value=0 0.116664 0.0726687 -0.0556807 0.0453928 0.0234767 -0.0113594 0.0901405 -0.10796 -0.0576878 0.0162398 -0.0717462 0.146254 -0.117617 -0.136516 0.144552 -0.163299 -0.0693015 -0.179179 0.0990679 -0.100616 -0.193013 0.205237 -0.199509 -0.138519 -0.209216 -0.215422
internal_weight=0 21 19 44 15 17 12 12 29 17 10 9 9 6 5 4 7 6 12 5 4 5 4 8 4 6 4
internal_count=65 21 19 44 15 17 12 12 29 17 10 9 9 6 5 4 7 6 12 5 4 5 4 8 4 6 4
is_linear=0
shrinkage=0.1


Tree=14
num_leaves=30
num_cat=0
split_feature=83 24 14 0 11 33 19 20 19 9 21 61 35 6 9 2 104 69 14 0 19 5 5 0 42 2 0 20 5
split_gain=34.2011 31.2785 31.6553 18.8324 15.6531 14.6867 10.6334 9.1861 8.41022 10.751 8.89054 3.17554 1.6047 1.42246 1.37099 1.30345 1.25158 0.953128 0.803484 0.619349 0.508768 0.30764 0.278387 0.22594 0.183155 0.0880179 0.0416543 0.0374395 0.00857545
threshold=-0.39736123452115923 -0.15811059627831706 -1.5199805737767746 0.46031151119923558 -0.50581156945198935 -0.23977797417236066 0.18579082645613751 -0.4417727498459908 -0.058946019922697136 0.52908491861902052 -0.16523870699817092 0.20104192268199697 -1.0000000180025095e-35 -0.77552826687718401 0.27300471271106963 -0.27579900566636334 -0.088877033174395062 -0.30121465118373153 0.46162978819861783 0.98012814007866533 -0.22210391750858691 -0.21179699136828697 -1.0000000180025095e-35 0.54984166335368068 1.5561781661355891 -1.0000000180025095e-35 0.04394290274062871 -1.0000000180025095e-35 1.0000000180025095e-35
decision_type=2 2 2 2 2 2 2 2 2 2 2 2 2 2 2 2 2 2 2 2 2 2 2 2 2 2 2 2 2
left_child=1 2 -1 8 -5 14 11 20 18 10 17 19 -13 23 -4 -12 -11 -10 24 -6 -7 -19 -18 -9 27 -15 -20 28 -2
right_child=3 -3 5 4 6 7 -8 13 9 16 15 12 -14 25 -16 -17 22 21 26 -21 -22 -23 -24 -25 -26 -27 -28 -29 -30
leaf_value=0.44172039031982263 -0.18924958109855652 0.48115994930267336 -0.080109739303588681 0.24516133069992052 0.041189146786928262 -0.078271785378456082 0.15282082657019291 0.16139430403709354 -0.0060056596994399972 -0.080111360549926736 0.18718104958534232 -0.16395646731058763 -0.04831690695136779 0.085992383956909127 -0.18699719905853263 0.073012256622314392 -0.15444568395614622 -0.062821555137634225 -0.13487157821655274 -0.037509560585021959 -0.0069438233971595518 -0.11828685402870179 -0.20261094570159913 0.20892746448516838 -0.15335081219673152 0.11566020250320533 -0.1144621908664703 -0.17712279558181732 -0.19850995540618888
leaf_weight=2.0000000000000062 1.9999999999999989 1.9999999999999989 3.0000000000000062 3.0000000000000009 1.9999999999999949 1.9999999999999998 3.0000000000000009 2.0000000000000062 2.0000000000000009 1.9999999999999998 1.9999999999999998 2.9999999999999982 2.0000000000000018 2.0000000000000004 1.9999999999999998 2.0000000000000009 3 2.0000000000000009 1.9999999999999989 1.9999999999999998 2.0000000000000062 1.9999999999999989 1.9999999999999989 1.9999999999999998 1.9999999999999998 1.999999999999982 1.9999999999999998 2.0000000000000027 1.9999999999999998
leaf_count=2 2 2 3 3 2 2 3 2 2 2 2 3 2 2 2 2 3 2 2 2 2 2 2 2 2 2 2 2 2
internal_value=0 0.104998 0.0654018 -0.0501126 0.0408535 0.0211291 -0.0102235 0.0811265 -0.097164 -0.051919 0.0146158 -0.0645716 -0.117701 0.142994 -0.122865 0.130097 -0.146969 -0.0623714 -0.161261 0.00183979 -0.0426078 -0.0905542 -0.173712 0.185161 -0.179558 0.100826 -0.124667 -0.188294 -0.19388
internal_weight=0 21 19 44 15 17 12 12 29 17 10 9 5 8 5 4 7 6 12 4 4 4 5 4 8 4 4 6 4
internal_count=65 21 19 44 15 17 12 12 29 17 10 9 5 8 5 4 7 6 12 4 4 4 5 4 8 4 4 6 4
is_linear=0
shrinkage=0.1


Tree=15
num_leaves=30
num_cat=0
split_feature=83 24 14 0 34 33 27 3 19 9 21 61 17 37 61 9 2 104 42 14 52 7 15 2 0 42 0 20 12
split_gain=27.7029 25.3356 25.6408 15.2542 13.6063 11.8963 7.61144 6.89105 6.81228 8.70832 7.20134 6.64237 5.46275 2.10169 1.68282 1.1105 1.0558 1.01378 0.780347 0.650822 0.254588 0.241782 0.207536 0.19479 0.192791 0.148356 0.03374 0.030326 0.00842689
threshold=-0.39736123452115923 -0.15811059627831706 -1.5199805737767746 0.46031151119923558 -0.35955253194861031 -0.23977797417236066 -0.39365972987384285 -0.48683630941041772 -0.058946019922697136 0.52908491861902052 -0.16523870699817092 0.28642826000058658 -0.67318202939954552 -0.23518592865763124 -0.13980755783179202 0.27300471271106963 -0.27579900566636334 -0.088877033174395062 0.97046300094044347 0.46162978819861783 0.55321954549507146 0.98289043025822764 0.33098536554065555 0.78670536042536576 0.98012814007866533 1.5561781661355891 0.04394290274062871 -1.0000000180025095e-35 -0.2748051434677799
decision_type=2 2 2 2 2 2 2 2 2 2 2 2 2 2 2 2 2 2 2 2 2 2 2 2 2 2 2 2 2
left_child=1 2 -1 8 7 15 -7 -5 19 10 18 12 13 -6 22 -4 -12 -11 20 25 -10 -19 -8 -16 -14 27 -21 28 -2
right_child=3 -3 5 4 11 6 14 -9 9 17 16 -13 24 -15 23 -17 -18 21 -20 26 -22 -23 -24 -25 -26 -27 -28 -29 -30
leaf_value=0.39754836559295514 -0.17908169031143195 0.43304396867752076 -0.072098763783772613 0.063453562557697268 0.18204212784767151 -0.064930413166681772 0.055367054045200176 0.32596160173416139 -0.0054050944745540576 -0.072100225090980505 0.16846294403076167 -0.14756081899007156 -0.077666601538658148 0.037070232629775983 0.18940776586532748 -0.16829748153686519 0.065711030364036513 -0.13838577667872112 -0.10713575780391689 -0.12138441801071168 -0.055861809849739055 -0.18327285647392266 0.09695390462875364 0.14527279734611506 -0.033758604899048791 -0.138015729188919 -0.10301597118377681 -0.15941051244735691 -0.16990188360214223
leaf_weight=2.0000000000000062 1.9999999999999984 1.9999999999999989 3.0000000000000062 1.9999999999999998 1.9999999999999989 3.0000000000000062 2.0000000000000053 1.9999999999999989 2.0000000000000009 1.9999999999999998 1.9999999999999998 3 1.9999999999999989 1.9999999999999998 1.9999999999999825 1.9999999999999998 2.0000000000000009 2.9999999999999991 1.9999999999999998 1.9999999999999989 1.9999999999999998 1.9999999999999998 3 1.9999999999999998 1.9999999999999998 1.9999999999999998 1.9999999999999998 2.0000000000000027 2.0000000000000004
leaf_count=2 2 2 3 2 2 3 2 2 2 2 2 3 2 2 2 2 2 3 2 2 2 2 3 2 2 2 2 2 2
internal_value=0 0.0944981 0.0588616 -0.0451013 0.0367681 0.0190161 0.0730138 0.194708 -0.0874476 -0.0467271 0.0131543 -0.0206644 0.0269218 0.109556 0.118995 -0.110578 0.117087 -0.132272 -0.0561342 -0.145135 -0.0306335 -0.156341 0.0803192 0.16734 -0.0557126 -0.161602 -0.1122 -0.169465 -0.174492
internal_weight=0 21 19 44 15 17 12 4 29 17 10 11 8 4 9 5 4 7 6 12 4 5 5 4 4 8 4 6 4
internal_count=65 21 19 44 15 17 12 4 29 17 10 11 8 4 9 5 4 7 6 12 4 5 5 4 4 8 4 6 4
is_linear=0
shrinkage=0.1


end of trees

feature_importances:
Column_0=35
Column_2=25
Column_9=22
Column_19=19
Column_21=19
Column_3=18
Column_14=13
Column_7=12
Column_5=11
Column_11=11
Column_33=11
Column_8=9
Column_27=9
Column_10=8
Column_61=8
Column_98=8
Column_15=7
Column_20=7
Column_23=7
Column_83=7
Column_104=7
Column_24=6
Column_25=6
Column_69=6
Column_110=6
Column_4=5
Column_35=5
Column_42=5
Column_92=5
Column_12=4
Column_29=4
Column_34=4
Column_71=4
Column_6=3
Column_52=3
Column_64=3
Column_70=3
Column_85=3
Column_93=3
Column_100=3
Column_105=3
Column_17=2
Column_22=2
Column_26=2
Column_37=2
Column_43=2
Column_60=2
Column_68=2
Column_72=2
Column_75=2
Column_80=2
Column_30=1
Column_32=1
Column_38=1
Column_41=1
Column_45=1
Column_50=1
Column_54=1
Column_56=1
Column_57=1
Column_73=1
Column_74=1
Column_84=1
Column_95=1
Column_101=1

parameters:
[boosting: gbdt]
[objective: regression]
[metric: l2]
[tree_learner: serial]
[device_type: cpu]
[data: ]
[valid: ]
[num_iterations: 500]
[learning_rate: 0.1]
[num_leaves: 31]
[num_threads: -1]
[deterministic: 0]
[force_col_wise: 0]
[force_row_wise: 0]
[histogram_pool_size: -1]
[max_depth: 7]
[min_data_in_leaf: 2]
[min_sum_hessian_in_leaf: 0.001]
[bagging_fraction: 1]
[pos_bagging_fraction: 1]
[neg_bagging_fraction: 1]
[bagging_freq: 0]
[bagging_seed: 3]
[feature_fraction: 1]
[feature_fraction_bynode: 1]
[feature_fraction_seed: 2]
[extra_trees: 0]
[extra_seed: 6]
[early_stopping_round: 100]
[first_metric_only: 0]
[max_delta_step: 0]
[lambda_l1: 0]
[lambda_l2: 0]
[linear_lambda: 0]
[min_gain_to_split: 0]
[drop_rate: 0.1]
[max_drop: 50]
[skip_drop: 0.5]
[xgboost_dart_mode: 0]
[uniform_drop: 0]
[drop_seed: 4]
[top_rate: 0.2]
[other_rate: 0.1]
[min_data_per_group: 100]
[max_cat_threshold: 32]
[cat_l2: 10]
[cat_smooth: 10]
[max_cat_to_onehot: 4]
[top_k: 20]
[monotone_constraints: ]
[monotone_constraints_method: basic]
[monotone_penalty: 0]
[feature_contri: ]
[forcedsplits_filename: ]
[refit_decay_rate: 0.9]
[cegb_tradeoff: 1]
[cegb_penalty_split: 0]
[cegb_penalty_feature_lazy: ]
[cegb_penalty_feature_coupled: ]
[path_smooth: 0]
[interaction_constraints: ]
[verbosity: -1]
[saved_feature_importance_type: 0]
[linear_tree: 0]
[max_bin: 255]
[max_bin_by_feature: ]
[min_data_in_bin: 3]
[bin_construct_sample_cnt: 200000]
[data_random_seed: 1]
[is_enable_sparse: 1]
[enable_bundle: 1]
[use_missing: 1]
[zero_as_missing: 0]
[feature_pre_filter: 1]
[pre_partition: 0]
[two_round: 0]
[header: 0]
[label_column: ]
[weight_column: ]
[group_column: ]
[ignore_column: ]
[categorical_feature: ]
[forcedbins_filename: ]
[precise_float_parser: 0]
[objective_seed: 5]
[num_class: 1]
[is_unbalance: 0]
[scale_pos_weight: 1]
[sigmoid: 1]
[boost_from_average: 1]
[reg_sqrt: 0]
[alpha: 0.9]
[fair_c: 1]
[poisson_max_delta_step: 0.7]
[tweedie_variance_power: 1.5]
[lambdarank_truncation_level: 30]
[lambdarank_norm: 1]
[label_gain: ]
[eval_at: ]
[multi_error_top_k: 1]
[auc_mu_weights: ]
[num_machines: 1]
[local_listen_port: 12400]
[time_out: 120]
[machine_list_filename: ]
[machines: ]
[gpu_platform_id: -1]
[gpu_device_id: -1]
[gpu_use_dp: 0]
[num_gpu: 1]

end of parameters

pandas_categorical:null
