tree
version=v3
num_class=1
num_tree_per_iteration=1
label_index=0
max_feature_idx=111
objective=regression
feature_names=Column_0 Column_1 Column_2 Column_3 Column_4 Column_5 Column_6 Column_7 Column_8 Column_9 Column_10 Column_11 Column_12 Column_13 Column_14 Column_15 Column_16 Column_17 Column_18 Column_19 Column_20 Column_21 Column_22 Column_23 Column_24 Column_25 Column_26 Column_27 Column_28 Column_29 Column_30 Column_31 Column_32 Column_33 Column_34 Column_35 Column_36 Column_37 Column_38 Column_39 Column_40 Column_41 Column_42 Column_43 Column_44 Column_45 Column_46 Column_47 Column_48 Column_49 Column_50 Column_51 Column_52 Column_53 Column_54 Column_55 Column_56 Column_57 Column_58 Column_59 Column_60 Column_61 Column_62 Column_63 Column_64 Column_65 Column_66 Column_67 Column_68 Column_69 Column_70 Column_71 Column_72 Column_73 Column_74 Column_75 Column_76 Column_77 Column_78 Column_79 Column_80 Column_81 Column_82 Column_83 Column_84 Column_85 Column_86 Column_87 Column_88 Column_89 Column_90 Column_91 Column_92 Column_93 Column_94 Column_95 Column_96 Column_97 Column_98 Column_99 Column_100 Column_101 Column_102 Column_103 Column_104 Column_105 Column_106 Column_107 Column_108 Column_109 Column_110 Column_111
feature_infos=[-3.6815243922147265:1.2525947134429882] [-3.2018908267936328:0.35795632259036653] [-2.4840876955663527:0.68105677260682373] [-0.54916279344157681:4.3289361498164469] [-1.3385297534792913:3.576974990936185] [-1.9143930685851227:2.2303250840563318] [-1.4883569853151881:3.5024710065196292] [-1.5333657058742096:3.3396319662435241] [-2.2015147545753329:2.2163005660481692] [-1.6578837309637871:2.6119594040327052] [-1.5541775279213783:2.0277272439442391] [-1.4811008943279456:2.6314455577826634] [-2.1951005022969308:3.7023446187843354] [-0.68212497076841272:3.6153080749942892] [-1.5349941720559659:2.200950865558986] [-1.9192752338919785:2.5024126196755385] [-0.88697373203852803:4.3355399698800525] [-1.2251664444250716:3.6409312438226746] [-0.68300463324761673:3.6130785911711016] [-7.2954267662279149:1.1881235705435138] [-2.6678889054013917:5.0093744119666574] [-0.4101691341215879:6.5015374297025197] [-1.6426049392666153:3.5075428981725123] [-1.4097830835045191:4.1359054150074934] [-0.33302132327271777:5.5934009191826215] [-0.59071852968547467:6.4750428870617887] [-0.63183428861427415:7.4487617441709233] [-5.4046528313893427:2.8113910697899436] [-2.9146310856986903:3.0156768621466759] [-4.7934596836297896:0.67694291364583947] [-0.5200812118185334:5.637277002226659] [-1.3498906254842404:4.0893051119090043] [-1.4264531246681054:5.9105104970181905] [-5.0979482799927922:2.9531722891201757] [-0.45301462724680053:5.6868036333589416] [-2.8532282388181072:2.076210591941515] [-0.20159443325993875:7.9708344938142064] [-0.32682405817035587:5.8007135806720003] [-0.12560383188650812:7.9999883880041551] [-7.9998666010129602:0.17004923920306222] [-0.18819124563837239:7.9815596753689562] [-0.42688778368987368:7.3904802928586957] [-2.284151016337471:3.0296766629479186] [-1.2068297119859595:4.388549622620789] [-1.4787719481678563:3.9837437788098424] [-0.28225353099214623:7.843083240353967] [-4.0407373097461052:1.8236944951230227] [-4.2568828707530173:1.7269896483961893] [-3.8309331255257533:1.5727086146671376] [-2.4198516646961203:2.4641022600886591] [-3.530229886584817:1.7488768761176461] [-2.4475352582561607:2.2977384121997573] [-3.0316927046617672:1.0752526540317704] [-0.64814047750352832:4.9321259258712642] [-2.2880818535635483:2.2535347162239243] [-1.4569056380262908:3.5893383540501307] [-2.4378069700440737:2.6741979485287275] [-2.4047708747769687:2.3809748155906676] [-0.64814047750352821:4.9321259258712633] [-1.83532616304106:3.5341338845566961] [-0.19729130920159918:7.9710173929563366] [-3.9437060205145853:2.9407192380392084] [-0.52656686901765104:4.5672621177161377] [-1.6033122736287608:5.0303086704408031] [-2.3480711690600962:3.6851557649854474] [-0.59581802636996151:3.7864470151162242] [-0.2004287904138661:7.971009811974441] [-0.32822058235128404:5.7798162046147095] [-2.2320175569391214:2.4596713321631483] [-0.3221528009620091:5.2209900397341276] [-0.99352156520706059:3.5834242120087696] [-1.2782809437241611:4.0805864605698945] [-1.2576820716499293:4.4298039187555869] [-0.30246723044633977:6.6441594246628801] [-1.0243787196400214:3.8725420794798504] [-0.57385324044382258:4.0660092158834154] [-2.9335514534802978:2.0398008078448564] [-0.18457180585664315:7.9832086398288666] [-0.33061151458969912:5.8865846437801892] [-1.5311785025933025:3.022938704364587] [-0.32972594237218172:5.1017047309513943] [-0.96063666690526728:3.8738624519053859] [-1.2590384665460357:4.235590040119253] [-2.4990082264843738:4.48242761410126] [-0.52933882679752875:4.5602559755414944] [-2.1028367134920591:3.2536826252363631] [-2.2480055531174212:2.8117999416154023] [-1.4037803080083098:3.0592965927675637] [-2.4410006334163059:2.7438425718916584] [-0.33010020170061433:5.8761717147226573] [-1.2638691608520178:4.1894898271451151] [-0.65473783643487415:4.00370062419044] [-3.2588543792531119:2.9241896067231545] [-0.27376134121498907:7.9267825482038745] [-0.34376559528246153:6.4679749568025269] [-0.49518844869289669:5.2040265093292897] [-0.25371625246499424:7.3021555628049351] [-0.60964232683318753:4.7854082360117127] [-0.97770834717214949:4.8515498024717791] [-0.58415081081382725:3.6563818949104658] [-2.0189380489458304:3.8123997072200981] [-2.6712069142163695:3.1427153850873299] [-0.35074889321499803:6.2769381903198855] [-1.0329447768172442:4.3177023692172725] [-3.6018594533438506:3.5709185341280922] [-1.1351757408595513:3.7075947514710168] [-0.49434847179677244:5.205938816895908] [-0.77746882562983244:5.438720372623437] [-0.23398481261987186:7.8035136970718595] [-0.35663604562651213:5.4154319530766486] [-1.2346728510958191:4.5149385996657916] [-0.51441251631344576:5.028877448600042]
tree_sizes=2326 2386 2398 2441 2696

Tree=0
num_leaves=24
num_cat=0
split_feature=7 110 27 28 6 12 2 11 103 6 2 6 42 13 36 24 24 5 5 17 2 0 0
split_gain=337.364 412.533 242.144 273.657 240.646 199.081 189.655 123.769 113.414 89.3025 58.3316 54.0225 39.3089 38.332 34.5156 11.4844 7.40034 4.32 4.14405 4.01389 1 0.964285 0.0900001
threshold=0.36016970350625926 -0.74714468780027277 -1.1606613454338679 0.24182314460610158 0.3156544490695366 1.7476377493026065 0.36171630394292292 -0.24574073707911429 0.66342079022736156 0.60209380624434361 1.0000000180025095e-35 -1.1977293336742243 0.21526169661804506 -0.37619897323305868 -0.17700628965098281 -0.18905573091802683 -0.23536851142979726 0.73968435916378239 0.27035664775268436 -1.0000000180025095e-35 0.67634673619585184 0.075012990166692078 0.33222529805892115
decision_type=2 2 2 2 2 2 2 2 2 2 2 2 2 2 2 2 2 2 2 2 2 2 2
left_child=1 -1 -3 4 7 14 10 19 13 -6 16 -10 -9 -8 -2 18 -5 -17 -16 -4 -19 -20 -23
right_child=5 2 3 6 9 -7 8 12 11 -11 -12 -13 -14 -15 15 17 -18 20 21 -21 -22 22 -24
leaf_value=10.137076987364354 8.7970769967024154 9.99707701756404 8.1204103048031158 9.5320770557110137 9.807076960343581 9.4570770557110126 8.8050769682113952 8.8870769719664882 8.9570769603435814 8.8620770032589267 10.022077041405899 9.6920770461742691 8.4437436317786201 8.2870769794170673 8.3237436508521068 8.1270769651119519 9.2837436413153629 8.2570769841854403 8.5070769682908676 8.2620769794170688 8.35707698418544 8.4170769746486975 8.4470769937221828
leaf_weight=2.9999999999999991 2.0000000000000062 1.9999999999999989 3.0000000000000009 1.9999999999999993 1.9999999999999989 1.9999999999999989 5.0000000000000009 6.0000000000000018 1.9999999999999998 1.9999999999999998 1.9999999999999998 1.9999999999999998 3 1.9999999999999971 3.0000000000000018 1.9999999999999953 3.0000000000000031 1.9999999999999998 3 6.0000000000000009 1.9999999999999998 1.9999999999999998 1.9999999999999998
leaf_count=3 2 2 3 2 2 2 5 6 2 2 2 2 3 2 3 2 3 2 3 6 2 2 2
internal_value=8.85231 9.00419 8.92327 8.86958 8.63299 8.51058 9.15874 8.47708 8.8998 9.33458 9.56565 9.32458 8.7393 8.65708 8.40541 8.35645 9.38308 8.24708 8.42208 8.21485 8.30708 8.46422 8.43208
internal_weight=0 45 42 40 22 20 18 18 11 4 7 4 9 7 18 16 5 6 10 9 4 7 4
internal_count=65 45 42 40 22 20 18 18 11 4 7 4 9 7 18 16 5 6 10 9 4 7 4
is_linear=0
shrinkage=1


Tree=1
num_leaves=24
num_cat=0
split_feature=7 110 27 28 6 12 2 11 103 33 6 6 2 42 42 36 24 5 5 20 2 48 9
split_gain=273.265 340.034 190.456 204.396 190.559 161.255 115.075 102.391 91.8656 85.668 72.335 43.7582 36.8905 31.8402 31.0489 27.9577 9.30234 3.4992 3.35668 2.26628 0.81 0.803571 0.147
threshold=0.36016970350625926 -0.93565543657784944 -1.1606613454338679 0.11428964035136248 0.3156544490695366 1.7476377493026065 0.36171630394292292 -0.24574073707911429 0.66342079022736156 0.30499062634455126 0.60209380624434361 -1.1977293336742243 1.0000000180025095e-35 0.21526169661804506 1.0000000180025095e-35 -0.17700628965098281 -0.18905573091802683 0.73968435916378239 0.27035664775268436 -0.61888957407681089 0.67634673619585184 -1.0000000180025095e-35 0.9009066879652764
decision_type=2 2 2 2 2 2 2 2 2 2 2 2 2 2 2 2 2 2 2 2 2 2 2
left_child=1 -1 -3 4 7 15 9 19 14 12 -6 -10 -5 -9 -8 -2 18 -18 -17 -4 -19 -20 -23
right_child=5 2 3 6 10 -7 8 13 11 -11 -12 -13 -14 -15 -16 16 17 20 21 -21 -22 22 -24
leaf_value=1.4112922668457033 -0.049707677960395637 1.0302923202514649 -0.50120768547058081 0.54462567329406708 0.85929224491119394 0.54429235458374026 -0.5087076902389529 0.031292305390040069 0.094292289018630945 -0.052291047573089583 0.0087923288345336872 0.7557923555374142 1.0527923583984371 -0.36770771344502756 -0.04250770568847656 -0.47570770581563276 -0.65270767211914182 -0.53570771217346169 -0.29570770263671825 -0.62412435213724748 -0.44570769071578964 -0.39170770645141639 -0.35670769214630121
leaf_weight=1.9999999999999989 2.0000000000000062 1.9999999999999989 1.9999999999999998 5.0000000000000018 1.9999999999999989 1.9999999999999989 1.999999999999998 6.0000000000000018 1.9999999999999998 1.9999999999999998 1.9999999999999998 1.9999999999999998 1.9999999999999998 3 5 3.0000000000000018 1.9999999999999953 1.9999999999999998 2.0000000000000027 6.0000000000000018 1.9999999999999998 1.9999999999999971 3
leaf_count=2 2 2 2 5 2 2 2 6 2 2 2 2 2 3 5 3 2 2 2 6 2 2 3
internal_value=0 0.136692 0.0774086 0.0309265 -0.18697 -0.307558 0.259717 -0.33309 0.0427469 0.524903 0.434042 0.425042 0.689816 -0.101708 -0.175708 -0.402208 -0.44627 -0.544708 -0.387208 -0.593395 -0.490708 -0.349279 -0.370708
internal_weight=0 45 43 41 21 20 20 17 11 9 4 4 7 9 7 18 16 6 10 8 4 7 5
internal_count=65 45 43 41 21 20 20 17 11 9 4 4 7 9 7 18 16 6 10 8 4 7 5
is_linear=0
shrinkage=0.1


Tree=2
num_leaves=24
num_cat=0
split_feature=7 110 27 28 5 12 110 92 93 36 12 24 2 36 3 6 100 24 5 5 0 2 2
split_gain=221.345 275.427 154.269 165.561 160.639 130.617 108.557 95.1314 89.4375 84.8661 76.9676 41.8014 22.7606 22.6457 14.1897 8.79597 8.40806 7.5349 2.83435 2.71891 0.735847 0.6561 0.104194
threshold=0.36016970350625926 -0.93565543657784944 -1.1606613454338679 0.11428964035136248 -0.28411442496592321 1.7476377493026065 -0.43711800040084009 -0.12971282680216578 -0.14493218364598512 -0.13503792899292491 -0.81070171992023621 -0.24753352237462536 -0.98818013144164896 -0.17700628965098281 -0.47753085476352264 -0.67610821432511081 0.63084829181167812 -0.18905573091802683 0.73968435916378239 0.27035664775268436 0.042067977159078972 0.67634673619585184 0.56142184776813531
decision_type=2 2 2 2 2 2 2 2 2 2 2 2 2 2 2 2 2 2 2 2 2 2 2
left_child=1 -1 -3 4 12 13 -6 8 14 10 -9 -8 -4 -2 -5 -11 -14 19 -19 -15 -21 -20 -22
right_child=5 2 3 7 6 -7 11 9 -10 15 -12 -13 16 17 -16 -17 -18 18 21 20 22 -23 -24
leaf_value=1.270163106918335 -0.044736909866332851 0.92726306915283208 -0.12683691829442978 1.0288630962371821 0.78076300621032646 0.48986311294138435 -0.27152234613895404 -0.30305776596069323 0.11821639140446967 -0.16125692129135127 0.40035665546144755 0.18565057814121247 -0.55145241192408967 -0.42813692887624066 0.65217144489288303 -0.4578369379043582 -0.31896193027496328 -0.58743691444397084 -0.48213694095611559 -0.26308692693710317 -0.32307024796803785 -0.40113692283630353 -0.35253691673278792
leaf_weight=1.9999999999999989 2.0000000000000062 1.9999999999999989 1.9999999999999989 1.9999999999999998 2.0000000000000009 1.9999999999999989 4.0000000000000009 1.9999999999999998 3.0000000000000027 1.9999999999999998 7 3.9999999999999991 7 3.0000000000000018 1.9999999999999998 1.9999999999999976 1.9999999999999998 1.9999999999999953 1.9999999999999998 1.9999999999999998 3 1.9999999999999998 1.9999999999999998
leaf_count=2 2 2 2 2 2 2 4 2 3 2 7 4 7 3 2 2 2 2 2 2 3 2 2
internal_value=0 0.123023 0.0696677 0.0278338 -0.168273 -0.276802 0.121804 0.233746 0.53096 0.0737072 0.244042 -0.0429359 -0.431979 -0.361987 0.840517 -0.309547 -0.499788 -0.401643 -0.490237 -0.348487 -0.314351 -0.441637 -0.334857
internal_weight=0 45 43 41 21 20 10 20 7 13 9 8 11 18 4 4 9 16 6 10 7 4 5
internal_count=65 45 43 41 21 20 10 20 7 13 9 8 11 18 4 4 9 16 6 10 7 4 5
is_linear=0
shrinkage=0.1


Tree=3
num_leaves=24
num_cat=0
split_feature=7 110 50 46 60 12 8 33 104 51 92 2 19 36 7 24 4 5 5 52 0 2 2
split_gain=179.289 223.096 127.745 165.525 177.764 105.8 90.9154 88.1377 63.4339 55.621 37.8967 36.8592 20.4646 18.343 13.1677 6.10327 4.8127 2.29583 2.20232 1.04764 0.596036 0.531441 0.0843973
threshold=0.36016970350625926 -0.93565543657784944 0.62119383054747812 -0.55812455047186915 -0.13384173773433092 1.7476377493026065 -1.2045146320796505 0.44120315031786023 -1.0986014817107501 -0.086219797081928631 1.0000000180025095e-35 0.56142184776813531 -0.045595350980435677 -0.17700628965098281 -0.89361989143448906 -0.18905573091802683 -1.0000000180025095e-35 0.73968435916378239 0.27035664775268436 -1.0000000180025095e-35 0.042067977159078972 0.67634673619585184 -1.0000000180025095e-35
decision_type=2 2 2 2 2 2 2 2 2 2 2 2 2 2 2 2 2 2 2 2 2 2 2
left_child=1 -1 3 6 7 13 -3 10 14 -6 -5 16 -11 -2 -4 18 -10 -17 -15 -13 -20 -19 -22
right_child=5 2 8 4 9 -7 -8 -9 11 12 -12 19 -14 15 -16 17 -18 21 20 -21 22 -23 -24
leaf_value=1.1431467294692994 -0.040263223648071146 0.18363143503665916 -0.030241554975509635 0.73145737648010278 0.17415462086598069 0.44087678790092472 1.054050079981486 -0.12384206056594843 0.0248316466808319 -0.49163334369659428 0.31849862694740294 -0.51853656768798828 -0.18816913008689867 -0.38532323042551647 0.3326320767402649 -0.52869324684143171 -0.19454697966575632 -0.43392324447631819 -0.23677824139595025 -0.43496465682983376 -0.29076321919759085 -0.36102323532104474 -0.31728322505950951
leaf_weight=1.9999999999999989 2.0000000000000062 1.9999999999999998 1.9999999999999998 3.9999999999999982 3.0000000000000009 1.9999999999999989 2.9999999999999991 3.0000000000000009 1.9999999999999998 3.9999999999999991 5 2.9999999999999991 5.0000000000000027 3.0000000000000018 1.9999999999999989 1.9999999999999953 1.999999999999998 1.9999999999999998 1.9999999999999998 3.0000000000000009 3.0000000000000022 1.9999999999999998 1.9999999999999976
leaf_count=2 2 2 2 4 3 2 3 3 2 4 5 3 5 3 2 2 2 2 2 3 3 2 2
internal_value=0 0.110721 0.062701 0.182458 0.0734117 -0.249122 0.705883 0.345566 -0.185368 -0.198743 0.502036 -0.319993 -0.323042 -0.325788 0.151195 -0.361479 -0.0848577 -0.441213 -0.313638 -0.476751 -0.282916 -0.397473 -0.301371
internal_weight=0 45 43 29 24 20 5 12 14 12 9 10 9 18 4 16 4 6 10 6 7 4 5
internal_count=65 45 43 29 24 20 5 12 14 12 9 10 9 18 4 16 4 6 10 6 7 4 5
is_linear=0
shrinkage=0.1


Tree=4
num_leaves=27
num_cat=0
split_feature=17 48 27 28 2 12 5 22 48 24 25 5 100 3 10 37 5 33 39 2 24 42 10 8 0 10
split_gain=146.709 280.426 110.797 159.332 80.1745 76.7625 65.2393 60.4257 38.2706 31.1453 23.0855 22.4284 21.603 17.0156 9.26129 8.24899 7.34214 3.14169 2.199 1.91914 1.72054 1.31994 0.932506 0.681444 0.568905 0.168203
threshold=-0.46647444740687016 0.69266845045304248 -1.1606613454338679 0.24182314460610158 0.36171630394292292 1.7476377493026065 0.1591297808190775 -1.0484457748569669 -1.1032017744253912 -0.24753352237462536 -0.22171038075464569 -1.666701518722806 -0.76053595841285493 1.0000000180025095e-35 -0.50740191905294274 -0.2781866794120853 0.34924962828826378 -1.0000000180025095e-35 0.12682059766756115 -0.53884265783492125 -0.23536851142979726 -0.69413356898540834 -0.81042002278334702 0.84226559708867277 0.020411452635760816 -1.0000000180025095e-35
decision_type=2 2 2 2 2 2 2 2 2 2 2 2 2 2 2 2 2 2 2 2 2 2 2 2 2 2
left_child=5 2 -2 6 10 7 14 -1 11 19 20 -6 13 -9 21 -10 17 23 24 -8 -5 -4 -11 -14 -18 -19
right_child=1 -3 3 4 8 -7 9 12 15 22 -12 -13 16 -15 -16 -17 18 25 -20 -21 -22 -23 -24 -25 -26 -27
leaf_value=0.27379761040210626 0.76590936183929448 1.0457268714904786 -0.45630056858062773 0.45229725837707513 0.065831613540649384 0.39678914844989777 -0.25870357751846301 0.11141746342182111 -0.26252166628837587 0.11724350452423092 0.80281469821929941 0.53941800594329836 -0.31845756769180189 -0.30108268260955801 -0.17509228587150513 -0.013790049403905866 -0.21310041546821587 -0.46455945968627904 -0.37772589921951277 -0.13224064111709591 0.32112793922424299 -0.3750619769096375 0.20539611180623379 -0.40100717544555647 -0.27842106819152829 -0.50557196140289606
leaf_weight=2.0000000000000062 1.9999999999999989 2.9999999999999991 3.9999999999999964 1.9999999999999993 1.9999999999999998 1.9999999999999989 1.9999999999999998 2.000000000000008 1.9999999999999989 1.9999999999999998 1.9999999999999989 1.9999999999999989 2.0000000000000062 1.9999999999999998 2.0000000000000062 4 1.9999999999999998 2.0000000000000004 1.9999999999999998 3 2.0000000000000004 3.9999999999999991 2.9999999999999982 1.9999999999999998 4 1.9999999999999873
leaf_count=2 2 3 4 2 2 2 2 2 2 2 2 2 2 2 2 4 2 2 2 3 2 4 3 2 4 2
internal_value=0 0.114944 0.0414607 0.00121353 0.236423 -0.196362 -0.186954 -0.250285 0.0630296 -0.00634537 0.525413 0.302625 -0.302693 -0.0948326 -0.367563 -0.0967006 -0.354658 -0.422399 -0.286917 -0.182826 0.386713 -0.415681 0.170135 -0.359732 -0.256648 -0.485066
internal_weight=0 41 38 36 16 24 20 22 10 10 6 4 20 4 10 6 16 8 8 5 4 8 5 4 6 4
internal_count=65 41 38 36 16 24 20 22 10 10 6 4 20 4 10 6 16 8 8 5 4 8 5 4 6 4
is_linear=0
shrinkage=0.1


end of trees

feature_importances:
Column_2=14
Column_5=12
Column_24=8
Column_6=7
Column_12=6
Column_0=5
Column_7=5
Column_36=5
Column_110=5
Column_27=4
Column_28=4
Column_42=4
Column_10=3
Column_33=3
Column_48=3
Column_3=2
Column_8=2
Column_11=2
Column_17=2
Column_92=2
Column_100=2
Column_103=2
Column_4=1
Column_9=1
Column_13=1
Column_19=1
Column_20=1
Column_22=1
Column_25=1
Column_37=1
Column_39=1
Column_46=1
Column_50=1
Column_51=1
Column_52=1
Column_60=1
Column_93=1
Column_104=1

parameters:
[boosting: gbdt]
[objective: regression]
[metric: l2]
[tree_learner: serial]
[device_type: cpu]
[data: ]
[valid: ]
[num_iterations: 500]
[learning_rate: 0.1]
[num_leaves: 31]
[num_threads: -1]
[deterministic: 0]
[force_col_wise: 0]
[force_row_wise: 0]
[histogram_pool_size: -1]
[max_depth: 7]
[min_data_in_leaf: 2]
[min_sum_hessian_in_leaf: 0.001]
[bagging_fraction: 1]
[pos_bagging_fraction: 1]
[neg_bagging_fraction: 1]
[bagging_freq: 0]
[bagging_seed: 3]
[feature_fraction: 1]
[feature_fraction_bynode: 1]
[feature_fraction_seed: 2]
[extra_trees: 0]
[extra_seed: 6]
[early_stopping_round: 100]
[first_metric_only: 0]
[max_delta_step: 0]
[lambda_l1: 0]
[lambda_l2: 0]
[linear_lambda: 0]
[min_gain_to_split: 0]
[drop_rate: 0.1]
[max_drop: 50]
[skip_drop: 0.5]
[xgboost_dart_mode: 0]
[uniform_drop: 0]
[drop_seed: 4]
[top_rate: 0.2]
[other_rate: 0.1]
[min_data_per_group: 100]
[max_cat_threshold: 32]
[cat_l2: 10]
[cat_smooth: 10]
[max_cat_to_onehot: 4]
[top_k: 20]
[monotone_constraints: ]
[monotone_constraints_method: basic]
[monotone_penalty: 0]
[feature_contri: ]
[forcedsplits_filename: ]
[refit_decay_rate: 0.9]
[cegb_tradeoff: 1]
[cegb_penalty_split: 0]
[cegb_penalty_feature_lazy: ]
[cegb_penalty_feature_coupled: ]
[path_smooth: 0]
[interaction_constraints: ]
[verbosity: -1]
[saved_feature_importance_type: 0]
[linear_tree: 0]
[max_bin: 255]
[max_bin_by_feature: ]
[min_data_in_bin: 3]
[bin_construct_sample_cnt: 200000]
[data_random_seed: 1]
[is_enable_sparse: 1]
[enable_bundle: 1]
[use_missing: 1]
[zero_as_missing: 0]
[feature_pre_filter: 1]
[pre_partition: 0]
[two_round: 0]
[header: 0]
[label_column: ]
[weight_column: ]
[group_column: ]
[ignore_column: ]
[categorical_feature: ]
[forcedbins_filename: ]
[precise_float_parser: 0]
[objective_seed: 5]
[num_class: 1]
[is_unbalance: 0]
[scale_pos_weight: 1]
[sigmoid: 1]
[boost_from_average: 1]
[reg_sqrt: 0]
[alpha: 0.9]
[fair_c: 1]
[poisson_max_delta_step: 0.7]
[tweedie_variance_power: 1.5]
[lambdarank_truncation_level: 30]
[lambdarank_norm: 1]
[label_gain: ]
[eval_at: ]
[multi_error_top_k: 1]
[auc_mu_weights: ]
[num_machines: 1]
[local_listen_port: 12400]
[time_out: 120]
[machine_list_filename: ]
[machines: ]
[gpu_platform_id: -1]
[gpu_device_id: -1]
[gpu_use_dp: 0]
[num_gpu: 1]

end of parameters

pandas_categorical:null
