tree
version=v3
num_class=1
num_tree_per_iteration=1
label_index=0
max_feature_idx=111
objective=regression
feature_names=Column_0 Column_1 Column_2 Column_3 Column_4 Column_5 Column_6 Column_7 Column_8 Column_9 Column_10 Column_11 Column_12 Column_13 Column_14 Column_15 Column_16 Column_17 Column_18 Column_19 Column_20 Column_21 Column_22 Column_23 Column_24 Column_25 Column_26 Column_27 Column_28 Column_29 Column_30 Column_31 Column_32 Column_33 Column_34 Column_35 Column_36 Column_37 Column_38 Column_39 Column_40 Column_41 Column_42 Column_43 Column_44 Column_45 Column_46 Column_47 Column_48 Column_49 Column_50 Column_51 Column_52 Column_53 Column_54 Column_55 Column_56 Column_57 Column_58 Column_59 Column_60 Column_61 Column_62 Column_63 Column_64 Column_65 Column_66 Column_67 Column_68 Column_69 Column_70 Column_71 Column_72 Column_73 Column_74 Column_75 Column_76 Column_77 Column_78 Column_79 Column_80 Column_81 Column_82 Column_83 Column_84 Column_85 Column_86 Column_87 Column_88 Column_89 Column_90 Column_91 Column_92 Column_93 Column_94 Column_95 Column_96 Column_97 Column_98 Column_99 Column_100 Column_101 Column_102 Column_103 Column_104 Column_105 Column_106 Column_107 Column_108 Column_109 Column_110 Column_111
feature_infos=[-4.0866260066696123:1.3508703682717191] [-3.6579018958055065:0.30641088309535236] [-2.0312877025502827:0.77683749042728267] [-0.5892918579546339:4.8193559364382184] [-1.5205597360275018:3.4711767711334893] [-1.9703150710750288:2.1030934363560747] [-1.4714015890447356:3.578333127180521] [-1.6921998631575572:3.6098143069701463] [-2.3052341086001302:2.066358451177563] [-1.6879989350641058:2.4185210128992924] [-1.6539262407842474:1.9804225905072343] [-1.7240634080201553:2.6460063852644518] [-2.3450608457760636:3.5975563404629658] [-0.73170844087377573:3.9257926313281288] [-1.6905039333936331:2.0707860880636462] [-2.2787938138965331:2.4422977938220587] [-0.8944464348453367:4.164214501758944] [-1.2901762052519468:4.2954631468530762] [-0.73264189237654087:3.9265866878166569] [-2.2526246810873332:2.7035261529807024] [-2.2282347385792862:4.4664137826543033] [-0.39945610053465042:7.0508567253110055] [-2.3187124589034274:3.5990208240429706] [-1.7887260998943679:4.0057387307493597] [-0.16597499420129763:7.8966464789875426] [-0.4755226721025872:6.0011633336197541] [-1.6697314339808249:4.6582086511925898] [-1.9943551996684463:3.3211514223358574] [-2.1368105454174886:3.3847429336223742] [-5.766326944182774:0.74575439940874899] [-0.47496511236609334:4.8615090509320673] [-1.7545430296758244:4.2281226306282162] [-2.0851659410255432:3.582665673592571] [-0.64038218553659387:7.8110230601994708] [-0.52893566024636851:6.2646788641591833] [-2.6020890615875332:3.2012293528819553] [-1.009013784853654:5.7166828339383216] [-0.31457347066598484:6.928969114781304] [-0.13537346587861007:7.9965422857352229] [-0.25848460166195003:7.7711303967563348] [-1.0138674051078385:6.293581190801385] [-0.79071009203688203:6.0461419492069286] [-2.2701767397007409:2.0798545750981838] [-1.2743600448639996:5.2648986410476164] [-1.5230802281496685:4.5181640653560668] [-0.79061210900570322:5.5840861994115238] [-4.1190666810120282:1.703099365845294] [-4.323806936993722:1.6183012469276967] [-3.6215110384414175:1.528003080599114] [-2.3073933964981839:2.3799916188950383] [-2.8344171891534642:1.8466757867926629] [-2.3308552091298043:1.9743084806522049] [-2.4706304705779298:1.0164838439185679] [-0.68819364901828728:5.7110385871297682] [-2.1126741769132558:3.2672775626227764] [-2.0441302394716052:3.6227187028531334] [-2.2289081159850359:3.3181206298875701] [-2.2864892061898003:3.0537444469361921] [-0.6881936490182875:5.71103858712977] [-2.4160280682973001:3.5904458818156533] [-0.96641583081217286:5.9487836032616128] [-3.6992546239530548:2.1803653186701188] [-0.5656935456477451:5.0525956324773906] [-1.2527943315819239:5.1129374256140832] [-2.7693596343075959:2.0926957347117638] [-0.6412008681472251:4.1716410022609889] [-1.0281623677502023:5.7094786153918076] [-0.31650930142832318:6.9242235511775858] [-2.3843941673759526:2.6738580558680956] [-0.32948725455811712:6.6398052602460593] [-0.95471690540852938:4.1298399994127708] [-1.1633284499887075:3.4713147101755899] [-1.3322912981738162:5.1575146628188984] [-0.37411373502948075:6.898490837125788] [-0.98780569579000022:3.54131212275517] [-0.62096654708322829:4.4439478233634633] [-2.8129009529667406:2.5895245321562754] [-0.99300525252173666:5.5262296185720947] [-0.31736204430468729:6.9206651435506163] [-1.6341865105081497:3.3936759141531567] [-0.33546711837987953:6.3016041182818494] [-0.92511929138902493:4.4723488319818649] [-1.1475021025037055:3.5870751077861192] [-2.8549626849527696:2.033963520461139] [-0.56348863930595194:4.9135384026150408] [-2.1958946189336443:3.4628779782992654] [-2.3942111048347385:3.0002753207233068] [-1.5060972754993347:3.5016874812344976] [-2.575850177853606:2.9252428044679686] [-0.31833289000653997:6.9522562276699809] [-1.1550980212689508:3.5465977594695448] [-0.70172783041269127:4.1104351856074723] [-2.0972155694493124:4.0055454352312028] [-0.56943742220502891:7.6164784059067783] [-0.33030254911017187:6.9108044748643493] [-0.56213970620785947:4.0580259085286574] [-0.23481252842959804:7.3768518845009217] [-0.6162246839980926:5.2613994750009478] [-0.90952383709228923:3.9539846919530111] [-0.62928778098830651:4.2957889020577094] [-2.0676002799122859:4.0012298069182766] [-2.8047891191656209:3.2470843829875] [-0.34358526151091828:6.9069585268627112] [-0.93258644833657089:4.2639635159881211] [-3.4851830867075497:1.8991889559696076] [-1.2281491279675991:4.5969036425904344] [-0.56117393253088699:4.060721969144983] [-0.83732966992043589:5.430543315107454] [-0.21756562114026715:7.8013466519192525] [-0.27657230915245712:7.1425692213658296] [-1.3983009408334774:3.5187701191452629] [-0.24187073681979712:7.7141629661120987]
tree_sizes=1924 2125 2111 2254 2147 2142

Tree=0
num_leaves=20
num_cat=0
split_feature=98 2 19 21 12 29 57 5 5 73 19 10 102 6 25 2 33 2 5
split_gain=807.312 308.701 228.367 167.324 150.037 106.548 201.94 117.612 88.9289 46.8114 42.5719 38.988 34.7143 31.4163 11.616 6.76 1.2675 0.49 0.3025
threshold=1.072983838946348 -1.1487340704716191 -0.32523269006087491 -0.39052130176307437 1.5699273627905816 -1.0000000180025095e-35 -0.91819780943811524 0.61813461460717034 -0.091543424787340746 -0.27775821004765294 0.8067276856213309 -1.0865079283358121 -0.23646453141288779 1.0000000180025095e-35 -0.21885804961612002 -1.8031275306208554 -1.0000000180025095e-35 0.77433023579069571 0.95912955519282561
decision_type=2 2 2 2 2 2 2 2 2 2 2 2 2 2 2 2 2 2 2
left_child=1 2 13 -2 5 14 7 -7 10 -10 -8 -5 -4 -1 17 -14 18 -3 -16
right_child=3 4 12 11 -6 6 8 -9 9 -11 -12 -13 15 -15 16 -17 -18 -19 -20
leaf_value=8.5531795354989857 10.486512868832319 8.4748462053445675 9.8998462689228539 9.1998462113050312 9.5498462828306057 9.9298462005761987 8.3965128632692192 8.9398461890526306 9.0069890548239702 8.6412747653631072 8.894846219053635 9.7698462339547962 9.3198461862710804 9.0648462178615432 8.2948462101129383 9.5798462244180538 8.2248462053445639 8.5448461862710801 8.3498462053445675
leaf_weight=3 3.0000000000000009 1.9999999999999998 3 2.0000000000000009 1.9999999999999989 1.9999999999999918 11.999999999999995 3 7 7.0000000000000195 1.9999999999999989 2.9999999999999982 1.9999999999999998 1.9999999999999998 1.9999999999999998 1.999999999999998 1.9999999999999909 1.9999999999999998 1.9999999999999998
leaf_count=3 3 2 3 2 2 2 12 3 7 7 2 3 2 2 2 2 2 2 2
internal_value=8.95538 8.82335 9.27401 9.8961 8.70318 8.6638 8.75045 9.33585 8.64592 8.82413 8.4677 9.54185 9.6427 8.75785 8.37785 9.44985 8.28985 8.50985 8.32235
internal_weight=0 57 12 8 45 43 33 5 28 14 14 5 7 5 10 4 6 4 4
internal_count=65 57 12 8 45 43 33 5 28 14 14 5 7 5 10 4 6 4 4
is_linear=0
shrinkage=1


Tree=1
num_leaves=21
num_cat=0
split_feature=98 2 19 21 12 29 109 5 11 92 10 102 6 2 100 25 2 33 2 5
split_gain=653.923 250.048 184.977 135.533 121.53 86.3039 165.211 103.304 68.7434 44.7644 31.5803 28.1186 25.4472 24.1783 14.1825 9.40896 5.4756 1.02667 0.3969 0.245025
threshold=1.072983838946348 -1.1487340704716191 -0.32523269006087491 -0.39052130176307437 1.5699273627905816 -1.0000000180025095e-35 -0.14972945674777369 -1.0000000180025095e-35 -0.61036068273613453 0.24309729360380697 -1.0865079283358121 -0.23646453141288779 1.0000000180025095e-35 0.77265873269963758 0.6150887767366614 -0.21885804961612002 -1.8031275306208554 -1.0000000180025095e-35 0.77433023579069571 0.95912955519282561
decision_type=2 2 2 2 2 2 2 2 2 2 2 2 2 2 2 2 2 2 2 2
left_child=1 2 12 -2 5 15 8 -8 14 -10 -5 -4 -1 -9 -7 18 -13 19 -3 -17
right_child=3 4 11 10 -6 6 7 13 9 -11 -12 16 -14 -15 -16 17 -18 -19 -20 -21
leaf_value=-0.36198461850484204 1.3780154069264723 -0.43248462677001936 0.85001541773478173 0.2200153857469557 0.53501541018486021 -0.64965127944946344 0.87701537609100311 0.24265820384025402 -0.29345741708363798 0.033011433482170109 0.73301539421081563 0.32801537513732898 0.09851539433002468 -0.24905606061220162 -0.33456796407699574 -0.59448461532592745 0.56201539039611847 -0.65748460292816435 -0.36948463916778551 -0.54498462677001924
leaf_weight=3 3.0000000000000009 1.9999999999999998 3 2.0000000000000009 1.9999999999999989 4.9999999999999956 1.9999999999999998 2.0000000000000133 14.000000000000002 5.9999999999999991 2.9999999999999982 1.9999999999999998 1.9999999999999998 1.9999999999999998 1.9999999999999998 1.9999999999999998 1.999999999999998 1.9999999999999909 1.9999999999999998 1.9999999999999998
leaf_count=3 3 2 3 2 2 5 2 2 14 6 3 2 2 2 2 2 2 2 2 2
internal_value=0 -0.118827 0.286765 0.84664 -0.226985 -0.262426 -0.184439 0.290206 -0.289916 -0.195517 0.527815 0.618587 -0.177785 -0.00319893 -0.559627 -0.519785 0.445015 -0.598985 -0.400985 -0.569735
internal_weight=0 57 12 8 45 43 33 6 27 20 5 7 5 4 7 10 4 6 4 4
internal_count=65 57 12 8 45 43 33 6 27 20 5 7 5 4 7 10 4 6 4 4
is_linear=0
shrinkage=0.1


Tree=2
num_leaves=21
num_cat=0
split_feature=98 2 20 21 12 29 57 5 5 73 100 33 10 7 15 25 0 33 2 5
split_gain=529.677 202.539 150.287 109.781 98.4394 69.9061 135.391 75.5196 62.4413 32.2314 31.7346 30.9798 25.58 18.2237 7.91813 7.62126 3.22561 0.831606 0.321489 0.19847
threshold=1.072983838946348 -1.1487340704716191 -0.26601017201082017 -0.39052130176307437 1.5699273627905816 -1.0000000180025095e-35 -0.91819780943811524 0.61813461460717034 -0.091543424787340746 -0.27775821004765294 1.7415300938127747 -0.27445583167977589 -1.0865079283358121 -0.77110437220584127 -0.59634319932240698 -0.21885804961612002 0.50666007916630629 -1.0000000180025095e-35 0.77433023579069571 0.95912955519282561
decision_type=2 2 2 2 2 2 2 2 2 2 2 2 2 2 2 2 2 2 2 2
left_child=1 2 10 -2 5 15 7 -7 11 -10 14 -8 -5 -4 -1 18 -15 19 -3 -17
right_child=3 4 13 12 -6 6 8 -9 9 -11 -12 -13 -14 16 -16 17 -18 -19 -20 -21
leaf_value=-0.39911949634551996 1.2402138551076247 -0.38923615217208846 0.36551386117935164 0.19801385104656202 0.48151388480328028 0.78931380510330484 -0.036545646190643412 -0.0039894560972849524 0.049475534473146704 -0.25398747133357114 0.229438829421997 -0.46165230870246882 0.65971385637919133 0.64541389942169225 -0.11772780120372764 -0.53503615856170628 0.82501382827758762 -0.59173614978790523 -0.33253617286682119 -0.49048616886138902
leaf_weight=1.9999999999999993 3.0000000000000009 1.9999999999999998 1.9999999999999998 2.0000000000000009 1.9999999999999989 1.9999999999999918 1.9999999999999936 3 7 7.0000000000000195 1.9999999999999998 12 2.9999999999999982 1.999999999999998 2.0000000000000004 1.9999999999999998 1.9999999999999998 1.9999999999999909 1.9999999999999998 1.9999999999999998
leaf_count=2 3 2 2 2 2 2 2 3 7 7 2 12 3 2 2 2 2 2 2 2
internal_value=0 -0.106944 0.258089 0.761976 -0.204286 -0.236184 -0.165995 0.313332 -0.251589 -0.102256 -0.0958028 -0.400923 0.475034 0.611981 -0.258424 -0.467806 0.735214 -0.539086 -0.360886 -0.512761
internal_weight=0 57 12 8 45 43 33 5 28 14 6 14 5 6 4 10 4 6 4 4
internal_count=65 57 12 8 45 43 33 5 28 14 6 14 5 6 4 10 4 6 4 4
is_linear=0
shrinkage=0.1


Tree=3
num_leaves=22
num_cat=0
split_feature=98 2 20 11 24 12 29 109 38 11 12 100 4 7 100 15 25 0 33 2 5
split_gain=429.039 164.056 121.733 97.3996 98.4532 79.7359 56.624 110.292 75.5466 46.5412 32.4398 25.7051 15.802 14.7612 11.4878 6.41368 6.17322 2.61275 0.673601 0.260406 0.160761
threshold=1.072983838946348 -1.1487340704716191 -0.26601017201082017 -1.3864517553049718 -0.16249907676316691 1.5699273627905816 -1.0000000180025095e-35 -0.14972945674777369 -0.12608534975054331 -0.61036068273613453 -0.32095138847514398 1.7415300938127747 -0.77179925995335308 -0.77110437220584127 0.6150887767366614 -0.59634319932240698 -0.21885804961612002 0.50666007916630629 -1.0000000180025095e-35 0.77433023579069571 0.95912955519282561
decision_type=2 2 2 2 2 2 2 2 2 2 2 2 2 2 2 2 2 2 2 2 2
left_child=1 2 11 -2 -5 6 16 9 -9 14 -11 15 -10 -4 -8 -1 19 -15 20 -3 -18
right_child=3 5 13 4 -6 -7 7 8 12 10 -12 -13 -14 17 -16 -17 18 -19 -20 -21 -22
leaf_value=-0.35920754671096794 0.23531692425409939 -0.35031254291534408 0.32896246910095206 0.59374243418375616 1.4995258331298835 0.43336249142885208 -0.53852091789245649 0.74023504257202122 -0.21125160157680509 0.14526803096135457 -0.21140379239531121 0.20649493932723992 0.18626548051833972 0.58087251186370881 -0.25494593679904926 -0.10595502406358713 -0.48153254985809313 0.7425124645233151 -0.53256254196167208 -0.29928255081176747 -0.44143755435943588
leaf_weight=1.9999999999999993 3.0000000000000009 1.9999999999999998 1.9999999999999998 3.0000000000000009 1.999999999999998 1.9999999999999989 4.9999999999999956 1.9999999999999998 1.9999999999999993 2.9999999999999991 17.000000000000004 1.9999999999999998 2.0000000000000138 1.999999999999998 1.9999999999999998 2.0000000000000004 1.9999999999999998 1.9999999999999998 1.9999999999999909 1.9999999999999998 1.9999999999999998
leaf_count=2 3 2 2 3 2 2 5 2 2 3 17 2 2 2 2 2 2 2 2 2 2
internal_value=0 -0.0962496 0.23228 0.685779 0.956056 -0.183858 -0.212565 -0.149396 0.238416 -0.235576 -0.157903 -0.0862225 -0.0124931 0.550782 -0.457499 -0.232581 -0.421026 0.661692 -0.485178 -0.324798 -0.461485
internal_weight=0 57 12 8 5 45 43 33 6 27 20 6 4 6 7 4 10 4 6 4 4
internal_count=65 57 12 8 5 45 43 33 6 27 20 6 4 6 7 4 10 4 6 4 4
is_linear=0
shrinkage=0.1


Tree=4
num_leaves=21
num_cat=0
split_feature=98 2 20 11 24 12 29 57 5 5 19 36 100 7 15 25 6 33 11 5
split_gain=347.521 132.886 98.6034 78.8937 79.7471 64.5861 45.8654 95.5404 52.2353 41.0131 26.3747 24.9725 20.8211 11.9566 5.19508 5.00031 2.11632 0.545617 0.25 0.130216
threshold=1.072983838946348 -1.1487340704716191 -0.26601017201082017 -1.3864517553049718 -0.16249907676316691 1.5699273627905816 -1.0000000180025095e-35 -0.91819780943811524 0.61813461460717034 -0.091543424787340746 0.8067276856213309 -0.11582352842528924 1.7415300938127747 -0.77110437220584127 -0.59634319932240698 -0.21885804961612002 1.0000000180025095e-35 -1.0000000180025095e-35 1.0000000180025095e-35 0.95912955519282561
decision_type=2 2 2 2 2 2 2 2 2 2 2 2 2 2 2 2 2 2 2 2
left_child=1 2 12 -2 -5 6 15 8 -8 10 -9 -11 14 -4 -1 18 -15 19 -3 -17
right_child=3 5 13 4 -6 -7 7 9 -10 11 -12 -13 -14 16 -16 17 -18 -19 -20 -21
leaf_value=-0.32328677177429194 0.21178522755702325 -0.31731778383254994 0.29606622457504261 0.53436820507049532 1.3495732307434087 0.39002626538276675 0.6640574097633386 -0.38341966867446914 0.0042891561985015855 0.01421617435084449 0.0088206022977828976 -0.26451723456382642 0.18584544658660881 0.66826119422912633 -0.095359522104263239 -0.43337929248809798 0.52278525829315159 -0.47930629253387647 -0.26731778383254995 -0.39729379415512067
leaf_weight=1.9999999999999993 3.0000000000000009 1.9999999999999998 1.9999999999999998 3.0000000000000009 1.999999999999998 1.9999999999999989 1.9999999999999918 11.999999999999995 3 8.9999999999999982 1.9999999999999989 5.0000000000000204 1.9999999999999998 1.999999999999998 2.0000000000000004 1.9999999999999998 1.9999999999999998 1.9999999999999909 1.9999999999999998 1.9999999999999998
leaf_count=2 3 2 2 3 2 2 2 12 3 9 2 5 2 2 2 2 2 2 2 2
internal_value=0 -0.0866247 0.209052 0.617201 0.86045 -0.165472 -0.191309 -0.134456 0.268196 -0.206358 -0.327385 -0.0853315 -0.0776003 0.495704 -0.209323 -0.378923 0.595523 -0.43666 -0.292318 -0.415337
internal_weight=0 57 12 8 5 45 43 33 5 28 14 14 6 6 4 10 4 6 4 4
internal_count=65 57 12 8 5 45 43 33 5 28 14 14 6 6 4 10 4 6 4 4
is_linear=0
shrinkage=0.1


Tree=5
num_leaves=21
num_cat=0
split_feature=98 2 20 11 24 14 12 10 19 15 24 110 0 100 7 62 25 3 0 6
split_gain=281.492 107.637 79.8688 63.9039 64.5952 55.4775 42.5726 89.2655 38.5676 26.2248 23.0954 17.3903 17.0532 16.8651 9.68484 8.46056 7.14977 4.20802 1.71422 0.981035
threshold=1.072983838946348 -1.1487340704716191 -0.26601017201082017 -1.3864517553049718 -0.16249907676316691 1.5415405515032796 -0.71762101058682259 -1.0000000180025095e-35 0.8067276856213309 -0.34933234403264452 -0.15483311222463778 0.11835692759284078 0.80968986874078974 1.7415300938127747 -0.77110437220584127 -0.048718591440978502 -0.26691440446465003 0.075553322673019174 0.50666007916630629 -1.0000000180025095e-35
decision_type=2 2 2 2 2 2 2 2 2 2 2 2 2 2 2 2 2 2 2 2
left_child=1 2 13 -2 -5 6 7 10 11 -10 16 15 -13 17 -4 -8 -3 -1 -16 -11
right_child=3 5 14 4 -6 -7 8 -9 9 19 -12 12 -14 -15 18 -17 -18 -19 -20 -21
leaf_value=-0.085823567956685998 0.19060669889052698 -0.43632684946060163 0.26645960807800279 0.48093139330546031 1.2146159172058111 0.26652282476425171 -0.39915561437606817 0.60752855539321904 -0.29301993846893298 0.10094915628433224 0.11356007456779477 -0.25501318871974948 0.024558391173680617 0.16726089715957637 0.47050671577453634 -0.25581309454781648 -0.16893629729747758 -0.29095809459686267 0.60143508911132793 0.19999638199806213
leaf_weight=1.9999999999999998 3.0000000000000009 1.9999999999999998 1.9999999999999998 3.0000000000000009 1.999999999999998 2.9999999999999991 9.9999999999999982 1.9999999999999989 1.9999999999999998 1.9999999999999998 1.9999999999999998 7.9999999999999982 3 1.9999999999999998 1.999999999999998 7.0000000000000062 2.0000000000000009 1.9999999999999998 1.9999999999999998 1.9999999999999989
leaf_count=2 3 2 2 3 2 3 10 2 2 2 2 8 3 2 2 7 2 2 2 2
internal_value=0 -0.0779622 0.188147 0.555481 0.774405 -0.148925 -0.178599 0.0289564 -0.227436 0.00264187 -0.163901 -0.276739 -0.178766 -0.0698403 0.446134 -0.340132 -0.302632 -0.188391 0.535971 0.150473
internal_weight=0 57 12 8 5 45 42 8 34 6 6 28 11 6 6 17 4 4 4 4
internal_count=65 57 12 8 5 45 42 8 34 6 6 28 11 6 6 17 4 4 4 4
is_linear=0
shrinkage=0.1


end of trees

feature_importances:
Column_2=13
Column_5=12
Column_12=7
Column_11=6
Column_25=6
Column_33=6
Column_98=6
Column_100=6
Column_19=5
Column_29=5
Column_0=4
Column_6=4
Column_7=4
Column_10=4
Column_15=4
Column_20=4
Column_24=4
Column_21=3
Column_57=3
Column_73=2
Column_102=2
Column_109=2
Column_3=1
Column_4=1
Column_14=1
Column_36=1
Column_38=1
Column_62=1
Column_92=1
Column_110=1

parameters:
[boosting: gbdt]
[objective: regression]
[metric: l2]
[tree_learner: serial]
[device_type: cpu]
[data: ]
[valid: ]
[num_iterations: 500]
[learning_rate: 0.1]
[num_leaves: 31]
[num_threads: -1]
[deterministic: 0]
[force_col_wise: 0]
[force_row_wise: 0]
[histogram_pool_size: -1]
[max_depth: 7]
[min_data_in_leaf: 2]
[min_sum_hessian_in_leaf: 0.001]
[bagging_fraction: 1]
[pos_bagging_fraction: 1]
[neg_bagging_fraction: 1]
[bagging_freq: 0]
[bagging_seed: 3]
[feature_fraction: 1]
[feature_fraction_bynode: 1]
[feature_fraction_seed: 2]
[extra_trees: 0]
[extra_seed: 6]
[early_stopping_round: 100]
[first_metric_only: 0]
[max_delta_step: 0]
[lambda_l1: 0]
[lambda_l2: 0]
[linear_lambda: 0]
[min_gain_to_split: 0]
[drop_rate: 0.1]
[max_drop: 50]
[skip_drop: 0.5]
[xgboost_dart_mode: 0]
[uniform_drop: 0]
[drop_seed: 4]
[top_rate: 0.2]
[other_rate: 0.1]
[min_data_per_group: 100]
[max_cat_threshold: 32]
[cat_l2: 10]
[cat_smooth: 10]
[max_cat_to_onehot: 4]
[top_k: 20]
[monotone_constraints: ]
[monotone_constraints_method: basic]
[monotone_penalty: 0]
[feature_contri: ]
[forcedsplits_filename: ]
[refit_decay_rate: 0.9]
[cegb_tradeoff: 1]
[cegb_penalty_split: 0]
[cegb_penalty_feature_lazy: ]
[cegb_penalty_feature_coupled: ]
[path_smooth: 0]
[interaction_constraints: ]
[verbosity: -1]
[saved_feature_importance_type: 0]
[linear_tree: 0]
[max_bin: 255]
[max_bin_by_feature: ]
[min_data_in_bin: 3]
[bin_construct_sample_cnt: 200000]
[data_random_seed: 1]
[is_enable_sparse: 1]
[enable_bundle: 1]
[use_missing: 1]
[zero_as_missing: 0]
[feature_pre_filter: 1]
[pre_partition: 0]
[two_round: 0]
[header: 0]
[label_column: ]
[weight_column: ]
[group_column: ]
[ignore_column: ]
[categorical_feature: ]
[forcedbins_filename: ]
[precise_float_parser: 0]
[objective_seed: 5]
[num_class: 1]
[is_unbalance: 0]
[scale_pos_weight: 1]
[sigmoid: 1]
[boost_from_average: 1]
[reg_sqrt: 0]
[alpha: 0.9]
[fair_c: 1]
[poisson_max_delta_step: 0.7]
[tweedie_variance_power: 1.5]
[lambdarank_truncation_level: 30]
[lambdarank_norm: 1]
[label_gain: ]
[eval_at: ]
[multi_error_top_k: 1]
[auc_mu_weights: ]
[num_machines: 1]
[local_listen_port: 12400]
[time_out: 120]
[machine_list_filename: ]
[machines: ]
[gpu_platform_id: -1]
[gpu_device_id: -1]
[gpu_use_dp: 0]
[num_gpu: 1]

end of parameters

pandas_categorical:null
