tree
version=v3
num_class=1
num_tree_per_iteration=1
label_index=0
max_feature_idx=111
objective=regression
feature_names=Column_0 Column_1 Column_2 Column_3 Column_4 Column_5 Column_6 Column_7 Column_8 Column_9 Column_10 Column_11 Column_12 Column_13 Column_14 Column_15 Column_16 Column_17 Column_18 Column_19 Column_20 Column_21 Column_22 Column_23 Column_24 Column_25 Column_26 Column_27 Column_28 Column_29 Column_30 Column_31 Column_32 Column_33 Column_34 Column_35 Column_36 Column_37 Column_38 Column_39 Column_40 Column_41 Column_42 Column_43 Column_44 Column_45 Column_46 Column_47 Column_48 Column_49 Column_50 Column_51 Column_52 Column_53 Column_54 Column_55 Column_56 Column_57 Column_58 Column_59 Column_60 Column_61 Column_62 Column_63 Column_64 Column_65 Column_66 Column_67 Column_68 Column_69 Column_70 Column_71 Column_72 Column_73 Column_74 Column_75 Column_76 Column_77 Column_78 Column_79 Column_80 Column_81 Column_82 Column_83 Column_84 Column_85 Column_86 Column_87 Column_88 Column_89 Column_90 Column_91 Column_92 Column_93 Column_94 Column_95 Column_96 Column_97 Column_98 Column_99 Column_100 Column_101 Column_102 Column_103 Column_104 Column_105 Column_106 Column_107 Column_108 Column_109 Column_110 Column_111
feature_infos=[-3.5850513677946925:1.3106608488340608] [-3.1747952335017442:0.36110367614797784] [-1.9588239745718856:0.79460785068819906] [-0.63782717756089979:4.1073420974267068] [-1.3802710923235859:2.6472676573136251] [-2.2144337775480292:2.1884415033820894] [-1.6703529127085603:3.0349427352581357] [-1.655307809784625:2.8425092958061677] [-2.310598708441018:2.0591547055394788] [-1.603361258873145:3.4666896747113309] [-1.5447086389594662:3.3128154937886625] [-1.7605377813905956:1.6256378924854331] [-1.8968542317977144:2.7552799287004968] [-0.78198880694166439:3.7919049367400173] [-1.8872491462723235:2.2177605596014955] [-1.6341768275262687:2.6439559407341551] [-1.0210577218275236:3.5604621770041534] [-0.94542466745465792:5.421951947764784] [-0.78274713716415611:3.7896341780426148] [-2.1932414904000845:2.681654350186085] [-2.2342023221529361:3.7279373353405796] [-0.53414455987246878:5.2221354863620828] [-2.3207475666277442:3.1765194491491315] [-1.8883084718621015:3.7540255672006122] [-0.71705768577186435:6.7071011965269802] [-1.237246271477028:4.1246010588676221] [-1.7863016098404256:3.769345445370659] [-2.0515713928066139:2.6594373372233435] [-2.0976228690083332:2.37497643940298] [-4.694446551025063:1.5018974580922473] [-1.4995240073697615:3.4498483138104326] [-1.8421406603700958:3.715403711347224] [-2.139248635649583:2.9977820100004919] [-2.0729309636502768:4.6929013393168031] [-0.67304554619511725:4.073719457771694] [-2.3501513880318803:3.3572218797628475] [-1.2660399653887564:4.4613062811665003] [-0.92663762539080108:5.75789607347666] [-0.66014881324025154:6.5582268118372298] [-2.1411386547776221:6.9508603671248803] [-1.4206395869472179:4.2281233525977377] [-0.92471013596151486:5.9806173238253812] [-2.6466190265457099:2.5941137535149261] [-1.5275539641737739:5.0117920553686917] [-1.6184630381512342:4.3854375577083546] [-0.86343388255370945:5.6880351858357958] [-3.866285032323018:2.0414955730348505] [-4.086123092821226:1.9106487979852727] [-4.6850157811943793:1.6605843709143098] [-3.0354291986080457:2.5283599464910442] [-3.7496257846180541:1.7771663936516031] [-2.3341884243242941:2.7891203419555679] [-3.2439960986541378:1.0145772822272354] [-1.4569696565767405:4.5872325641959781] [-1.8862883280255334:3.9186475509633563] [-2.2421760477078889:3.5579643778627452] [-2.216993210307006:2.4970702517837653] [-2.1317607242663668:3.6264447342099015] [-1.4569696565767407:4.587232564195979] [-2.5212198499018523:2.5674508143759884] [-1.2715224523507587:4.4904380798505237] [-2.9765070759678776:1.6909380764637709] [-0.62220342189740363:4.1857983853737366] [-1.7425022137684487:4.3043744152835357] [-2.4490575068085687:3.0735723864793254] [-0.68063743466289273:3.5342333870711804] [-1.2941784122302156:4.457031588936367] [-0.93732210335550958:5.7184814502204793] [-2.2434482005600778:2.4668178802284397] [-0.63958919016304483:7.4249996101618452] [-1.2179612794396288:3.5860790081409215] [-1.3606683337996217:3.9427189878665101] [-1.3461741247986705:4.1785752432281047] [-0.63277850814093695:7.1981895789812222] [-0.90445742082124392:5.8431344284795914] [-0.66077327423477883:3.849925548369896] [-2.6861813577759577:2.5152426419370211] [-1.208562429589656:4.4894561638336441] [-0.94222061528083989:5.7577512370195434] [-1.5455626261784143:3.177676614363969] [-0.55794389914552456:7.5855466171340646] [-1.1418431893265515:3.5251394441936434] [-1.3236203369646857:4.1343485639865989] [-3.0129266281086755:2.5006459395870961] [-0.60977122823902408:4.6484871903496519] [-2.0635421269392138:3.1885395443405824] [-2.2345179482653634:2.7413633591585267] [-1.4122100211022643:3.1742349731370241] [-2.4179140254716063:2.7344088299782028] [-0.96852236686435089:4.9112783516052358] [-1.3141284040419914:4.6806822259989644] [-0.73252080689139876:3.693047978839453] [-1.793764281215467:3.5604198361795061] [-1.635575697153423:4.9372325236922769] [-1.1519634254441189:5.2726401479223473] [-0.53380287301489504:4.2292965797069462] [-0.49925673217202288:4.9118647842310743] [-0.54453438891855799:4.1706222860119411] [-1.0653967718716637:4.5529219047848555] [-0.66803544864614339:4.3901119367974655] [-2.4850722244348629:3.5992642882741603] [-3.58971627792861:2.876765128919458] [-1.1758020029932987:4.823102971821255] [-1.1205363351769118:3.9047155430556888] [-2.8944851141566836:2.7927762131318565] [-1.0643700806818113:3.8935377145447978] [-0.53289932410107543:4.231629841673584] [-0.76855876083394137:4.7980066134163293] [-0.25681290520902694:7.2188102135429988] [-0.90780045395059572:4.4687959400043598] [-1.4780184496765261:3.8496173149637829] [-0.30577077124531749:6.847947389405955]
tree_sizes=495 506 506 526 525 505 525 505 505 523 515 508 520 525 507 512 525 507 522 510 514 509 514 520 513 522 515 522 514 514 522

Tree=0
num_leaves=4
num_cat=0
split_feature=21 51 28
split_gain=828.225 509.149 151.147
threshold=-0.30579787877778247 0.418655371807445 -0.17580285367534701
decision_type=2 2 2
left_child=1 -1 -2
right_child=2 -3 -4
leaf_value=9.9511202425796252 9.7144279315494568 9.7589554067807533 9.8039236611955687
leaf_weight=26 13.000000000000002 6.9999999999999991 18
leaf_count=26 13 7 18
internal_value=9.84063 9.91036 9.76639
internal_weight=0 33 31
internal_count=64 33 31
is_linear=0
shrinkage=1


Tree=1
num_leaves=4
num_cat=0
split_feature=21 51 27
split_gain=795.427 488.987 109.056
threshold=-0.30579787877778247 0.418655371807445 -0.15839991356412578
decision_type=2 2 2
left_child=1 -1 -2
right_child=2 -3 -4
leaf_value=0.10828528782496086 -0.11688778070303107 -0.080036250523158492 -0.040867920650376213
leaf_weight=26 13.000000000000002 6.9999999999999991 18
leaf_count=26 13 7 18
internal_value=0 0.0683383 -0.0727472
internal_weight=0 33 31
internal_count=64 33 31
is_linear=0
shrinkage=0.02


Tree=2
num_leaves=4
num_cat=0
split_feature=21 51 28
split_gain=763.928 469.623 140.828
threshold=-0.30579787877778247 0.418655371807445 -0.17580285367534701
decision_type=2 2 2
left_child=1 -1 -2
right_child=2 -3 -4
leaf_value=0.10611958316312387 -0.12145237519190859 -0.078435525212969093 -0.035065536035431756
leaf_weight=26 13.000000000000002 6.9999999999999991 18
leaf_count=26 13 7 18
internal_value=0 0.0669715 -0.0712923
internal_weight=0 33 31
internal_count=64 33 31
is_linear=0
shrinkage=0.02


Tree=3
num_leaves=4
num_cat=0
split_feature=104 0 17
split_gain=742.019 528.346 225.759
threshold=-0.14134672001292894 1.0000000180025095e-35 0.26538860153869553
decision_type=2 2 2
left_child=1 -1 -2
right_child=2 -3 -4
leaf_value=-0.023115097835659976 -0.072710010497009064 0.16722530901432037 0.060356164971987411
leaf_weight=10.000000000000002 34 13.999999999999998 5.9999999999999991
leaf_count=10 34 14 6
internal_value=0 0.0879168 -0.0527501
internal_weight=0 24 40
internal_count=64 24 40
is_linear=0
shrinkage=0.02


Tree=4
num_leaves=4
num_cat=0
split_feature=104 0 17
split_gain=712.635 507.424 216.819
threshold=-0.14134672001292894 1.0000000180025095e-35 0.26538860153869553
decision_type=2 2 2
left_child=1 -1 -2
right_child=2 -3 -4
leaf_value=-0.022652796700596802 -0.071255809870712894 0.16388080839599883 0.05914904197057088
leaf_weight=10.000000000000002 34 13.999999999999998 5.9999999999999991
leaf_count=10 34 14 6
internal_value=0 0.0861585 -0.0516951
internal_weight=0 24 40
internal_count=64 24 40
is_linear=0
shrinkage=0.02


Tree=5
num_leaves=4
num_cat=0
split_feature=3 92 0
split_gain=690.432 247.045 208.575
threshold=-0.3449778566504243 -0.35419226886640859 0.48250473384941611
decision_type=2 2 2
left_child=1 -1 -2
right_child=2 -3 -4
leaf_value=-0.01773630989922417 -0.095962578174860591 0.10750492657224336 0.0099238716472278953
leaf_weight=9.0000000000000018 23 21 10.999999999999998
leaf_count=9 23 21 11
internal_value=0 0.0699326 -0.0617052
internal_weight=0 30 34
internal_count=64 30 34
is_linear=0
shrinkage=0.02


Tree=6
num_leaves=4
num_cat=0
split_feature=104 0 17
split_gain=668.361 483.577 202.54
threshold=-0.14134672001292894 1.0000000180025095e-35 0.26538860153869553
decision_type=2 2 2
left_child=1 -1 -2
right_child=2 -3 -4
leaf_value=-0.022784521818161003 -0.068969125454040145 0.15931323011006629 0.057068376143773393
leaf_weight=10.000000000000002 34 13.999999999999998 5.9999999999999991
leaf_count=10 34 14 6
internal_value=0 0.0834392 -0.0500635
internal_weight=0 24 40
internal_count=64 24 40
is_linear=0
shrinkage=0.02


Tree=7
num_leaves=4
num_cat=0
split_feature=3 92 0
split_gain=645.924 231.093 198.956
threshold=-0.3449778566504243 -0.35419226886640859 0.48250473384941611
decision_type=2 2 2
left_child=1 -1 -2
right_child=2 -3 -4
leaf_value=-0.017150349352094856 -0.093141277950742979 0.10398006218175093 0.010274657661264593
leaf_weight=9.0000000000000018 23 21 10.999999999999998
leaf_count=9 23 21 11
internal_value=0 0.0676409 -0.0596832
internal_weight=0 30 34
internal_count=64 30 34
is_linear=0
shrinkage=0.02


Tree=8
num_leaves=4
num_cat=0
split_feature=3 92 0
split_gain=620.346 221.942 191.077
threshold=-0.3449778566504243 -0.35419226886640859 0.48250473384941611
decision_type=2 2 2
left_child=1 -1 -2
right_child=2 -3 -4
leaf_value=-0.016807342370351148 -0.091278452665909476 0.10190045920156297 0.010069165988401933
leaf_weight=9.0000000000000018 23 21 10.999999999999998
leaf_count=9 23 21 11
internal_value=0 0.0662881 -0.0584895
internal_weight=0 30 34
internal_count=64 30 34
is_linear=0
shrinkage=0.02


Tree=9
num_leaves=4
num_cat=0
split_feature=104 25 17
split_gain=612.291 287.826 184.051
threshold=-0.14134672001292894 -0.27211375201499094 0.26538860153869553
decision_type=2 2 2
left_child=1 -1 -2
right_child=2 -3 -4
leaf_value=0.12430667533594017 -0.065939677059650426 -0.02807301712887628 0.054207778374354046
leaf_weight=17.000000000000004 34 6.9999999999999991 5.9999999999999991
leaf_count=17 34 7 6
internal_value=0 0.0798626 -0.0479176
internal_weight=0 24 40
internal_count=64 24 40
is_linear=0
shrinkage=0.02


Tree=10
num_leaves=4
num_cat=0
split_feature=104 0 28
split_gain=588.045 457.177 177.588
threshold=-0.14134672001292894 1.0000000180025095e-35 -0.17580285367534701
decision_type=2 2 2
left_child=1 -1 -2
right_child=2 -3 -4
leaf_value=-0.025018064856529226 -0.093548052575853136 0.15203920958297593 -0.0088410617952997036
leaf_weight=10.000000000000002 18 13.999999999999998 22
leaf_count=10 18 14 22
internal_value=0 0.0782653 -0.0469592
internal_weight=0 24 40
internal_count=64 24 40
is_linear=0
shrinkage=0.02


Tree=11
num_leaves=4
num_cat=0
split_feature=104 0 28
split_gain=564.758 439.073 170.556
threshold=-0.14134672001292894 1.0000000180025095e-35 -0.17580285367534701
decision_type=2 2 2
left_child=1 -1 -2
right_child=2 -3 -4
leaf_value=-0.0245177075266838 -0.091677090326944988 0.14899842713560377 -0.0086642403629693127
leaf_weight=10.000000000000002 18 13.999999999999998 22
leaf_count=10 18 14 22
internal_value=0 0.0767 -0.04602
internal_weight=0 24 40
internal_count=64 24 40
is_linear=0
shrinkage=0.02


Tree=12
num_leaves=4
num_cat=0
split_feature=3 14 0
split_gain=554.42 201.273 178.159
threshold=-0.3449778566504243 0.36053102410882287 0.48250473384941611
decision_type=2 2 2
left_child=1 -1 -2
right_child=2 -3 -4
leaf_value=0.096580557227134683 -0.086955543134523486 -0.01646485659811232 0.010906320810317994
leaf_weight=21.000000000000004 23 8.9999999999999982 10.999999999999998
leaf_count=21 23 9 11
internal_value=0 0.0626669 -0.0552944
internal_weight=0 30 34
internal_count=64 30 34
is_linear=0
shrinkage=0.02


Tree=13
num_leaves=4
num_cat=0
split_feature=104 0 17
split_gain=529.562 418.501 167.475
threshold=-0.14134672001292894 1.0000000180025095e-35 0.26538860153869553
decision_type=2 2 2
left_child=1 -1 -2
right_child=2 -3 -4
leaf_value=-0.024546544015407554 -0.061754345736082863 0.1448560192329543 0.052854821681976319
leaf_weight=10.000000000000002 34 13.999999999999998 5.9999999999999991
leaf_count=10 34 14 6
internal_value=0 0.0742716 -0.044563
internal_weight=0 24 40
internal_count=64 24 40
is_linear=0
shrinkage=0.02


Tree=14
num_leaves=4
num_cat=0
split_feature=3 92 0
split_gain=518.697 190.042 169.938
threshold=-0.3449778566504243 -0.35419226886640859 0.48250473384941611
decision_type=2 2 2
left_child=1 -1 -2
right_child=2 -3 -4
leaf_value=-0.016277797354592213 -0.084405377792275471 0.093568198822793505 0.011171970204873519
leaf_weight=9.0000000000000018 23 21 10.999999999999998
leaf_count=9 23 21 11
internal_value=0 0.0606144 -0.0534833
internal_weight=0 30 34
internal_count=64 30 34
is_linear=0
shrinkage=0.02


Tree=15
num_leaves=4
num_cat=0
split_feature=104 0 28
split_gain=496.559 398.898 160.229
threshold=-0.14134672001292894 1.0000000180025095e-35 -0.17580285367534701
decision_type=2 2 2
left_child=1 -1 -2
right_child=2 -3 -4
leaf_value=-0.024556008219718924 -0.087405318419138581 0.14083144860608238 -0.0069447492875836115
leaf_weight=10.000000000000002 18 13.999999999999998 22
leaf_count=10 18 14 22
internal_value=0 0.07192 -0.043152
internal_weight=0 24 40
internal_count=64 24 40
is_linear=0
shrinkage=0.02


Tree=16
num_leaves=4
num_cat=0
split_feature=3 11 0
split_gain=489.178 178.344 161.729
threshold=-0.3449778566504243 1.0000000180025095e-35 0.48250473384941611
decision_type=2 2 2
left_child=1 -1 -2
right_child=2 -3 -4
leaf_value=0.088270057764920321 -0.082105091136434813 -0.022001454643905162 0.011135225553404203
leaf_weight=22.000000000000004 23 7.9999999999999991 10.999999999999998
leaf_count=22 23 8 11
internal_value=0 0.0588643 -0.0519391
internal_weight=0 30 34
internal_count=64 30 34
is_linear=0
shrinkage=0.02


Tree=17
num_leaves=4
num_cat=0
split_feature=3 0 0
split_gain=469.806 178.466 155.325
threshold=-0.3449778566504243 1.0000000180025095e-35 0.48250473384941611
decision_type=2 2 2
left_child=1 -1 -2
right_child=2 -3 -4
leaf_value=-0.006423208605159411 -0.080462989923746703 0.09480349435618049 0.010912520709362897
leaf_weight=11.000000000000002 23 19 10.999999999999998
leaf_count=11 23 19 11
internal_value=0 0.057687 -0.0509003
internal_weight=0 30 34
internal_count=64 30 34
is_linear=0
shrinkage=0.02


Tree=18
num_leaves=4
num_cat=0
split_feature=3 14 2
split_gain=451.202 175.741 109.472
threshold=-0.3449778566504243 0.36053102410882287 0.7905104819006098
decision_type=2 2 2
left_child=1 -1 -2
right_child=2 -3 -4
leaf_value=0.088222909541357114 -0.023377741223031823 -0.017409141659736633 -0.098474039435386657
leaf_weight=21.000000000000004 22 8.9999999999999982 11.999999999999998
leaf_count=21 22 9 12
internal_value=0 0.0565333 -0.0498823
internal_weight=0 30 34
internal_count=64 30 34
is_linear=0
shrinkage=0.02


Tree=19
num_leaves=4
num_cat=0
split_feature=104 0 28
split_gain=444.753 372.69 150.53
threshold=-0.14134672001292894 1.0000000180025095e-35 -0.17580285367534701
decision_type=2 2 2
left_child=1 -1 -2
right_child=2 -3 -4
leaf_value=-0.025187886118888846 -0.083732025358411996 0.13467422894069128 -0.005744723149321296
leaf_weight=10.000000000000002 18 13.999999999999998 22
leaf_count=10 18 14 22
internal_value=0 0.068065 -0.040839
internal_weight=0 24 40
internal_count=64 24 40
is_linear=0
shrinkage=0.02


Tree=20
num_leaves=4
num_cat=0
split_feature=104 0 28
split_gain=427.141 357.932 144.569
threshold=-0.14134672001292894 1.0000000180025095e-35 -0.17580285367534701
decision_type=2 2 2
left_child=1 -1 -2
right_child=2 -3 -4
leaf_value=-0.024684127330780022 -0.08205738597446019 0.13198074625006745 -0.0056298283182761892
leaf_weight=10.000000000000002 18 13.999999999999998 22
leaf_count=10 18 14 22
internal_value=0 0.0667037 -0.0400222
internal_weight=0 24 40
internal_count=64 24 40
is_linear=0
shrinkage=0.02


Tree=21
num_leaves=4
num_cat=0
split_feature=21 51 28
split_gain=411.654 304.091 98.2642
threshold=-0.30579787877778247 0.418655371807445 -0.17580285367534701
decision_type=2 2 2
left_child=1 -1 -2
right_child=2 -3 -4
leaf_value=0.080664021235245936 -0.094233555426964363 -0.067845189230782643 -0.022072891820636063
leaf_weight=26 13.000000000000002 6.9999999999999991 18
leaf_count=26 13 7 18
internal_value=0 0.0491621 -0.0523338
internal_weight=0 33 31
internal_count=64 33 31
is_linear=0
shrinkage=0.02


Tree=22
num_leaves=4
num_cat=0
split_feature=104 0 28
split_gain=399.486 338.849 133.992
threshold=-0.14134672001292894 1.0000000180025095e-35 -0.17580285367534701
decision_type=2 2 2
left_child=1 -1 -2
right_child=2 -3 -4
leaf_value=-0.024410177111625662 -0.079173199733098346 0.12802138379641942 -0.005594546349549835
leaf_weight=10.000000000000002 18 13.999999999999998 22
leaf_count=10 18 14 22
internal_value=0 0.0645082 -0.0387049
internal_weight=0 24 40
internal_count=64 24 40
is_linear=0
shrinkage=0.02


Tree=23
num_leaves=4
num_cat=0
split_feature=3 100 0
split_gain=394.496 157.795 142.331
threshold=-0.3449778566504243 0.40407245966720368 0.48250473384941611
decision_type=2 2 2
left_child=1 -1 -2
right_child=2 -3 -4
leaf_value=0.029927256703376766 -0.074941662128042916 0.1445989751815796 0.012528200366280296
leaf_weight=24.000000000000004 23 5.9999999999999991 10.999999999999998
leaf_count=24 23 6 11
internal_value=0 0.0528616 -0.0466426
internal_weight=0 30 34
internal_count=64 30 34
is_linear=0
shrinkage=0.02


Tree=24
num_leaves=4
num_cat=0
split_feature=21 0 28
split_gain=372.684 285.363 89.5992
threshold=-0.30579787877778247 1.0000000180025095e-35 -0.17580285367534701
decision_type=2 2 2
left_child=1 -1 -2
right_child=2 -3 -4
leaf_value=-0.02617102256188026 -0.089804861728961627 0.094193599432706832 -0.020899191854728594
leaf_weight=12.999999999999998 13.000000000000002 20 18
leaf_count=13 13 20 18
internal_value=0 0.0467772 -0.0497951
internal_weight=0 33 31
internal_count=64 33 31
is_linear=0
shrinkage=0.02


Tree=25
num_leaves=4
num_cat=0
split_feature=3 11 2
split_gain=365.473 155.626 94.09
threshold=-0.3449778566504243 1.0000000180025095e-35 0.7905104819006098
decision_type=2 2 2
left_child=1 -1 -2
right_child=2 -3 -4
leaf_value=0.078348986723206254 -0.020321967662735418 -0.024660093262791633 -0.089942808747291561
leaf_weight=22.000000000000004 22 7.9999999999999991 11.999999999999998
leaf_count=22 22 8 12
internal_value=0 0.0508799 -0.044894
internal_weight=0 30 34
internal_count=64 30 34
is_linear=0
shrinkage=0.02


Tree=26
num_leaves=4
num_cat=0
split_feature=104 0 28
split_gain=355.334 314.198 122.302
threshold=-0.14134672001292894 1.0000000180025095e-35 -0.17580285367534701
decision_type=2 2 2
left_child=1 -1 -2
right_child=2 -3 -4
leaf_value=-0.024783791184425343 -0.075166074964735249 0.12199830217020852 -0.0048704091324047608
leaf_weight=10.000000000000002 18 13.999999999999998 22
leaf_count=10 18 14 22
internal_value=0 0.0608391 -0.0365035
internal_weight=0 24 40
internal_count=64 24 40
is_linear=0
shrinkage=0.02


Tree=27
num_leaves=4
num_cat=0
split_feature=3 49 0
split_gain=344.627 150.628 132.915
threshold=-0.3449778566504243 -0.047499213719768923 0.48250473384941611
decision_type=2 2 2
left_child=1 -1 -2
right_child=2 -3 -4
leaf_value=0.027000160589814182 -0.070941910549350409 0.13903724749883017 0.013585148182782262
leaf_weight=24.000000000000004 23 5.9999999999999991 10.999999999999998
leaf_count=24 23 6 11
internal_value=0 0.0494076 -0.0435949
internal_weight=0 30 34
internal_count=64 30 34
is_linear=0
shrinkage=0.02


Tree=28
num_leaves=4
num_cat=0
split_feature=104 25 28
split_gain=335.889 230.166 116.987
threshold=-0.14134672001292894 -0.27211375201499094 -0.17580285367534701
decision_type=2 2 2
left_child=1 -1 -2
right_child=2 -3 -4
leaf_value=0.098894868948880332 -0.073303859101401442 -0.037369651113237652 -0.0045525345748121089
leaf_weight=17.000000000000004 18 6.9999999999999991 22
leaf_count=17 18 7 22
internal_value=0 0.0591511 -0.0354906
internal_weight=0 24 40
internal_count=64 24 40
is_linear=0
shrinkage=0.02


Tree=29
num_leaves=4
num_cat=0
split_feature=104 0 28
split_gain=322.588 299.274 112.354
threshold=-0.14134672001292894 1.0000000180025095e-35 -0.17580285367534701
decision_type=2 2 2
left_child=1 -1 -2
right_child=2 -3 -4
leaf_value=-0.025596657037734977 -0.071837782859802246 0.11765709110668728 -0.0044614833051508122
leaf_weight=10.000000000000002 18 13.999999999999998 22
leaf_count=10 18 14 22
internal_value=0 0.057968 -0.0347808
internal_weight=0 24 40
internal_count=64 24 40
is_linear=0
shrinkage=0.02


Tree=30
num_leaves=4
num_cat=0
split_feature=3 49 0
split_gain=315.752 146.027 124.733
threshold=-0.3449778566504243 -0.047499213719768923 0.48250473384941611
decision_type=2 2 2
left_child=1 -1 -2
right_child=2 -3 -4
leaf_value=0.025229874898989993 -0.068220550508602804 0.13554285287857057 0.013663504123687744
leaf_weight=24.000000000000004 23 5.9999999999999991 10.999999999999998
leaf_count=24 23 6 11
internal_value=0 0.0472925 -0.0417287
internal_weight=0 30 34
internal_count=64 30 34
is_linear=0
shrinkage=0.02


end of trees

feature_importances:
Column_0=24
Column_104=14
Column_28=13
Column_3=12
Column_17=5
Column_21=5
Column_51=4
Column_92=4
Column_2=2
Column_11=2
Column_14=2
Column_25=2
Column_49=2
Column_27=1
Column_100=1

parameters:
[boosting: gbdt]
[objective: regression]
[metric: l2]
[tree_learner: serial]
[device_type: cpu]
[data: ]
[valid: ]
[num_iterations: 500]
[learning_rate: 0.02]
[num_leaves: 4]
[num_threads: -1]
[deterministic: 0]
[force_col_wise: 0]
[force_row_wise: 0]
[histogram_pool_size: -1]
[max_depth: 2]
[min_data_in_leaf: 6]
[min_sum_hessian_in_leaf: 0.001]
[bagging_fraction: 1]
[pos_bagging_fraction: 1]
[neg_bagging_fraction: 1]
[bagging_freq: 0]
[bagging_seed: 3]
[feature_fraction: 0.9]
[feature_fraction_bynode: 1]
[feature_fraction_seed: 2]
[extra_trees: 0]
[extra_seed: 6]
[early_stopping_round: 100]
[first_metric_only: 0]
[max_delta_step: 0]
[lambda_l1: 0]
[lambda_l2: 0]
[linear_lambda: 0]
[min_gain_to_split: 0]
[drop_rate: 0.1]
[max_drop: 50]
[skip_drop: 0.5]
[xgboost_dart_mode: 0]
[uniform_drop: 0]
[drop_seed: 4]
[top_rate: 0.2]
[other_rate: 0.1]
[min_data_per_group: 100]
[max_cat_threshold: 32]
[cat_l2: 10]
[cat_smooth: 10]
[max_cat_to_onehot: 4]
[top_k: 20]
[monotone_constraints: ]
[monotone_constraints_method: basic]
[monotone_penalty: 0]
[feature_contri: ]
[forcedsplits_filename: ]
[refit_decay_rate: 0.9]
[cegb_tradeoff: 1]
[cegb_penalty_split: 0]
[cegb_penalty_feature_lazy: ]
[cegb_penalty_feature_coupled: ]
[path_smooth: 0]
[interaction_constraints: ]
[verbosity: -1]
[saved_feature_importance_type: 0]
[linear_tree: 0]
[max_bin: 255]
[max_bin_by_feature: ]
[min_data_in_bin: 3]
[bin_construct_sample_cnt: 200000]
[data_random_seed: 1]
[is_enable_sparse: 1]
[enable_bundle: 1]
[use_missing: 1]
[zero_as_missing: 0]
[feature_pre_filter: 1]
[pre_partition: 0]
[two_round: 0]
[header: 0]
[label_column: ]
[weight_column: ]
[group_column: ]
[ignore_column: ]
[categorical_feature: ]
[forcedbins_filename: ]
[precise_float_parser: 0]
[objective_seed: 5]
[num_class: 1]
[is_unbalance: 0]
[scale_pos_weight: 1]
[sigmoid: 1]
[boost_from_average: 1]
[reg_sqrt: 0]
[alpha: 0.9]
[fair_c: 1]
[poisson_max_delta_step: 0.7]
[tweedie_variance_power: 1.5]
[lambdarank_truncation_level: 30]
[lambdarank_norm: 1]
[label_gain: ]
[eval_at: ]
[multi_error_top_k: 1]
[auc_mu_weights: ]
[num_machines: 1]
[local_listen_port: 12400]
[time_out: 120]
[machine_list_filename: ]
[machines: ]
[gpu_platform_id: -1]
[gpu_device_id: -1]
[gpu_use_dp: 0]
[num_gpu: 1]

end of parameters

pandas_categorical:null
