tree
version=v3
num_class=1
num_tree_per_iteration=1
label_index=0
max_feature_idx=111
objective=regression
feature_names=Column_0 Column_1 Column_2 Column_3 Column_4 Column_5 Column_6 Column_7 Column_8 Column_9 Column_10 Column_11 Column_12 Column_13 Column_14 Column_15 Column_16 Column_17 Column_18 Column_19 Column_20 Column_21 Column_22 Column_23 Column_24 Column_25 Column_26 Column_27 Column_28 Column_29 Column_30 Column_31 Column_32 Column_33 Column_34 Column_35 Column_36 Column_37 Column_38 Column_39 Column_40 Column_41 Column_42 Column_43 Column_44 Column_45 Column_46 Column_47 Column_48 Column_49 Column_50 Column_51 Column_52 Column_53 Column_54 Column_55 Column_56 Column_57 Column_58 Column_59 Column_60 Column_61 Column_62 Column_63 Column_64 Column_65 Column_66 Column_67 Column_68 Column_69 Column_70 Column_71 Column_72 Column_73 Column_74 Column_75 Column_76 Column_77 Column_78 Column_79 Column_80 Column_81 Column_82 Column_83 Column_84 Column_85 Column_86 Column_87 Column_88 Column_89 Column_90 Column_91 Column_92 Column_93 Column_94 Column_95 Column_96 Column_97 Column_98 Column_99 Column_100 Column_101 Column_102 Column_103 Column_104 Column_105 Column_106 Column_107 Column_108 Column_109 Column_110 Column_111
feature_infos=[-4.396735309452227:1.4798242691595935] [-3.9931542386612815:0.30460358580935648] [-1.9222987032914194:0.81210743239187821] [-0.66417307606227116:4.1943477903969422] [-1.3191231482590229:3.0037864460356065] [-2.3762855004952117:2.0822719787477428] [-1.7584307175569578:3.1939767844676008] [-1.7143380690357162:3.0567000408096807] [-2.0752609304079304:3.7876548325940251] [-1.635636752728844:3.5477248586163022] [-1.540722592072804:2.9633401607754557] [-1.8225259474331981:1.7482695766073713] [-1.9352947726983691:3.0188071908987344] [-0.79095751739001918:4.2037034715101829] [-1.8177925047763834:2.2743576588596945] [-1.9184905912608092:2.6343652527972687] [-1.0109518977050629:4.0117588431915969] [-0.92505726366369612:5.5970068305444007] [-0.79171770207964509:4.202840212467394] [-2.1221300792233126:3.4041101609016526] [-2.0084499142715551:3.4270010076900363] [-0.49914814682718761:5.41232516323136] [-2.3242917492106034:3.1301370019114034] [-1.8775930993676846:3.6727975869848239] [-0.63373485538249541:4.9503143627059378] [-1.1559372662573977:3.9223154136213401] [-1.8073783725052146:3.7319699230106873] [-1.9289726289579303:3.814125511911024] [-2.0081707952676084:3.9289449038459625] [-4.7991596714828075:1.1537137132866213] [-1.3946916442464901:3.3363354685604025] [-1.8585872183466645:3.6732706352993483] [-1.915562299902863:3.8155417207667837] [-2.2200892409776647:4.3253613119057581] [-0.62094644176150293:4.0577667717894466] [-2.2944498437267988:3.3205802215735045] [-1.2850880735386134:4.3999484405935911] [-0.71373052726918429:5.1988789588006785] [-0.66724527565622271:5.9484519751172069] [-1.6064839387636876:6.332977678363461] [-1.4343249345578248:4.0942349234615936] [-0.89423738945421061:5.9205073725127697] [-2.2967831565056853:2.3922905870713866] [-1.435819005842137:4.8728951470509321] [-1.5150813774601948:4.2567182973272439] [-0.84025904059544254:5.6454898641611919] [-3.6983030734309161:1.8707332041337406] [-3.9218020831506153:1.7604359836021957] [-2.5997869077179017:1.9710447927032884] [-1.781642267230731:2.5273389852239712] [-3.1786752233965374:1.6920879334442931] [-2.3868748728938498:2.5987229011768127] [-2.8332651473755317:1.1224605246670289] [-1.1636007543634097:4.4293873518117515] [-1.7864529652542573:3.6405017215824018] [-2.1811689371632133:3.4790548850891536] [-2.227179373500173:2.5539026975981658] [-2.0411504264766176:3.4299353370606593] [-1.1636007543634097:4.4293873518117541] [-2.5107450042004937:2.4983416205282101] [-1.2815587712319427:4.4125991084774006] [-3.085121837347466:2.1033213698049904] [-0.65199498906149311:4.0872220940750976] [-1.6700341247310559:4.1656937582651246] [-2.2311116618723461:3.1251020974687549] [-0.68998401492841199:4.4899666826369984] [-1.3132638325163359:4.39296118669861] [-0.72202765916054068:5.1784187370028505] [-2.199743176585268:2.1834388696035947] [-0.56279080474089882:5.8989751193207507] [-1.2636706309625696:3.5583919543372651] [-1.5937368671735501:3.2376536860262073] [-1.2641270992193698:4.2076341888436355] [-0.61540107890902296:6.8870930688713665] [-1.2497479334689803:3.8251183921315359] [-0.6803777743372833:4.4561995141072677] [-2.6625894627918298:2.5465738050786246] [-1.2338046345710794:4.4177988155179779] [-0.7225327018253741:5.2094318056375801] [-1.57151315915856:2.8070741085734379] [-0.50251758752617326:6.2495705532116821] [-1.1835716073594045:3.5004501664377079] [-1.5734669685351037:3.4067353245932486] [-3.1169322767752714:2.3419278807618689] [-0.66051833916002789:4.0512785472766062] [-1.8697010697751011:3.1430620573661794] [-1.9850669210527718:2.7029000949140753] [-1.4381131045726046:2.8121955841669801] [-2.1967557720916981:2.7018310026418813] [-0.78913426143822107:4.9849103008949411] [-1.6231893766787637:3.4122959520113083] [-0.75469546734978743:4.6191137562205702] [-1.7950271893620549:3.7789229229510219] [-1.661940761811185:4.724175731062993] [-0.86979831798287366:4.9412159790986179] [-0.53794216248589144:5.454678954085316] [-0.50506927600524276:4.4897112557372294] [-0.53459926464071061:4.7639495833765775] [-1.3063810436739576:4.559534198410085] [-0.69956532605280686:3.9615566429759648] [-2.3603561383120875:3.5348701748381428] [-3.3770788774899985:2.7973510924348712] [-0.88610326774143999:4.4571908289140474] [-1.311810233750546:4.572614179516143] [-2.8391920401473714:2.6413185956467151] [-1.0100648349559902:3.9958838128312224] [-0.53665201375528693:5.4580353784827311] [-0.75468624650582261:5.1979348585378364] [-0.24367944456003413:7.306675471276316] [-0.86589958848165616:4.6667481034283362] [-1.5903652125209993:4.1234196484117902] [-0.32229180258850532:6.7498412234395646]
tree_sizes=404 410 410 412 411 411

Tree=0
num_leaves=3
num_cat=0
split_feature=102 9
split_gain=626.625 375.549
threshold=-0.82650623687779612 -0.48909620193641096
decision_type=2 2
left_child=-1 -2
right_child=1 -3
leaf_value=9.8492604614545893 9.7135937907546754 9.6017889166950461
leaf_weight=5.9999999999999991 17 41
leaf_count=6 17 41
internal_value=9.65469 9.63456
internal_weight=0 58
internal_count=64 58
is_linear=0
shrinkage=1


Tree=1
num_leaves=3
num_cat=0
split_feature=102 9
split_gain=601.811 360.677
threshold=-0.82650623687779612 -0.48909620193641096
decision_type=2 2
left_child=-1 -2
right_child=1 -3
leaf_value=0.19068146347999573 0.057728124786825749 -0.051840655578345787
leaf_weight=5.9999999999999991 17 41
leaf_count=6 17 41
internal_value=0 -0.0197257
internal_weight=0 58
internal_count=64 58
is_linear=0
shrinkage=0.02


Tree=2
num_leaves=3
num_cat=0
split_feature=102 9
split_gain=577.979 346.394
threshold=-0.82650623687779612 -0.48909620193641096
decision_type=2 2
left_child=-1 -2
right_child=1 -3
leaf_value=0.18686783426751694 0.056573559080853181 -0.050803842653588553
leaf_weight=5.9999999999999991 17 41
leaf_count=6 17 41
internal_value=0 -0.0193312
internal_weight=0 58
internal_count=64 58
is_linear=0
shrinkage=0.02


Tree=3
num_leaves=3
num_cat=0
split_feature=102 10
split_gain=555.091 342.078
threshold=-0.82650623687779612 -0.089310196936408848
decision_type=2 2
left_child=-1 -2
right_child=1 -3
leaf_value=0.18313047404090566 0.031331386182989397 -0.065868721882502243
leaf_weight=5.9999999999999991 28 30
leaf_count=6 28 30
internal_value=0 -0.0189445
internal_weight=0 58
internal_count=64 58
is_linear=0
shrinkage=0.02


Tree=4
num_leaves=3
num_cat=0
split_feature=37 107
split_gain=536.88 263.711
threshold=-0.53194475352915227 -0.079378326545264541
decision_type=2 2
left_child=-1 -2
right_child=1 -3
leaf_value=0.14319853835635715 0.012324984940615567 -0.077068695967847656
leaf_weight=8.9999999999999982 33 22
leaf_count=9 33 22
internal_value=0 -0.0234325
internal_weight=0 55
internal_count=64 55
is_linear=0
shrinkage=0.02


Tree=5
num_leaves=3
num_cat=0
split_feature=37 10
split_gain=515.619 255.073
threshold=-0.53194475352915227 -0.089310196936408848
decision_type=2 2
left_child=-1 -2
right_child=1 -3
leaf_value=0.14033456848727333 0.022523786173417021 -0.063745845227405951
leaf_weight=8.9999999999999982 26 29
leaf_count=9 26 29
internal_value=0 -0.0229638
internal_weight=0 55
internal_count=64 55
is_linear=0
shrinkage=0.02


end of trees

feature_importances:
Column_102=4
Column_9=3
Column_10=2
Column_37=2
Column_107=1

parameters:
[boosting: gbdt]
[objective: regression]
[metric: l2]
[tree_learner: serial]
[device_type: cpu]
[data: ]
[valid: ]
[num_iterations: 500]
[learning_rate: 0.02]
[num_leaves: 4]
[num_threads: -1]
[deterministic: 0]
[force_col_wise: 0]
[force_row_wise: 0]
[histogram_pool_size: -1]
[max_depth: 2]
[min_data_in_leaf: 6]
[min_sum_hessian_in_leaf: 0.001]
[bagging_fraction: 1]
[pos_bagging_fraction: 1]
[neg_bagging_fraction: 1]
[bagging_freq: 0]
[bagging_seed: 3]
[feature_fraction: 0.9]
[feature_fraction_bynode: 1]
[feature_fraction_seed: 2]
[extra_trees: 0]
[extra_seed: 6]
[early_stopping_round: 100]
[first_metric_only: 0]
[max_delta_step: 0]
[lambda_l1: 0]
[lambda_l2: 0]
[linear_lambda: 0]
[min_gain_to_split: 0]
[drop_rate: 0.1]
[max_drop: 50]
[skip_drop: 0.5]
[xgboost_dart_mode: 0]
[uniform_drop: 0]
[drop_seed: 4]
[top_rate: 0.2]
[other_rate: 0.1]
[min_data_per_group: 100]
[max_cat_threshold: 32]
[cat_l2: 10]
[cat_smooth: 10]
[max_cat_to_onehot: 4]
[top_k: 20]
[monotone_constraints: ]
[monotone_constraints_method: basic]
[monotone_penalty: 0]
[feature_contri: ]
[forcedsplits_filename: ]
[refit_decay_rate: 0.9]
[cegb_tradeoff: 1]
[cegb_penalty_split: 0]
[cegb_penalty_feature_lazy: ]
[cegb_penalty_feature_coupled: ]
[path_smooth: 0]
[interaction_constraints: ]
[verbosity: -1]
[saved_feature_importance_type: 0]
[linear_tree: 0]
[max_bin: 255]
[max_bin_by_feature: ]
[min_data_in_bin: 3]
[bin_construct_sample_cnt: 200000]
[data_random_seed: 1]
[is_enable_sparse: 1]
[enable_bundle: 1]
[use_missing: 1]
[zero_as_missing: 0]
[feature_pre_filter: 1]
[pre_partition: 0]
[two_round: 0]
[header: 0]
[label_column: ]
[weight_column: ]
[group_column: ]
[ignore_column: ]
[categorical_feature: ]
[forcedbins_filename: ]
[precise_float_parser: 0]
[objective_seed: 5]
[num_class: 1]
[is_unbalance: 0]
[scale_pos_weight: 1]
[sigmoid: 1]
[boost_from_average: 1]
[reg_sqrt: 0]
[alpha: 0.9]
[fair_c: 1]
[poisson_max_delta_step: 0.7]
[tweedie_variance_power: 1.5]
[lambdarank_truncation_level: 30]
[lambdarank_norm: 1]
[label_gain: ]
[eval_at: ]
[multi_error_top_k: 1]
[auc_mu_weights: ]
[num_machines: 1]
[local_listen_port: 12400]
[time_out: 120]
[machine_list_filename: ]
[machines: ]
[gpu_platform_id: -1]
[gpu_device_id: -1]
[gpu_use_dp: 0]
[num_gpu: 1]

end of parameters

pandas_categorical:null
