tree
version=v3
num_class=1
num_tree_per_iteration=1
label_index=0
max_feature_idx=9
objective=regression
feature_names=Column_0 Column_1 Column_2 Column_3 Column_4 Column_5 Column_6 Column_7 Column_8 Column_9
feature_infos=[-1.5516829636327842:3.6057483427756676] [-1.7443764496219294:3.0073243235667331] [-0.95390509958039194:6.0021976240740873] [-1.0659675054393642:3.7880295102364303] [-1.5422232759063601:3.0862923818114587] [-2.6145666401938046:2.4676058213795891] [-1.6404373922761495:3.2713740161485503] [-3.0514222605062891:2.0406871384616454] [-2.3698839333988211:2.4156580918575346] [-1.1960801044156104:4.6308007946947018]
tree_sizes=761 779 770 822 917 785 707 882 799 804 772 791 804 708 812 713

Tree=0
num_leaves=7
num_cat=0
split_feature=8 0 3 8 0 3
split_gain=423.584 341.25 243.525 144.502 127.608 84.3863
threshold=-0.18526533480979765 -1.05538631246583 -0.44566657596400677 1.1319379713394271 -0.066665909702072521 2.1454038895571674
decision_type=2 2 2 2 2 2
left_child=1 -1 -3 5 -5 -2
right_child=3 2 -4 4 -6 -7
leaf_value=9.7293125625699766 9.2197335983852025 9.3859792131433881 9.2585625474900013 9.3718839795781026 9.2159792117526127 9.3563125511258836
leaf_weight=0.999999999999999 19.000000000000007 24 7.9999999999999991 7 2.9999999999999982 1.9999999999999989
leaf_count=1 19 24 8 7 3 2
internal_value=9.31563 9.36549 9.35413 9.26254 9.32511 9.23274
internal_weight=0 33 32 31 10 21
internal_count=64 33 32 31 10 21
is_linear=0
shrinkage=1


Tree=1
num_leaves=7
num_cat=0
split_feature=3 4 4 7 3 3
split_gain=376.917 331.109 333.852 105.701 197.002 192.399
threshold=-0.28889406066157941 2.3329491827740534 1.0000000180025095e-35 1.2495082322924278 2.1454038895571674 1.6260339706395428
decision_type=2 2 2 2 2 2
left_child=1 2 -1 4 -2 -5
right_child=3 -3 -4 5 -6 -7
leaf_value=0.066875802552184227 -0.07962960311522084 0.40541374206542968 -0.098632407188415525 0.1385623296101888 0.20687376022338869 -0.087946837743123341
leaf_weight=26 24.000000000000007 0.999999999999999 5.9999999999999991 2.9999999999999991 0.999999999999999 3
leaf_count=26 24 1 6 3 1 3
internal_value=0 0.0470421 0.035843 -0.0500771 -0.0681695 0.0253077
internal_weight=0 33 32 31 25 6
internal_count=64 33 32 31 25 6
is_linear=0
shrinkage=0.02


Tree=2
num_leaves=7
num_cat=0
split_feature=1 7 7 1 0 7
split_gain=447.101 296.671 280.849 170.994 155.639 83.2986
threshold=1.0000000180025095e-35 -0.82562738162021432 -1.5609223763118323 2.5372136502705511 -0.066665909702072521 1.2495082322924278
decision_type=2 2 2 2 2 2
left_child=1 2 -1 5 -3 -2
right_child=3 4 -4 -5 -6 -7
leaf_value=-0.019723765055338537 -0.078020405530929551 0.053408169235501964 0.2115661270277841 0.20273628234863281 -0.053194507211446751 0.011403693199157714
leaf_weight=3 25.000000000000007 14 6.9999999999999982 0.999999999999999 9 4.9999999999999991
leaf_count=3 25 14 7 1 9 5
internal_value=0 0.051235 0.142179 -0.0545405 0.0116941 -0.0631164
internal_weight=0 33 10 31 23 30
internal_count=64 33 10 31 23 30
is_linear=0
shrinkage=0.02


Tree=3
num_leaves=7
num_cat=0
split_feature=1 2 8 1 4 3
split_gain=429.396 307.659 325.295 164.223 156.347 71.7348
threshold=1.0000000180025095e-35 -0.31688541460357295 0.65217100084924917 2.5372136502705511 1.0000000180025095e-35 0.38896241913708135
decision_type=2 2 2 2 2 2
left_child=1 2 -1 5 -3 -2
right_child=3 4 -4 -5 -6 -7
leaf_value=0.28388380050659179 -0.030927317380905137 0.041493502437420504 -0.028507637977600087 0.19868156433105469 -0.093982547521591187 -0.09278080411752064
leaf_weight=3.9999999999999991 15.000000000000005 23.000000000000004 1.9999999999999998 0.999999999999999 3.9999999999999991 14.999999999999998
leaf_count=4 15 23 2 1 4 15
internal_value=0 0.0502103 0.179753 -0.0534497 0.021423 -0.0618541
internal_weight=0 33 6 31 27 30
internal_count=64 33 6 31 27 30
is_linear=0
shrinkage=0.02


Tree=4
num_leaves=8
num_cat=0
split_feature=6 4 4 0 4 5 0
split_gain=344.579 202.257 255.905 153.568 141.066 137.511 5.63287
threshold=-0.55396274901035891 0.30960179168478469 -0.45300325625058241 -0.066665909702072521 0.9516569288246991 2.0769059717450373 -0.55427731574260497
decision_type=2 2 2 2 2 2 2
left_child=1 2 -1 4 -2 -5 -3
right_child=3 6 -4 5 -6 -7 -8
leaf_value=0.065083955228328674 -0.030685134274618959 -0.1243871116638182 0.30503937721252444 -0.10025426421846664 0.072986928054264613 0.14250751495361302 -0.066251718997955317
leaf_weight=16.000000000000007 21.000000000000004 1.0000000000000002 1.9999999999999989 13.999999999999996 6.9999999999999991 1.0000000000000007 1.9999999999999989
leaf_count=16 21 1 2 14 7 1 2
internal_value=0 0.0664063 0.0917457 -0.032431 -0.00476712 -0.0840701 -0.0856302
internal_weight=0 21 18 43 28 15 3
internal_count=64 21 18 43 28 15 3
is_linear=0
shrinkage=0.02


Tree=5
num_leaves=7
num_cat=0
split_feature=8 0 3 8 0 8
split_gain=364.584 297.454 203.576 133.353 114.897 76.3672
threshold=-0.18526533480979765 -1.05538631246583 -0.44566657596400677 1.1319379713394271 -0.066665909702072521 0.40328125617194727
decision_type=2 2 2 2 2 2
left_child=1 -1 -3 5 -5 -2
right_child=3 2 -4 4 -6 -7
leaf_value=0.38593673706054688 -0.044846018453439045 0.0647758041570584 -0.051721874922513962 0.055241768189838947 -0.092694541613260933 -0.12191528585222033
leaf_weight=0.999999999999999 12.000000000000005 24 7.9999999999999991 7 2.9999999999999982 8.9999999999999982
leaf_count=1 12 24 8 7 3 9
internal_value=0 0.0462661 0.0356514 -0.049251 0.0108609 -0.0778757
internal_weight=0 33 32 31 10 21
internal_count=64 33 32 31 10 21
is_linear=0
shrinkage=0.02


Tree=6
num_leaves=6
num_cat=0
split_feature=1 4 4 1 7
split_gain=388.697 281.518 282.458 155.063 79.7994
threshold=1.0000000180025095e-35 2.3329491827740534 1.0000000180025095e-35 2.5372136502705511 1.2495082322924278
decision_type=2 2 2 2 2
left_child=1 2 -1 4 -2
right_child=3 -3 -4 -5 -6
leaf_value=0.063015365699927023 -0.073607816362380965 0.37821800231933594 -0.10063438129425048 0.1941451072692871 0.013917868614196778
leaf_weight=27 25.000000000000007 0.999999999999999 4.9999999999999991 0.999999999999999 4.9999999999999991
leaf_count=27 25 1 5 1 5
internal_value=0 0.0477715 0.0374451 -0.0508536 -0.0590202
internal_weight=0 33 32 31 30
internal_count=64 33 32 31 30
is_linear=0
shrinkage=0.02


Tree=7
num_leaves=8
num_cat=0
split_feature=6 4 4 4 3 2 3
split_gain=314.767 186.701 244.693 110.537 369.258 67.3576 4.92728
threshold=-0.55396274901035891 0.30960179168478469 -0.45300325625058241 0.9516569288246991 0.20329894415501235 0.11077025837402797 -0.44566657596400677
decision_type=2 2 2 2 2 2 2
left_child=1 2 -1 5 -5 -2 -3
right_child=3 6 -4 4 -6 -7 -8
leaf_value=0.061743015181273196 -0.063109321823486914 -0.064479777812957745 0.29638277053833006 0.27099614143371592 -0.037146802629743299 0.0032544650137424471 -0.11885224342346186
leaf_weight=16.000000000000007 26 1.9999999999999998 1.9999999999999989 1.999999999999998 7 7.9999999999999991 0.99999999999999944
leaf_count=16 26 2 2 2 7 8 1
internal_value=0 0.0634687 0.0878141 -0.0309963 0.0313294 -0.0474943 -0.0826039
internal_weight=0 21 18 43 9 34 3
internal_count=64 21 18 43 9 34 3
is_linear=0
shrinkage=0.02


Tree=8
num_leaves=7
num_cat=0
split_feature=1 2 0 9 1 8
split_gain=362.577 279.184 286.426 261.99 148.949 52.974
threshold=1.0000000180025095e-35 -0.31688541460357295 0.40708372446183166 0.66533587386085036 2.5372136502705511 -0.61211644329375103
decision_type=2 2 2 2 2 2
left_child=1 2 -1 -3 5 -2
right_child=4 3 -4 -5 -6 -7
leaf_value=0.23133930969238281 0.0226108312606811 -0.018141603201627728 -0.13944976806640613 0.12402250937053136 0.19100515365600587 -0.065978145444834685
leaf_weight=4.9999999999999991 3.0000000000000062 20.000000000000004 0.99999999999999989 6.9999999999999991 0.999999999999999 27
leaf_count=5 3 20 1 7 1 27
internal_value=0 0.0461386 0.169541 0.0187158 -0.0491152 -0.0571192
internal_weight=0 33 6 27 31 30
internal_count=64 33 6 27 31 30
is_linear=0
shrinkage=0.02


Tree=9
num_leaves=7
num_cat=0
split_feature=1 2 8 1 3 3
split_gain=348.219 268.128 274.732 143.051 94.1086 65.1821
threshold=1.0000000180025095e-35 -0.31688541460357295 0.65217100084924917 2.5372136502705511 -0.44566657596400677 0.38896241913708135
decision_type=2 2 2 2 2 2
left_child=1 2 -1 5 -3 -2
right_child=3 4 -4 -5 -6 -7
leaf_value=0.26184639453887942 -0.026496452967325834 0.031542776428783934 -0.02524187088012694 0.18718503952026366 -0.087269218762715553 -0.085457273085912069
leaf_weight=3.9999999999999991 15.000000000000005 24 1.9999999999999998 0.999999999999999 3.0000000000000027 14.999999999999998
leaf_count=4 15 24 2 1 3 15
internal_value=0 0.0452158 0.16615 -0.0481329 0.0183414 -0.0559769
internal_weight=0 33 6 31 27 30
internal_count=64 33 6 31 27 30
is_linear=0
shrinkage=0.02


Tree=10
num_leaves=7
num_cat=0
split_feature=1 7 7 0 1 7
split_gain=334.429 242.82 246.534 142.342 137.386 75.3506
threshold=1.0000000180025095e-35 -0.82562738162021432 -1.5609223763118323 -0.066665909702072521 2.5372136502705511 1.2495082322924278
decision_type=2 2 2 2 2 2
left_child=1 2 -1 -3 5 -2
right_child=4 3 -4 -5 -6 -7
leaf_value=-0.025101361274719229 -0.069032479739189134 0.04843123597758156 0.19159847899739235 -0.053516019516521018 0.18344135284423829 0.016018444061279297
leaf_weight=3 25.000000000000007 14 6.9999999999999982 9 0.999999999999999 4.9999999999999991
leaf_count=3 25 14 7 9 1 5
internal_value=0 0.0443115 0.126589 0.00853883 -0.0471703 -0.0548573
internal_weight=0 33 10 23 31 30
internal_count=64 33 10 23 31 30
is_linear=0
shrinkage=0.02


Tree=11
num_leaves=7
num_cat=0
split_feature=8 9 9 8 9 8
split_gain=304.914 246.524 170.397 124.098 105.422 65.7327
threshold=-0.18526533480979765 -0.9402027983910799 0.66533587386085036 1.1319379713394271 -1.0000000180025095e-35 0.40328125617194727
decision_type=2 2 2 2 2 2
left_child=1 -1 -3 5 -5 -2
right_child=3 2 -4 4 -6 -7
leaf_value=0.35153804779052733 -0.042010423863927497 0.0082265105247497569 0.11986571150166649 0.055459207296371452 -0.086245964368184436 -0.11351246621873644
leaf_weight=0.999999999999999 12.000000000000005 25 6.9999999999999991 7 2.9999999999999982 8.9999999999999982
leaf_count=1 12 25 7 7 3 9
internal_value=0 0.0423109 0.0326476 -0.0450407 0.0129477 -0.0726542
internal_weight=0 33 32 31 10 21
internal_count=64 33 32 31 10 21
is_linear=0
shrinkage=0.02


Tree=12
num_leaves=7
num_cat=0
split_feature=1 2 0 7 1 7
split_gain=312.229 252.546 257.545 154.812 132.169 72.7144
threshold=1.0000000180025095e-35 -0.31688541460357295 0.40708372446183166 -0.82562738162021432 2.5372136502705511 1.2495082322924278
decision_type=2 2 2 2 2 2
left_child=1 2 -1 -3 5 -2
right_child=4 3 -4 -5 -6 -7
leaf_value=0.21878327941894532 -0.067042390131950361 0.090537940785288776 -0.13281537055969225 -0.014341840853816585 0.18061271667480469 0.016507488250732422
leaf_weight=4.9999999999999991 25.000000000000007 8.0000000000000018 0.99999999999999989 19 0.999999999999999 4.9999999999999991
leaf_count=5 25 8 1 19 1 5
internal_value=0 0.0428154 0.160184 0.0167337 -0.0455777 -0.0531174
internal_weight=0 33 6 27 31 30
internal_count=64 33 6 27 31 30
is_linear=0
shrinkage=0.02


Tree=13
num_leaves=6
num_cat=0
split_feature=1 4 4 1 1
split_gain=299.865 229.213 244.073 126.935 49.7858
threshold=1.0000000180025095e-35 2.3329491827740534 1.0000000180025095e-35 2.5372136502705511 1.35120944472805
decision_type=2 2 2 2 2
left_child=1 2 -1 4 -2
right_child=3 -3 -4 -5 -6
leaf_value=0.056410653127564325 -0.039172805150349925 0.34013160705566409 -0.095713562965393073 0.17700046539306641 -0.10358409166336059
leaf_weight=27 24.000000000000007 0.999999999999999 4.9999999999999991 0.999999999999999 5.9999999999999991
leaf_count=27 24 1 5 1 6
internal_value=0 0.0419591 0.0326412 -0.0446662 -0.0520551
internal_weight=0 33 32 31 30
internal_count=64 33 32 31 30
is_linear=0
shrinkage=0.02


Tree=14
num_leaves=7
num_cat=0
split_feature=1 2 0 9 1 1
split_gain=287.99 239.486 241.385 234.071 121.908 47.8142
threshold=1.0000000180025095e-35 -0.31688541460357295 0.40708372446183166 0.66533587386085036 2.5372136502705511 1.35120944472805
decision_type=2 2 2 2 2 2
left_child=1 2 -1 -3 5 -2
right_child=4 3 -4 -5 -6 -7
leaf_value=0.21214451599121095 -0.038389348996182272 -0.019116693362593647 -0.12824479103088368 0.11525920638016292 0.17346046447753907 -0.10151240746180216
leaf_weight=4.9999999999999991 24.000000000000007 20.000000000000004 0.99999999999999989 6.9999999999999991 0.999999999999999 5.9999999999999991
leaf_count=5 24 20 1 7 1 6
internal_value=0 0.04112 0.155413 0.0157215 -0.0437729 -0.051014
internal_weight=0 33 6 27 31 30
internal_count=64 33 6 27 31 30
is_linear=0
shrinkage=0.02


Tree=15
num_leaves=6
num_cat=0
split_feature=1 4 4 1 3
split_gain=276.586 215.013 230.708 117.081 59.5144
threshold=1.0000000180025095e-35 2.3329491827740534 1.0000000180025095e-35 2.5372136502705511 0.38896241913708135
decision_type=2 2 2 2 2
left_child=1 2 -1 4 -2
right_child=3 -3 -4 -5 -6
leaf_value=0.054382329020235272 -0.021824103752772005 0.32908607482910157 -0.093517951011657718 0.16999124526977538 -0.078163259903589882
leaf_weight=27 15.000000000000005 0.999999999999999 4.9999999999999991 0.999999999999999 14.999999999999998
leaf_count=27 15 1 5 1 15
internal_value=0 0.0402976 0.0312729 -0.0428974 -0.0499937
internal_weight=0 33 32 31 30
internal_count=64 33 32 31 30
is_linear=0
shrinkage=0.02


end of trees

feature_importances:
Column_1=22
Column_4=15
Column_3=12
Column_0=11
Column_8=11
Column_7=10
Column_2=6
Column_9=5
Column_6=2
Column_5=1

parameters:
[boosting: gbdt]
[objective: regression]
[metric: l2]
[tree_learner: serial]
[device_type: cpu]
[data: ]
[valid: ]
[num_iterations: 500]
[learning_rate: 0.02]
[num_leaves: 8]
[num_threads: -1]
[deterministic: 0]
[force_col_wise: 0]
[force_row_wise: 0]
[histogram_pool_size: -1]
[max_depth: 3]
[min_data_in_leaf: 1]
[min_sum_hessian_in_leaf: 0.001]
[bagging_fraction: 1]
[pos_bagging_fraction: 1]
[neg_bagging_fraction: 1]
[bagging_freq: 0]
[bagging_seed: 3]
[feature_fraction: 0.5]
[feature_fraction_bynode: 1]
[feature_fraction_seed: 2]
[extra_trees: 0]
[extra_seed: 6]
[early_stopping_round: 100]
[first_metric_only: 0]
[max_delta_step: 0]
[lambda_l1: 0]
[lambda_l2: 0]
[linear_lambda: 0]
[min_gain_to_split: 0]
[drop_rate: 0.1]
[max_drop: 50]
[skip_drop: 0.5]
[xgboost_dart_mode: 0]
[uniform_drop: 0]
[drop_seed: 4]
[top_rate: 0.2]
[other_rate: 0.1]
[min_data_per_group: 100]
[max_cat_threshold: 32]
[cat_l2: 10]
[cat_smooth: 10]
[max_cat_to_onehot: 4]
[top_k: 20]
[monotone_constraints: ]
[monotone_constraints_method: basic]
[monotone_penalty: 0]
[feature_contri: ]
[forcedsplits_filename: ]
[refit_decay_rate: 0.9]
[cegb_tradeoff: 1]
[cegb_penalty_split: 0]
[cegb_penalty_feature_lazy: ]
[cegb_penalty_feature_coupled: ]
[path_smooth: 0]
[interaction_constraints: ]
[verbosity: -1]
[saved_feature_importance_type: 0]
[linear_tree: 0]
[max_bin: 255]
[max_bin_by_feature: ]
[min_data_in_bin: 3]
[bin_construct_sample_cnt: 200000]
[data_random_seed: 1]
[is_enable_sparse: 1]
[enable_bundle: 1]
[use_missing: 1]
[zero_as_missing: 0]
[feature_pre_filter: 1]
[pre_partition: 0]
[two_round: 0]
[header: 0]
[label_column: ]
[weight_column: ]
[group_column: ]
[ignore_column: ]
[categorical_feature: ]
[forcedbins_filename: ]
[precise_float_parser: 0]
[objective_seed: 5]
[num_class: 1]
[is_unbalance: 0]
[scale_pos_weight: 1]
[sigmoid: 1]
[boost_from_average: 1]
[reg_sqrt: 0]
[alpha: 0.9]
[fair_c: 1]
[poisson_max_delta_step: 0.7]
[tweedie_variance_power: 1.5]
[lambdarank_truncation_level: 30]
[lambdarank_norm: 1]
[label_gain: ]
[eval_at: ]
[multi_error_top_k: 1]
[auc_mu_weights: ]
[num_machines: 1]
[local_listen_port: 12400]
[time_out: 120]
[machine_list_filename: ]
[machines: ]
[gpu_platform_id: -1]
[gpu_device_id: -1]
[gpu_use_dp: 0]
[num_gpu: 1]

end of parameters

pandas_categorical:null
